svm_type c_svc
kernel_type rbf
gamma 0.0123457
nr_class 2
total_sv 11629
rho -0.919451
label 0 1
probA -2.27727
probB -0.425813
nr_sv 10758 871
SV
0.080078125 1:11 2:7850.549 3:9407.8437 16:1 19:2168 20:36.169932 21:582.04935 25:2 26:54422.702 27:0 28:3 29:16168.214 30:9669.4004 43:6 44:10884.62 45:21768.843 46:15 47:5384.4292 48:8686.9938 52:4910 53:17.180931 54:179.37048 
0.080078125 19:336 20:39.068114 21:518.6425 46:2 47:0.084161 48:0 52:2 53:240.98037 54:0 
0.080078125 19:860 20:116.23051 21:667.51011 25:5 26:13321.84 27:15517.512 28:3 29:10761.424 30:2622.5688 37:1 43:35 44:1712.2319 45:5094.1402 46:45 47:1964.5092 48:4721.0777 52:372 53:231.78874 54:737.662 61:1 
0.080078125 1:6 2:8193.5666 3:16356.358 16:2 17:105096.35 18:0 19:4753 20:35.262732 21:381.82059 25:29 26:5522.6633 27:10715.885 28:33 29:4994.6323 30:8758.846 37:2 38:1024.3581 39:0 43:154 44:1086.453 45:3600.1082 46:189 47:878.2425 48:2892.2752 52:659 53:261.34165 54:901.26163 55:1 61:1 
0.080078125 1:6 2:8193.5666 3:16356.358 16:1 19:3515 20:48.006585 21:472.69077 25:23 26:6649.6313 27:12799.421 28:27 29:2999.7672 30:6683.9498 43:116 44:1292.3302 45:5775.0992 46:155 47:1105.7972 48:6192.0742 52:682 53:251.68896 54:850.66496 61:1 
0.080078125 19:3823 20:43.336689 21:391.7288 25:4 26:35076.948 27:7729.2046 43:16 44:7015.4161 45:13054.519 46:36 47:2998.1461 48:3918.6923 52:891 53:191.56398 54:561.49838 
0.080078125 1:1 19:5095 20:33.87015 21:276.05664 25:5 26:29877.884 27:4839.8869 28:2 29:18750.865 30:0 43:19 44:6639.5519 45:11289.897 46:45 47:3681.3579 48:6293.0271 52:952 53:179.55579 54:467.60394 
0.080078125 1:3 2:21233.054 3:19248.462 16:21 17:5133.7188 18:6316.3458 19:4006 20:42.927247 21:357.61056 25:2 26:44813.704 27:0 28:2 29:48.507894 30:0 37:1 40:1 43:10 44:16302.424 45:30672.626 46:23 47:4737.8152 48:6854.1605 52:896 53:190.17659 54:507.03791 
0.080078125 1:4 2:29683.834 3:19744.203 16:45 17:3444.3932 18:5640.85 19:3727 20:44.878924 21:353.10087 25:5 26:12536.851 27:21649.511 28:6 29:30139.667 30:48867.435 37:1 43:17 44:6018.1175 45:12519.342 46:33 47:5130.1403 48:12547.454 52:985 53:173.94171 54:564.12748 
0.080078125 1:2 2:72404.661 3:0 4:1 16:44 17:2720.6313 18:4891.8649 19:4469 20:38.193382 21:194.58283 25:5 26:12536.851 27:21649.511 28:17 29:7054.116 30:9931.9743 43:21 44:6831.1801 45:11200.101 46:78 47:1825.6284 48:4588.598 52:2007 53:85.726683 54:309.698 
0.080078125 1:1 4:1 16:11 17:3341.0815 18:3172.5421 19:3857 20:44.724958 21:366.88029 25:2 26:41467.293 27:0 28:15 29:6539.1284 30:10051.296 34:1 43:15 44:11982.938 45:15097.957 46:73 47:2306.3849 48:5126.1761 52:1711 53:88.067394 54:745.93009 61:1 
0.080078125 19:2750 20:62.438391 21:472.28844 25:4 26:40021.662 27:5294.461 28:2 29:13.099073 30:0 34:1 43:24 44:6525.9392 45:10942.175 46:22 47:6422.5513 48:9397.5888 52:350 53:441.13775 54:2945.9177 61:1 
0.080078125 19:3459 20:49.182518 21:564.32121 25:3 26:69093.2 27:23431.997 28:2 29:38167.816 30:0 37:2 38:796.07661 39:0 43:26 44:6566.0555 45:10823.245 46:19 47:8442.0211 48:15865.133 52:32 53:4270.3409 54:12377.141 
0.080078125 1:1 19:6168 20:27.978882 21:420.213 25:5 26:23546.309 27:16314.401 28:5 29:29408.919 30:18750.04 31:1 37:2 38:796.07661 39:0 43:51 44:2692.3417 45:4097.8001 46:40 47:3639.1333 48:7200.1949 52:6 53:18520.133 54:22516.319 
0.080078125 1:2 2:43342.62 3:0 19:6296 20:26.990366 21:221.23727 25:6 26:27806.477 27:16946.991 28:4 29:20437.599 30:13858.246 31:1 43:51 44:2934.5658 45:4542.9803 46:48 47:3256.0645 48:4421.6418 52:3 53:28974.306 54:14608.505 
0.080078125 1:1 19:5060 20:34.00995 21:260.50178 25:4 26:39330.989 27:8792.9259 28:4 29:28470.718 30:40203.447 40:1 43:26 44:6512.9275 45:7279.656 46:37 47:4000.2429 48:6145.1314 52:3 53:79295.857 54:41226.565 
0.080078125 19:4568 20:37.191037 21:364.47918 25:4 26:42680.82 27:6402.8886 28:4 29:45771.758 30:64670.808 40:1 43:32 44:4595.7194 45:7195.7817 46:32 47:4880.5952 48:7474.0851 52:6 53:21904.163 54:9412.1093 
0.080078125 4:1 19:4085 20:40.827147 21:506.68699 25:2 26:43795.151 27:0 28:6 29:21066.252 30:21512.044 43:32 44:5102.4325 45:12535.794 46:43 47:3865.7211 48:8313.5571 52:7 53:23127.709 54:16145.067 
0.080078125 4:1 19:4375 20:39.003776 21:442.66742 25:1 28:5 29:18684.824 30:23454.297 43:18 44:8118.0559 45:18017.354 46:32 47:4740.7394 48:12147.227 52:3 53:21207.173 54:16670.281 
0.080078125 1:1 19:4167 20:40.329369 21:391.52322 25:2 26:65323.426 27:0 43:11 44:12223.985 45:15102.369 46:11 47:10339.587 48:10525.425 52:2 53:3781.8695 54:0 
0.080078125 1:1 19:3987 20:42.356287 21:421.38213 25:4 26:36481.72 27:11943.692 28:3 29:34463.845 30:34414.739 37:1 43:38 44:4282.8956 45:9753.1243 46:18 47:9895.3689 48:18875.236 52:17 53:8517.0952 54:16779.446 
0.080078125 1:1 19:3719 20:45.58453 21:754.33195 25:4 26:48805.287 27:24899.191 28:7 29:19250.538 30:27099.27 37:1 43:35 44:4931.7392 45:13988.493 46:63 47:2502.9607 48:10105.182 52:16 53:8234.2301 54:15844.547 
0.080078125 1:1 19:3656 20:36.560515 21:203.36254 25:3 26:48481.292 27:1852.9739 28:5 29:32900.342 30:55132.771 37:2 38:173.05093 39:0 43:14 44:7458.6908 45:10322.359 46:66 47:2024.8975 48:5842.5115 52:266 53:499.23041 54:3849.6982 
0.080078125 1:2 2:13205.264 3:0 4:1 19:4262 20:40.448465 21:224.16762 25:6 26:15184.681 27:19376.537 28:7 29:9491.4695 30:9966.8133 37:9 38:8953.6457 39:12428.812 43:27 44:4766.151 45:8438.4213 46:52 47:3278.8708 48:6967.6303 52:890 53:180.3547 54:830.6606 
0.080078125 1:3 2:77182.43 3:63977.166 4:1 19:3401 20:47.772926 21:258.06485 25:7 26:22197.154 27:25038.842 28:6 29:6489.3471 30:8070.2171 37:7 38:7069.8929 39:11061.055 43:39 44:3999.8704 45:8485.2302 46:41 47:3794.3452 48:8804.0955 52:965 53:166.7988 54:471.72642 
0.080078125 1:4 2:31151.99 3:19631.767 19:4186 20:40.468084 21:421.38855 25:4 26:31543.423 27:8937.2178 28:1 43:44 44:2979.7347 45:5306.9491 46:14 47:9555.4411 48:11706.987 52:637 53:267.12425 54:904.483 
0.080078125 1:19 2:7362.3777 3:14379.785 19:5105 20:33.343031 21:385.30854 25:4 26:52191.708 27:28015.89 28:23 29:6975.9786 30:20969.125 43:51 44:3366.4486 45:9671.5806 46:94 47:1751.1634 48:6208.3777 52:706 53:239.0507 54:677.58972 
0.080078125 1:16 2:3437.7218 3:8722.9592 19:5526 20:31.2332 21:272.19917 25:4 26:40130.397 27:14313.666 28:24 29:6384.4702 30:18935.566 43:45 44:3682.07 45:8421.6282 46:99 47:1597.3251 48:5532.1715 52:916 53:186.92273 54:546.0152 
0.080078125 1:1 19:6133 20:27.801203 21:215.42454 25:5 26:31382.907 27:16552.519 28:6 29:4558.3402 30:7669.2137 37:22 38:187.23885 39:145.16327 43:57 44:2998.786 45:8036.8108 46:31 47:5346.422 48:7407.2974 52:958 53:178.49169 54:506.11933 
0.080078125 1:1 19:5153 20:33.467801 21:292.51273 25:6 26:30257.753 27:14500.19 28:5 29:31197.949 30:53540.593 37:23 38:5682.062 39:25180.843 43:65 44:2501.5407 45:6652.1896 46:20 47:6568.3209 48:11533.998 52:894 53:190.12823 54:501.38714 
0.080078125 19:4082 20:41.989186 21:386.0356 25:3 26:40318.141 27:3317.8237 28:3 29:43430.672 30:36383.059 37:1 43:33 44:4540.8157 45:10178.212 46:35 47:3768.4141 48:8523.87 52:809 53:213.52138 54:629.47025 
0.080078125 1:2 2:6382.6353 3:0 16:1 19:4033 20:39.814842 21:359.93256 25:3 26:68745.506 27:18641.78 28:5 29:28554.142 30:34682.701 37:1 43:28 44:5299.7431 45:10253.479 46:44 47:3553.7563 48:6831.5692 52:894 53:193.32554 54:616.67928 
0.080078125 1:4 2:78.032357 3:75.274106 19:5045 20:33.585019 21:385.37605 22:1 25:9 26:16531.02 27:11589.511 28:16 29:7810.7729 30:14142.472 43:310 44:471.16505 45:1128.2591 46:107 47:1108.0641 48:3991.2137 52:6 53:25033.763 54:26911.578 
0.080078125 1:3 2:383.69286 3:112.25015 19:5992 20:28.762342 21:148.48713 25:9 26:16782.131 27:13280.776 28:11 29:16251.549 30:34228.736 43:452 44:380.85709 45:737.47714 46:47 47:3566.0891 48:11588.199 52:247 53:613.19759 54:3329.7425 
0.080078125 1:3 2:383.69286 3:112.25015 19:4590 20:37.539073 21:148.38301 25:13 26:7348.7371 27:5460.7692 28:10 29:8530.4143 30:12469.549 40:1 43:460 44:370.30138 45:701.55561 46:42 47:2862.8463 48:5357.4991 52:570 53:273.15168 54:813.04588 
0.080078125 1:2 2:22.455864 3:0 16:1 19:4792 20:35.729126 21:197.19329 25:11 26:9299.5278 27:10616.585 28:5 29:10239.156 30:7088.5102 34:1 37:1 43:451 44:380.35577 45:719.77101 46:26 47:4325.8202 48:7078.5346 52:913 53:188.92869 54:663.76498 
0.080078125 19:4042 20:42.683945 21:257.26878 25:9 26:18066.129 27:20615.625 28:4 29:10.598207 30:0.66931194 34:1 43:423 44:408.73418 45:873.28719 46:25 47:6526.2272 48:12739.329 52:668 53:256.74178 54:743.87578 
0.080078125 1:1 19:5082 20:32.910997 21:170.10852 25:16 26:10273.82 27:14802.637 28:1 43:441 44:378.36929 45:732.47919 46:33 47:4339.8634 48:12807.877 52:791 53:214.13787 54:578.66744 
0.080078125 1:3 2:76229.681 3:59826.679 19:79522 20:2.0989476 21:50.236289 25:18 26:9038.1027 27:9985.0123 34:1 43:417 44:398.52473 45:993.33309 46:10 47:17482.65 48:20509.85 52:774 53:215.49576 54:664.39734 
0.080078125 1:2 2:317.66558 3:0 16:1 19:4753 20:36.086983 21:214.24469 22:17 23:6901.4445 24:14733.321 25:9 26:14433.57 27:19049.947 28:8 29:10416.881 30:17397.886 43:438 44:390.83031 45:839.66894 46:43 47:1742.0423 48:5298.2219 52:696 53:245.08718 54:706.15904 
0.080078125 1:2 2:317.66558 3:0 16:2 17:135545.9 18:0 19:4049 20:41.573371 21:203.31484 22:13 23:4894.4732 24:14134.976 25:13 26:11395.634 27:14344.82 28:7 29:22131.477 30:15622.532 43:426 44:395.97413 45:852.91068 46:44 47:3139.0577 48:7146.9876 52:680 53:246.91518 54:733.22039 
0.080078125 1:1 16:1 19:3195 20:53.499614 21:224.74811 25:11 26:14322.737 27:14089.791 28:6 29:30318.954 30:30061.078 34:1 43:462 44:370.66761 45:754.05397 46:30 47:5227.4161 48:10780.239 52:3742 53:45.659012 54:292.66526 
0.080078125 1:2 2:63247.34 3:0 19:5360 20:31.938472 21:196.6649 22:1 25:10 26:15265.515 27:13266.951 28:2 29:25706.854 30:0 34:1 43:473 44:360.7894 45:707.78559 46:17 47:7216.0194 48:11144.114 52:4930 53:34.078678 54:228.81233 
0.080078125 1:5 2:30864.534 3:28531.832 4:1 19:6068 20:28.109773 21:178.67467 22:1 25:11 26:15330.992 27:14220.471 28:1 43:476 44:348.44333 45:682.48576 46:21 47:8405.9802 48:14639.034 52:6779 53:25.30677 54:198.06935 
0.080078125 1:6 2:23359.151 3:16361.497 4:1 19:5905 20:29.114576 21:167.76479 22:1 25:12 26:11921.532 27:14107.971 28:1 43:496 44:345.92334 45:677.0419 46:18 47:6822.1177 48:11459.496 52:10309 53:16.533176 54:142.08678 61:2 62:9182.7696 63:0 
0.080078125 1:3 2:67419.698 3:30816.529 19:6238 20:27.489008 21:153.10447 22:3 23:42114.884 24:7004.2311 25:8 26:14124.055 27:17304.959 43:500 44:343.58505 45:663.0245 46:4 47:22928.153 48:32223.962 52:5446 53:31.600885 54:227.88478 61:2 62:9182.7696 63:0 
0.080078125 1:4 2:29044.585 3:15934.684 4:2 5:14.920761 6:0 19:5177 20:33.166352 21:218.258 22:2 23:49119.115 24:0 25:4 26:28796.517 27:19630.22 28:4 29:3098.0186 30:2190.6224 43:309 44:542.98038 45:2701.3232 46:20 47:7235.3683 48:15032.917 52:801 53:212.15897 54:593.69539 
0.080078125 1:5 2:34146.662 3:16022.252 4:2 5:14.920761 6:0 19:4283 20:39.925895 21:297.84853 25:3 26:65241.009 27:23268.821 28:4 29:3098.0186 30:2190.6224 43:109 44:1571.832 45:4689.51 46:26 47:6803.1592 48:10016.473 52:683 53:252.91822 54:663.88615 
0.080078125 1:4 2:47813.337 3:7920.6308 4:4 5:45.804707 6:19.525781 19:5346 20:31.93104 21:263.51684 25:5 26:37295.574 27:22267.862 28:3 29:29542.301 30:27456.208 37:1 43:99 44:1718.909 45:2826.1001 46:34 47:4820.0007 48:9033.8587 52:358 53:478.82648 54:1037.6773 
0.080078125 1:4 2:46091.136 3:17906.187 4:4 5:45.804707 6:19.525781 19:6248 20:27.468552 21:239.80063 22:9 23:4796.7679 24:8495.8164 25:21 26:6071.9618 27:18522.531 28:8 29:17598.587 30:27120.497 37:1 43:119 44:1408.3015 45:3435.9075 46:43 47:3040.8485 48:8663.4329 52:319 53:542.04183 54:1089.1333 
0.080078125 1:5 2:27817.683 3:17407.476 4:3 5:23346.061 6:23314.251 19:4568 20:37.288083 21:259.61397 22:47 23:2389.1218 24:5102.6323 25:25 26:3902.0931 27:14008.8 28:13 29:9269.4328 30:13380.826 43:134 44:1239.9418 45:3130.6059 46:57 47:2869.77 48:8371.966 52:604 53:282.85475 54:665.94627 
0.080078125 1:9 2:15435.679 3:18334.081 4:3 5:23346.061 6:23314.251 19:2996 20:57.005741 21:313.3019 22:38 23:1918.0014 24:3898.4751 25:7 26:4606.4817 27:10223.053 28:9 29:9807.8117 30:10322.269 43:107 44:1515.862 45:2774.9841 46:51 47:2651.9559 48:5420.6168 52:727 53:235.4539 54:634.84143 
0.080078125 1:9 2:19733.599 3:19255.063 4:1 19:4317 20:39.65722 21:232.59583 25:1 28:2 29:162202.07 30:0 34:1 43:62 44:2716.1691 45:5501.3182 46:41 47:4086.7221 48:8655.5104 52:742 53:229.41333 54:645.03362 61:1 
0.080078125 1:5 2:39771.527 3:24617.925 4:1 19:5122 20:33.680694 21:202.87007 25:8 26:4022.929 27:9711.846 28:5 29:7294.8204 30:5183.5041 34:1 43:49 44:3117.3661 45:6237.1676 46:76 47:1705.8832 48:3105.2016 52:697 53:243.147 54:573.71135 61:1 
0.080078125 1:3 2:61541.389 3:17297.604 19:3914 20:43.606396 21:299.30536 25:7 26:58.175759 27:71.193427 28:8 29:17235.453 30:35981.57 43:76 44:2169.1349 45:4257.5926 46:60 47:2201.2881 48:9765.6368 52:978 53:137.67425 54:388.91228 
0.080078125 1:3 2:56671.181 3:29332.94 19:4400 20:38.517124 21:302.49602 25:1 28:4 29:23.976881 30:5.5709055 43:96 44:1738.3825 45:3808.1938 46:16 47:5653.2831 48:19685.621 52:671 53:236.93391 54:3794.0661 
0.080078125 1:6 2:21776.755 3:9065.4112 19:5141 20:33.330678 21:274.59923 25:3 26:79338.212 27:63872.316 37:1 43:102 44:1696.9416 45:3735.0675 46:10 47:13892.561 48:17635.782 52:5 53:25255.335 54:28382.594 
0.080078125 1:4 2:17557.973 3:9595.9517 7:1 19:4336 20:39.775785 21:310.00862 25:3 26:29826.416 27:14360.519 37:1 43:74 44:2219.1834 45:3671.1594 46:25 47:6319.3783 48:6922.8681 52:8 53:13543.54 54:8070.5377 55:28 56:2470.4752 57:2910.9761 
0.080078125 7:1 19:3216 20:52.16331 21:346.9471 25:1 28:2 29:29719.169 30:0 43:52 44:3151.717 45:5187.5105 46:44 47:3581.8347 48:4060.4045 52:66 53:2383.5707 54:6422.8653 55:125 56:1232.5676 57:1864.9959 
0.080078125 1:2 2:34220.079 3:0 19:3348 20:51.374898 21:349.59034 25:11 26:4199.4441 27:9916.3327 28:9 29:16263.632 30:16971.954 43:90 44:1623.7316 45:2979.9498 46:63 47:2747.3084 48:6224.6755 52:67 53:2406.6567 54:6578.6145 55:97 56:850.478 57:1192.4536 
0.080078125 1:7 2:21589.755 3:12408.453 16:1 19:4604 20:36.447831 21:278.45735 25:13 26:9359.688 27:17406.263 28:8 29:7989.3314 30:8951.328 43:94 44:1803.9718 45:3820.1832 46:41 47:3149.8248 48:8023.6079 52:9 53:16078.153 54:10160.556 
0.080078125 1:6 2:19393.276 3:12603.708 16:2 17:113168.21 18:0 19:5662 20:30.51769 21:233.72773 25:9 26:8822.0412 27:16519.457 28:2 29:130206.93 30:0 43:61 44:2313.2187 45:5110.2947 46:19 47:9366.5818 48:15130.2 52:5 53:35622.856 54:18566.765 
0.080078125 1:3 2:47310.044 3:23868.161 4:2 5:4452.14 6:0 16:1 19:4407 20:38.185029 21:209.87435 25:9 26:10385.37 27:21378.431 28:5 29:19617.079 30:20097.676 43:50 44:3169.1436 45:7191.8429 46:32 47:4229.7752 48:9077.3141 52:6 53:26004.445 54:25331.329 
0.080078125 1:4 2:48370.616 3:39604.081 4:2 5:4452.14 6:0 19:3310 20:51.533293 21:220.92515 25:4 26:43606.121 27:42920.508 28:4 29:10981.417 30:15500.22 37:1 43:37 44:4648.0948 45:11608.215 46:21 47:6403.6791 48:16265.908 52:9 53:20369.369 54:21104.72 
0.080078125 1:3 2:52897.753 3:35498.28 19:3823 20:44.835937 21:228.57319 25:4 26:35446.231 27:13140.661 28:4 29:6.2833207 30:2.7092925 37:1 43:40 44:2781.8173 45:5588.0334 46:20 47:5597.7221 48:15575.995 52:9 53:17751.016 54:9202.2518 
0.080078125 1:4 2:16290.192 3:20686.248 19:3153 20:54.177794 21:317.16853 25:2 26:42498.39 27:0 28:6 29:11549.178 30:18931.916 37:1 43:81 44:2039.9636 45:4570.8429 46:32 47:4227.5283 48:9899.3917 52:5376 53:31.023651 54:743.70768 
0.080078125 1:5 2:30618.205 3:30093.436 19:4394 20:38.780406 21:285.25757 25:3 26:23825.327 27:5060.8139 28:2 29:8953.7366 30:0 37:1 43:110 44:1510.2166 45:3011.172 46:17 47:7020.4328 48:11186.444 52:5582 53:26.955598 54:378.15197 
0.080078125 1:2 2:47909.125 3:0 19:4627 20:36.559972 21:251.71399 25:3 26:23825.327 27:5060.8139 28:4 29:2426.4599 30:3400.6247 43:90 44:1872.1684 45:3630.1039 46:25 47:6176.4697 48:13467.295 52:432 53:391.8564 54:1448.3614 
0.080078125 1:1 19:3422 20:49.774996 21:336.03532 25:2 26:15655.558 27:0 28:4 29:2426.4599 30:3400.6247 43:90 44:1884.3899 45:3307.9194 46:29 47:5449.3704 48:11922.661 52:546 53:314.90168 54:814.14153 
0.080078125 1:4 2:37241.748 3:25745.835 19:4066 20:42.201954 21:320.77628 25:4 26:31963.701 27:16489.57 43:85 44:1981.4276 45:4433.7746 46:23 47:7532.4291 48:10342.868 52:689 53:247.64355 54:675.48567 
0.080078125 1:4 2:36187.927 3:25639.53 19:4824 20:35.051854 21:284.86906 25:4 26:49036.81 27:19579.405 28:1 43:83 44:2052.7711 45:4746.6912 46:17 47:10247.872 48:21166.32 52:568 53:303.7267 54:782.02929 
0.080078125 1:1 19:4715 20:36.08977 21:308.14726 25:12 26:11324.086 27:21016.483 28:5 29:19702.778 30:34072.709 43:116 44:1453.2145 45:2678.2143 46:12 47:7178.0178 48:15342.364 52:342 53:497.1867 54:935.26891 
0.080078125 19:5202 20:32.688616 21:292.48507 25:13 26:7768.8359 27:12412.003 28:4 29:30.89746 30:34.158388 43:113 44:1517.9776 45:2050.3393 46:16 47:8533.7587 48:14241.483 52:404 53:427.59163 54:764.1233 
0.080078125 1:3 2:22677.705 3:12259.589 19:4930 20:34.18205 21:289.30987 25:3 26:12421.249 27:12417.048 28:1 43:109 44:1560.0309 45:1874.0306 46:13 47:12302.144 48:13735.407 52:377 53:451.65602 54:817.82056 
0.080078125 1:5 2:33617.128 3:15006.096 19:4124 20:41.646428 21:474.29691 28:1 43:78 44:1922.4162 45:6155.0587 46:10 47:14882.381 48:16617.014 52:192 53:900.32644 54:1595.2181 
0.080078125 1:5 2:36182.811 3:17279.896 19:4814 20:35.393277 21:438.11812 25:1 43:22 44:7992.2203 45:15920.892 46:8 47:21329.145 48:14527.057 52:1145 53:150.92324 54:800.5938 
0.080078125 1:3 2:39002.465 3:23868.895 4:1 19:4464 20:38.620441 21:511.77603 25:3 26:41907.994 27:9221.3469 28:2 29:19.999824 30:0 43:13 44:11663.377 45:16159.054 46:10 47:11674.023 48:12958.039 52:1171 53:147.59017 54:691.79774 
0.080078125 1:1 4:2 5:107410.46 6:0 19:3282 20:51.647005 21:591.3418 25:3 26:39848.596 27:7161.949 28:2 29:19.999824 30:0 43:11 44:11099.803 45:16921.644 46:21 47:6053.5077 48:15137.342 52:191 53:890.24631 54:1451.6013 
0.080078125 1:2 2:103857.42 3:0 4:1 19:2633 20:65.51188 21:372.29592 25:2 26:71166.177 27:0 28:2 29:8.66781 30:0 43:8 44:10166.653 45:15505.074 46:29 47:4360.9523 48:13268.697 52:1154 53:148.45066 54:808.602 
0.080078125 1:3 2:43951.945 3:43435.888 19:4145 20:40.701546 21:307.46011 25:2 26:75327.859 27:0 28:2 29:8.66781 30:0 34:1 37:1 43:14 44:11835.256 45:23610.04 46:21 47:5485.4164 48:18210.54 52:1390 53:123.53473 54:703.7048 
0.080078125 1:4 2:42448.516 3:31219.144 19:5603 20:30.641267 21:322.42839 25:2 26:163022.26 27:0 34:1 37:1 43:16 44:10868.177 45:24166.718 46:12 47:6522.7016 48:9221.7808 52:1394 53:122.4364 54:530.9729 
0.080078125 1:3 2:44431.841 3:7016.1163 19:5648 20:30.422012 21:288.83166 25:2 26:92035.099 27:0 43:15 44:6573.971 45:10523.409 46:5 47:28385.813 48:21811.029 52:1088 53:157.68025 54:1581.0267 
0.080078125 19:4129 20:40.435716 21:283.66396 25:3 26:28244.688 27:8205.5997 28:2 29:39691.897 30:0 37:1 43:14 44:9863.8955 45:15146.957 46:22 47:4801.2493 48:9381.8946 52:21 53:8522.2201 54:24812.515 
0.080078125 4:1 19:4814 20:35.682143 21:289.52775 25:2 26:145422.71 27:0 28:3 29:40230.619 30:40225.528 37:1 43:12 44:13220.282 45:20508.715 46:22 47:5165.3061 48:9773.6195 52:15 53:4258.4112 54:10355.754 
0.080078125 1:1 4:1 19:5172 20:33.399267 21:211.23533 25:1 28:2 29:5.091261 30:0 43:5 44:31210.94 45:31210.799 46:11 47:9936.7919 48:24185.737 49:3 50:226.56184 51:222.72179 52:8 53:24103.505 54:20472.227 
0.080078125 1:1 19:5278 20:32.072442 21:176.14686 25:1 28:3 29:22176.343 30:22172.546 43:9 44:15395.672 45:25062.207 46:15 47:10556.625 48:18505.914 49:3 50:226.56184 51:222.72179 52:38 53:3523.0934 54:7480.0274 
0.080078125 1:1 19:7620 20:22.405863 21:131.24109 25:2 26:86868.072 27:0 28:14 29:9341.7414 30:13334.145 34:1 40:1 43:16 44:11096.961 45:19728.013 46:60 47:2440.1234 48:6027.1331 52:305 53:531.2845 54:2533.4294 
0.080078125 1:2 2:118420.89 3:0 16:1 19:7623 20:22.494871 21:126.32713 25:2 26:73382.738 27:0 28:13 29:9626.8285 30:15539.607 34:1 37:1 40:1 43:13 44:12529.199 45:14535.305 46:61 47:2690.2715 48:8373.5427 52:503 53:333.05638 54:1420.5728 
0.080078125 1:2 2:98890.468 3:0 4:4 5:140.67107 6:193.62063 16:1 19:5960 20:28.927201 21:152.6643 25:5 26:24750.445 27:16666.882 28:2 29:9182.3745 30:0 37:1 43:18 44:9017.3586 45:14515.816 46:17 47:8597.289 48:17853.345 52:268 53:633.09939 54:1933.7076 
0.080078125 1:1 4:4 5:140.67107 6:193.62063 19:6058 20:28.263035 21:165.47854 25:7 26:19327.931 27:18084.218 28:2 29:8132.9928 30:0 43:24 44:5042.0861 45:11029.218 46:24 47:5205.1325 48:15426.294 52:47 53:3402.7342 54:5225.7229 
0.080078125 1:2 2:72749.27 3:0 19:76548 20:2.2367606 21:56.218223 25:7 26:16344.618 27:18719.426 28:3 29:52397.278 30:44264.285 31:1 43:25 44:5265.2077 45:10609.117 46:31 47:3903.9851 48:11731.775 52:45 53:3554.129 54:5418.8669 
0.080078125 1:3 2:63539.294 3:9209.9756 19:75792 20:2.2429321 21:70.728403 25:7 26:26993.987 27:26394.761 28:7 29:19494.658 30:43524.878 31:1 34:1 43:31 44:5398.8106 45:8808.5959 46:31 47:4924.48 48:10777.303 52:43 53:3923.1374 54:6608.9748 
0.080078125 1:2 2:60932.968 3:0 19:5453 20:30.321947 21:273.98808 25:6 26:18256.473 27:20362.617 28:6 29:29.753183 30:53.951757 34:1 43:27 44:4090.5219 45:5857.5525 46:22 47:2968.5843 48:5484.7351 52:27 53:5942.7142 54:5979.6313 
0.080078125 1:3 2:57014.834 3:14047.653 4:1 19:5400 20:31.575867 21:224.92436 25:5 26:32667.38 27:21891.45 28:1 43:41 44:4227.2963 45:11344.122 46:18 47:4505.8865 48:8690.9749 52:27 53:6187.7924 54:6749.1228 
0.080078125 1:5 2:33946.164 3:18239.471 4:1 19:4919 20:32.829906 21:248.4972 25:3 26:44334.503 27:772.06106 28:8 29:9066.8954 30:11868.087 37:1 43:53 44:2998.7954 45:7226.2866 46:56 47:2687.858 48:5769.9775 52:92 53:1662.6212 54:5240.1013 
0.080078125 1:3 2:24429.605 3:21999.573 19:5175 20:33.242955 21:348.58395 25:3 26:69677.224 27:25468.127 28:8 29:21569.133 30:33274.744 34:1 37:1 43:42 44:4132.5178 45:8362.8424 46:56 47:3110.11 48:6479.4797 52:89 53:1862.633 54:6756.3438 
0.080078125 1:2 2:20203.862 3:0 19:4737 20:33.528656 21:225.69724 25:5 26:31929.232 27:12212.5 28:8 29:10530.522 30:11258.248 34:1 43:57 44:2311.2123 45:5342.2341 46:70 47:1859.3601 48:3516.6086 52:81 53:1791.3444 54:5965.7304 
0.080078125 1:4 2:45191.113 3:41793.92 19:2662 20:64.690144 21:404.56552 25:4 26:40880.792 27:29918.536 28:9 29:13246.633 30:13774.888 43:48 44:3201.1816 45:6700.5427 46:64 47:2475.5106 48:5504.2093 49:1 52:205 53:748.6933 54:2602.8815 55:1 
0.080078125 1:2 2:11296.963 3:0 4:2 5:15.071803 6:0 19:2586 20:65.309273 21:370.63423 25:3 26:46497.591 27:3376.8915 28:3 29:41173.55 30:23457.705 43:18 44:8159.2356 45:11802.462 46:21 47:7108.9093 48:8706.784 49:2 50:64654.989 51:0 52:154 53:976.54166 54:3192.2152 55:1 
0.080078125 4:2 5:15.071803 6:0 19:4781 20:34.591231 21:263.23351 25:11 26:13489.503 27:19827.886 28:5 29:36230.752 30:37366.421 43:30 44:4651.5665 45:9000.7 46:24 47:6301.0185 48:11496.879 49:4 50:34943.194 51:25974.324 52:38 53:3971.5306 54:7033.4468 
0.080078125 1:2 2:3513.683 3:0 4:11 5:8.4638449 6:7.9104524 19:6558 20:26.165607 21:221.12808 25:11 26:12809.789 27:18445.425 28:9 29:20092.852 30:25257.087 40:2 41:37629.206 42:0 43:30 44:5214.478 45:11732.712 46:35 47:4727.7298 48:13479.643 49:6 50:29933.532 51:37398.085 52:476 53:302.80569 54:2246.6944 
0.080078125 1:5 2:19847.035 3:31670.724 4:11 5:8.4638449 6:7.9104524 19:5742 20:30.041249 21:215.80275 25:4 26:41506.881 27:6673.9684 28:6 29:20713.327 30:24290.973 40:2 41:37629.206 42:0 43:20 44:6675.6031 45:11406.426 46:39 47:2728.6424 48:5185.3144 49:3 50:128.6303 51:116.68877 52:478 53:326.87786 54:1960.4127 55:1 
0.080078125 1:6 2:20281.066 3:24146.764 4:3 5:5.2154165 6:0.2805715 16:1 19:4906 20:34.533093 21:304.04014 25:5 26:33885.302 27:5219.3786 28:6 29:21867.268 30:26126.13 34:2 35:48696.749 36:0 37:1 40:1 43:26 44:6019.8551 45:8678.9395 46:48 47:3465.3823 48:9930.9912 52:402 53:394.00945 54:2169.1316 55:1 
0.080078125 1:53 2:2666.8861 3:7825.5902 4:3 5:5.2154165 6:0.2805715 16:1 19:4819 20:35.53642 21:396.67495 25:4 26:40280.965 27:4538.7814 28:6 29:30365.724 30:36278.023 34:2 35:48696.749 36:0 37:1 40:1 43:25 44:7119.4346 45:10270.923 46:43 47:4001.9695 48:11164.244 49:14 50:979.19759 51:3331.3331 52:408 53:394.12179 54:2492.2045 
0.080078125 1:56 2:2313.9618 3:7121.225 19:4445 20:37.855946 21:510.63658 25:4 26:36103.179 27:16012.892 28:1 43:21 44:6981.4062 45:11577.105 46:18 47:8398.352 48:14502.079 49:14 50:979.19759 51:3331.3331 52:39 53:3405.8023 54:5693.5232 
0.080078125 1:6 2:10867.21 3:14528.536 19:4441 20:38.338863 21:490.4287 25:6 26:26934.492 27:10882.817 28:1 43:20 44:7088.045 45:12819.082 46:12 47:15112.783 48:19742.28 52:51 53:3057.6516 54:7910.6087 
0.080078125 1:1 19:4220 20:40.844879 21:366.94721 25:5 26:31201.074 27:11934.62 28:1 43:17 44:7802.8554 45:14470.66 46:8 47:9892.3279 48:14170.823 49:1 52:42 53:4098.3917 54:9189.7177 
0.080078125 1:3 2:44626.938 3:44623.993 19:4836 20:34.379329 21:335.44322 25:3 26:44502.223 27:954.96244 43:9 44:11125.605 45:19275.684 49:1 52:12 53:10002.727 54:9226.7708 
0.080078125 1:4 2:30636.423 3:43316.804 4:6 5:928.80535 6:1834.843 19:5284 20:32.670393 21:379.45926 25:2 26:132261.8 27:0 34:2 35:5247.6702 36:0 43:19 44:9122.9025 45:21524.425 46:29 47:1135.1173 48:2445.0551 52:76 53:2006.7655 54:9278.5553 
0.080078125 1:2 2:10.68986 3:0 4:6 5:928.80535 6:1834.843 19:5051 20:32.236737 21:284.24664 25:3 26:43611.827 27:159.30293 28:8 29:8743.9094 30:5463.0671 31:1 34:2 35:5247.6702 36:0 37:4 38:14469.6 39:12989.952 40:1 43:35 44:3914.7932 45:8765.3335 46:71 47:1666.593 48:3668.019 52:126 53:1080.6301 54:4285.7794 55:1 
0.080078125 1:5 2:244.65274 3:418.10631 4:1 19:4693 20:36.084221 21:248.39226 25:5 26:37695.042 27:5465.2691 28:10 29:13792.985 30:12789.265 31:1 37:4 38:14469.6 39:12989.952 40:1 43:32 44:5354.2582 45:10149.762 46:56 47:2848.1193 48:4974.5122 52:65 53:2486.6177 54:6887.5731 55:2 56:122938.33 57:0 
0.080078125 1:12 2:12893.929 3:32852.782 4:1 19:4600 20:36.810702 21:257.3583 25:5 26:34989.904 27:7536.5101 28:3 29:55494.258 30:39197.522 43:20 44:8192.2734 45:12851.556 46:21 47:7740.1246 48:10243.832 52:18 53:8621.1718 54:8810.5596 55:1 
0.080078125 1:15 2:7297.5072 3:13837.289 19:4002 20:41.503502 21:316.79853 25:3 26:28957.552 27:3089.716 28:7 29:20878.954 30:31223.142 37:2 38:323.17434 39:0 43:12 44:12012.561 45:14862.341 46:38 47:4099.2359 48:7054.9338 52:24 53:6795.1167 54:12389.624 
0.080078125 1:12 2:15151.848 3:26370.778 19:4109 20:41.947759 21:340.60285 25:5 26:35328.491 27:29189.193 28:11 29:7763.5302 30:9060.4655 37:4 38:5304.7142 39:5238.5903 43:21 44:8095.9691 45:12570.1 46:60 47:2850.9227 48:6395.626 52:44 53:2946.9485 54:7035.2311 
0.080078125 1:9 2:18718.734 3:28459.783 19:4168 20:39.959475 21:398.91182 25:6 26:30046.852 27:20811.63 28:7 29:13871.915 30:17614.1 37:2 38:3046.5433 39:0 43:22 44:7154.036 45:12711.629 46:39 47:2512.0607 48:6697.1203 52:41 53:3848.6784 54:8553.1274 
0.080078125 1:8 2:12253.382 3:14948.744 19:4613 20:36.272043 21:411.70395 25:5 26:31531.946 27:6034.556 28:3 29:77348.756 30:68435.672 43:15 44:9009.1557 45:14605.06 46:14 47:11899.841 48:38717.864 52:15 53:4671.6093 54:9021.0273 
0.080078125 1:4 2:42060.547 3:34725.849 19:7428 20:22.86165 21:285.32103 25:6 26:32340.952 27:9712.8179 28:1 37:2 38:366.61137 39:0 43:18 44:9512.0681 45:15648.907 46:7 47:16519.033 48:22158.622 52:15 53:4339.8002 54:7254.7732 
0.080078125 1:1 19:4660 20:35.769935 21:256.20034 25:4 26:29901.368 27:11748.653 34:2 35:29000.79 36:0 37:2 38:366.61137 39:0 43:25 44:4778.213 45:6730.2512 46:48 47:2652.3929 48:4954.7559 52:20 53:5795.132 54:8894.489 
0.080078125 1:1 19:3314 20:51.619275 21:264.77162 25:4 26:35943.131 27:10615.411 31:1 34:2 35:29000.79 36:0 43:26 44:5731.2658 45:8207.8578 46:50 47:2562.6662 48:4309.6515 52:14 53:11745.863 54:15041.816 
0.080078125 1:1 19:4850 20:35.228577 21:275.81985 25:5 26:37292.204 27:9461.6967 31:1 43:16 44:9944.6141 45:15756.266 46:8 47:24370.345 48:29983.806 52:13 53:13555.023 54:17297.248 
0.080078125 1:1 19:4394 20:39.181829 21:403.69632 25:4 26:44036.115 27:1041.3869 43:12 44:12009.885 45:19619.276 46:3 47:20366.01 48:19542.44 52:30 53:4791.9011 54:10003.646 
0.080078125 1:8 2:7522.7525 3:18338.81 19:3386 20:48.185244 21:448.94931 25:3 26:55373.2 27:11195.806 28:3 29:25971.893 30:25906.698 43:9 44:13843.35 45:24621.84 46:13 47:5782.3351 48:14618.536 52:312 53:263.92485 54:2570.1968 
0.080078125 1:10 2:17507.215 3:31412.339 4:1 19:3927 20:43.766641 21:326.65117 25:3 26:54105.114 27:10310.523 28:3 29:25971.893 30:25906.698 43:10 44:12023.403 45:23012.547 46:13 47:5782.3351 48:14618.536 52:289 53:596.16876 54:6947.978 
0.080078125 1:22 2:7098.4691 3:13012.302 4:1 19:4189 20:41.088793 21:313.85684 25:4 26:42130.391 27:18648.497 31:2 32:47.684353 33:0 43:13 44:10532.631 45:20487.545 46:5 47:17483.32 48:18368.548 52:9 53:16399.096 54:17839.642 55:1 
0.080078125 1:21 2:2660.1153 3:3429.1226 19:3437 20:50.109394 21:329.17659 25:5 26:39754.124 27:8033.5646 28:2 29:24035.038 30:0 31:2 32:47.684353 33:0 34:1 43:15 44:11358.35 45:18465.061 46:16 47:10647.105 48:13755.408 52:94 53:1484.2343 54:4314.2295 55:1 
0.080078125 1:2 2:95.308179 3:0 19:4351 20:39.650589 21:197.21456 25:5 26:38406.883 27:7080.3867 28:4 29:38811.549 30:36096.853 34:2 35:117971.79 36:0 40:3 41:218.05224 42:30.702247 43:19 44:9020.5749 45:13809.167 46:32 47:5289.6862 48:8562.2104 52:1257 53:131.67236 54:1587.6272 
0.080078125 1:2 2:2155.0243 3:0 19:14518 20:11.835764 21:149.53205 25:4 26:35522.09 27:10713.229 28:8 29:6733.698 30:11059.357 34:1 40:3 41:218.05224 42:30.702247 43:23 44:6127.0099 45:10417.252 46:65 47:2422.8581 48:5998.5224 52:5876 53:26.391174 54:710.15268 
0.080078125 1:2 2:2155.0243 3:0 19:14127 20:12.077177 21:249.3615 25:5 26:33645.808 27:10305.554 28:8 29:24293.933 30:46045.402 43:22 44:7840.9444 45:14200.216 46:61 47:2834.2992 48:8720.0485 52:4717 53:35.713326 54:778.69086 
0.080078125 4:1 19:3701 20:46.009472 21:475.86858 25:4 26:48039.588 27:19616.859 28:2 29:111.77117 30:0 43:12 44:13101.742 45:23720.998 46:18 47:8483.1708 48:21814.315 52:37 53:3946.624 54:4699.8297 
0.080078125 4:5 5:29408.397 6:50913.036 19:4511 20:37.616649 21:323.29177 25:4 26:28765.317 27:11670.592 28:1 43:15 44:6164.0249 45:10032.093 46:9 47:8849.0262 48:11217.269 52:39 53:4265.4038 54:4979.3344 
0.080078125 4:4 5:13.742393 6:3.488425 19:4611 20:36.858721 21:396.2856 22:23 23:2471.513 24:7277.4946 25:5 26:34927.331 27:13078.402 28:3 29:42439.011 30:3384.7711 31:4 32:3146.6688 33:4280.033 43:19 44:8440.5382 45:13013.397 46:16 47:9468.4878 48:15761.277 52:24 53:6192.3078 54:7172.3972 55:1 
0.080078125 19:3992 20:42.783433 21:433.67087 22:23 23:2471.513 24:7277.4946 25:3 26:63066.02 27:18427.482 28:2 29:39054.24 30:0 31:5 32:24532.065 33:37225.59 34:2 35:13381.134 36:0 43:11 44:12613.244 45:22789.313 46:10 47:13407.94 48:22498.705 52:26 53:5524.1355 54:5673.4654 55:1 
0.080078125 4:1 19:3794 20:42.881936 21:324.88486 25:3 26:45208.675 27:1096.7832 31:1 34:2 35:13381.134 36:0 43:10 44:10688.611 45:18544.752 46:11 47:10875.951 48:10234.604 52:52 53:3151.944 54:5229.8832 
0.080078125 1:1 4:2 5:155008.3 6:0 19:3713 20:42.918166 21:381.27471 25:4 26:45606.306 27:9542.015 28:1 37:1 40:2 41:2946.4548 42:0 43:13 44:11401.61 45:20316.018 46:13 47:11792.212 48:16020.351 52:53 53:3083.1795 54:4983.9655 
0.080078125 1:1 4:1 19:4086 20:41.211617 21:569.44106 25:5 26:33055.237 27:15327.409 28:3 29:50856.071 30:39394.31 37:1 40:2 41:2946.4548 42:0 43:20 44:6959.0181 45:13587.512 46:26 47:5088.8161 48:9384.2282 52:19 53:7389.064 54:8320.2248 
0.080078125 4:1 19:3797 20:44.815474 21:585.62396 25:4 26:32988.83 27:17983.139 28:33 29:2355.5691 30:6031.5025 37:2 38:6070.3038 39:0 40:2 41:3212.9723 42:0 43:22 44:6208.6573 45:12483.765 46:140 47:1076.447 48:4017.6249 52:32 53:4615.3955 54:10097.054 
0.080078125 4:1 19:3934 20:38.925931 21:310.44862 25:4 26:41303.482 27:8107.6034 28:32 29:4672.0366 30:19638.038 37:3 38:59711.488 39:53641.185 40:3 41:56186.214 42:52973.242 43:24 44:5945.047 45:10389.867 46:127 47:1208.2787 48:6031.5032 52:31 53:4330.2829 54:9107.5539 
0.080078125 4:6 5:2.579393 6:1.2036922 19:4898 20:35.202907 21:333.80577 25:6 26:29721.72 27:16614.916 28:1 37:1 40:1 43:24 44:6461.2608 45:11487.712 46:11 47:10877.902 48:15008.002 52:12 53:14883.902 54:17548.095 
0.080078125 4:7 5:26707.523 6:59714.068 19:4776 20:35.844392 21:342.21781 25:5 26:21968.975 27:12895.558 28:12 29:5663.599 30:6889.7372 37:1 40:1 43:24 44:4306.7514 45:9149.1238 46:69 47:2173.3324 48:7273.625 52:14 53:10583.013 54:10074.959 
0.080078125 4:1 19:3485 20:45.478888 21:387.87024 25:4 26:39359.154 27:12807.768 28:21 29:6811.3341 30:8542.695 37:1 40:3 41:36485.579 42:4166.429 43:22 44:6608.8251 45:12237.412 46:131 47:1087.9676 48:2383.8716 52:16 53:8668.6752 54:10725.352 
0.080078125 4:1 19:3940 20:43.573287 21:462.41207 25:6 26:31482.603 27:14508.632 28:17 29:10036.038 30:15062.974 31:1 37:2 38:51449.241 39:0 40:2 41:32319.15 42:0 43:20 44:8390.4595 45:11862.597 46:133 47:1300.2665 48:2964.9092 52:39 53:4049.339 54:7240.1856 
0.080078125 4:1 19:4813 20:35.133432 21:316.34807 25:6 26:31468.128 27:14397.926 28:9 29:18342.497 30:30003.328 31:1 37:3 38:60521.029 39:9071.788 43:22 44:7492.4302 45:11312.352 46:80 47:2008.3228 48:5550.6125 52:183 53:879.20689 54:2621.4436 
0.080078125 1:3 2:15.654733 3:0.587882 4:1 19:5898 20:29.187478 21:303.3183 25:4 26:41219.428 27:2310.3424 28:3 29:5818.8222 30:3226.0063 37:1 43:18 44:9514.6894 45:13642.324 46:21 47:6565.5983 48:10998.996 52:202 53:535.67319 54:1811.8802 
0.080078125 1:3 2:15.654733 3:0.587882 4:2 5:92956.282 6:0 19:5625 20:30.40411 21:307.15275 25:7 26:22039.921 27:17586.425 28:9 29:20638.43 30:44194.368 43:48 44:3223.3329 45:8980.9287 46:72 47:2326.6239 48:7643.0175 52:48 53:1869.0797 54:10161.302 
0.080078125 4:1 19:4764 20:35.428687 21:259.89175 25:7 26:19439.649 27:15708.251 28:7 29:4218.0763 30:3951.547 43:48 44:2785.8319 45:6932.5259 46:79 47:2156.6519 48:5176.2525 52:3 53:79356.604 54:39424.661 
0.080078125 19:4782 20:35.899636 21:265.46691 25:3 26:34049.801 27:8323.9362 28:8 29:8241.0555 30:15576.196 43:16 44:5107.4242 45:6876.6345 46:68 47:2429.5235 48:4302.3446 52:141 53:942.85268 54:4420.488 
0.080078125 1:7 2:376.46065 3:801.06233 19:4725 20:36.185144 21:272.73836 25:3 26:67584.128 27:28425.88 28:8 29:8241.0555 30:15576.196 43:19 44:8730.5037 45:16712.397 46:63 47:2303.8434 48:4748.6586 52:413 53:408.36854 54:1830.8144 
0.080078125 1:8 2:17518.858 3:41996.677 4:1 16:1 19:4886 20:35.188464 21:214.1478 25:2 26:39158.248 27:0 28:2 29:6254.2013 30:0 43:20 44:7979.6024 45:9682.6638 46:29 47:5791.8708 48:8030.6759 52:405 53:384.38579 54:1172.9968 61:1 
0.080078125 1:2 2:23376.59 3:0 4:1 16:2 17:94686.148 18:0 19:5555 20:31.033248 21:155.51745 25:1 28:4 29:25396.585 30:28250.637 43:18 44:8900.0835 45:11573.313 46:51 47:3071.2583 48:5938.2865 52:310 53:558.63557 54:1706.7076 55:1 61:1 
0.080078125 1:1 4:1 16:1 19:5924 20:28.512421 21:184.83323 25:3 26:69712.336 27:69289.192 28:5 29:29275.673 30:29319.451 43:20 44:8283.9024 45:16780.054 46:56 47:3054.3359 48:7413.0868 52:1332 53:129.18346 54:1120.7636 55:1 
0.080078125 4:1 16:1 19:72274 20:2.3655719 21:95.564868 25:4 26:25979.085 27:33089.641 28:7 29:14647.547 30:15790.268 37:1 43:18 44:7230.4203 45:14245.74 46:38 47:4321.6523 48:8842.4676 52:1634 53:98.229169 54:972.41262 
0.080078125 16:1 19:70043 20:2.3015421 21:127.55315 25:4 26:21849.526 27:27347.319 28:5 29:27585.902 30:37229.806 37:1 43:17 44:6938.9239 45:10590.198 46:40 47:4204.1583 48:6996.0769 52:510 53:310.22446 54:1447.8221 
0.080078125 1:1 16:1 19:177 20:968.89643 21:4578.7705 25:3 26:50996.358 27:50692.468 28:3 29:50867.486 30:11734.632 43:11 44:13180.061 45:26117.771 46:44 47:3766.6159 48:9456.6916 52:60 53:2435.0102 54:3353.9549 55:2 56:32742.841 57:0 
0.080078125 1:1 16:1 19:50 20:3521.494 21:8058.5037 25:1 28:3 29:77940.981 30:15338.864 40:1 43:4 44:31139.056 45:22529.398 46:32 47:5045.3693 48:11866.751 52:46 53:3478.7521 54:5302.9128 55:37 56:2443.7787 57:6848.5643 
0.080078125 1:14 2:2044.6283 3:4195.47 19:92 20:1873.8017 21:2361.2868 25:3 26:28489.92 27:6647.7267 28:6 29:16412.598 30:22775.877 40:1 43:20 44:6410.3389 45:12268.866 46:45 47:3524.3584 48:8840.131 52:28 53:5461.0235 54:5922.1742 55:35 56:803.60098 57:946.13015 
0.080078125 1:14 2:2044.6283 3:4195.47 19:99 20:1719.8559 21:2273.436 25:6 26:29037.729 27:13124.527 28:8 29:16331.451 30:20833.342 37:1 43:29 44:5535.7432 45:11854.847 46:61 47:2330.7795 48:4502.941 52:22 53:7747.6551 54:7643.7103 
0.080078125 1:2 2:17171.79 3:0 16:1 19:129 20:1282.6518 21:3183.9506 25:20 26:4506.3596 27:9637.5062 28:12 29:9147.9943 30:11752.232 37:5 38:5097.3404 39:7437.737 40:2 41:2168.2307 42:0 43:84 44:1031.5811 45:4361.8871 46:93 47:1384.9021 48:3303.3086 52:26 53:6449.3189 54:9356.3674 55:1 
0.080078125 1:2 2:17171.79 3:0 16:1 19:130 20:1290.753 21:3346.0647 25:19 26:7370.4926 27:21091.712 28:13 29:12796.865 30:28638.722 34:1 37:4 38:805.82926 39:302.71339 40:2 41:2168.2307 42:0 43:86 44:1703.4909 45:10129.79 46:79 47:1968.7536 48:8540.6486 52:31 53:5566.8474 54:9170.8353 55:1 
0.080078125 19:54 20:3137.2413 21:4345.3442 25:6 26:25625.123 27:21883.48 28:8 29:14280.265 30:17134.004 34:1 40:1 43:23 44:5823.9096 45:13860.44 46:33 47:4276.7848 48:10810.553 52:26 53:6743.9718 54:7202.1938 
0.080078125 1:1 19:301 20:542.13493 21:1899.9024 25:45 26:2803.7906 27:5169.0659 28:38 29:4149.2661 30:15394.95 43:243 44:541.87368 45:1846.4762 46:171 47:956.96863 48:4523.7717 52:32 53:3623.2341 54:4480.9353 
0.080078125 19:261 20:656.79403 21:2500.4907 25:35 26:4919.0331 27:9339.4316 28:30 29:3933.1215 30:9770.1798 31:2 32:121.30273 33:0 43:198 44:863.52626 45:3844.8787 46:139 47:1239.1646 48:4874.5187 52:42 53:4106.1289 54:6924.1657 
0.080078125 4:7 5:3675.811 6:8038.1042 19:121 20:1327.1323 21:3235.2965 25:11 26:14916.497 27:12411.539 28:7 29:14156.014 30:15861.014 31:2 32:121.30273 33:0 43:107 44:1407.2235 45:4219.73 46:44 47:3634.1183 48:9065.8981 52:88 53:1818.4044 54:2694.8375 55:1 
0.080078125 1:1 4:7 5:3675.811 6:8038.1042 19:116 20:1497.4886 21:3099.5365 25:9 26:19873.343 27:17629.89 28:12 29:11726.492 30:34389.002 43:93 44:1833.0201 45:5508.3447 46:64 47:2726.5205 48:6669.9703 52:74 53:2324.6414 54:3046.5679 55:1 
0.080078125 1:1 19:74 20:2120.4195 21:3844.8305 25:5 26:12097.824 27:17588.26 28:15 29:3469.4081 30:10508.264 43:27 44:2672.924 45:8480.0544 46:59 47:2101.5785 48:7072.9346 52:40 53:3291.886 54:3040.2758 
0.080078125 16:1 19:70 20:2358.6821 21:3783.847 25:5 26:40036.96 27:69326.053 28:8 29:22876.072 30:55781.719 37:1 43:18 44:9436.403 45:36092.092 46:29 47:5719.0451 48:22728.483 52:24 53:7228.2221 54:11791.927 
0.080078125 1:1 16:1 19:51 20:3350.3721 21:5611.8307 25:3 26:15.575832 27:11.118531 28:3 29:77.330641 30:30.578178 37:1 43:21 44:4835.2218 45:11258.519 46:12 47:8263.3749 48:21053.664 52:15 53:11451.117 54:13800.209 
0.080078125 1:2 2:71301.234 3:0 19:27 20:6362.4072 21:10918.712 25:1 43:17 44:8182.8135 45:15062.581 46:4 47:43637.131 48:23239.538 52:17 53:10005.45 54:14353.335 
0.080078125 1:6 2:12604.077 3:12485.669 19:29 20:5082.2672 21:8695.4192 25:4 26:38172.2 27:21674.465 28:5 29:33030.73 30:33485.134 43:26 44:4580.6943 45:13881.544 46:21 47:6606.1839 48:17606.703 52:37 53:4685.9037 54:8267.7863 
0.080078125 1:2 2:29991.768 3:0 4:1 7:2 8:7128.0487 9:0 19:21 20:8464.9737 21:12178.818 25:4 26:36674.115 27:18487.428 28:1 43:20 44:5790.6892 45:12624.07 46:6 47:6911.471 48:11830.705 52:47 53:2969.4626 54:3285.6565 
0.080078125 1:1 4:2 5:63805.655 6:0 7:2 8:7128.0487 9:0 19:14 20:10795.973 21:12531.468 25:4 26:43457.191 27:17412.879 43:23 44:5926.0064 45:12076.127 46:2 47:0.377876 48:0 52:59 53:2825.0097 54:2769.1138 
0.080078125 1:1 4:1 19:29 20:4929.1533 21:8227.2976 25:4 26:37439.526 27:13333.503 43:21 44:7191.3607 45:15324.429 46:3 47:21981.859 48:21967.485 52:80 53:1997.1483 54:1965.7749 
0.080078125 19:81 20:1995.716 21:3975.7675 25:6 26:25342.06 27:11526.159 28:5 29:20.401129 30:10.674604 43:26 44:5068.4431 45:11352.901 46:26 47:5175.7883 48:14202.658 52:86 53:2016.2397 54:3635.9945 
0.080078125 4:1 19:101 20:1668.4656 21:2910.2538 25:6 26:29467.859 27:14785.759 28:5 29:20.401129 30:10.674604 43:23 44:7251.9743 45:14167.656 46:25 47:5266.4195 48:18252.212 52:41 53:3732.0876 54:10464.686 61:1 
0.080078125 4:1 19:113 20:1405.5915 21:2207.7427 25:5 26:37258.555 27:11811.98 28:1 40:1 43:32 44:4816.3502 45:9153.9466 46:30 47:3286.3758 48:4129.209 52:19 53:9300.6184 54:14775.336 61:1 
0.080078125 19:113 20:1523.2123 21:2513.8923 25:4 26:47600.242 27:30372.44 28:3 29:57232.058 30:22658.211 40:1 43:31 44:5681.4436 45:11649.604 46:59 47:2907.7691 48:6581.2445 52:18 53:7965.7057 54:11276.294 
0.080078125 19:74 20:2349.4862 21:2726.7995 25:2 26:45849.719 27:0 28:2 29:34573.847 30:0 43:20 44:7366.6947 45:14002.925 46:55 47:2597.5016 48:6613.3361 52:12 53:10961.399 54:25793.354 64:1 
0.080078125 19:101 20:1611.1157 21:2099.1631 25:8 26:15101.852 27:19190.008 28:3 29:7830.8377 30:1033.706 43:35 44:3284.3219 45:5648.0053 46:85 47:1744.7138 48:5260.9003 52:9 53:2577.9746 54:5270.6684 64:1 
0.080078125 19:112 20:1501.8454 21:2045.6326 25:9 26:19100.189 27:20874.108 28:4 29:51076.34 30:61164.2 43:28 44:5705.9194 45:13624.439 46:69 47:2522.3114 48:8005.8122 52:9 53:9032.3627 54:20012.725 
0.080078125 19:80 20:2125.438 21:2524.3757 25:4 26:37870.726 27:11503.752 28:1 43:16 44:7574.1709 45:15345.273 46:16 47:7574.0857 48:11847.899 52:12 53:12372.631 54:18162.13 
0.080078125 19:76 20:2262.6658 21:2559.7691 25:4 26:41903.955 27:4612.2104 43:15 44:9728.6477 45:17109.505 46:9 47:14970.681 48:23063.781 52:3 53:21372.047 54:6967.2433 
0.080078125 4:3 5:14889.602 6:14872.572 19:88 20:1967.1736 21:2122.6164 25:4 26:42559.101 27:26894.661 28:1 34:1 43:13 44:10639.808 45:18088.912 46:12 47:5725.6819 48:14678.081 
0.080078125 4:3 5:14889.602 6:14872.572 19:84 20:2033.404 21:2291.0071 25:4 26:32874.125 27:15741.992 28:4 29:46782.513 30:41962.341 34:1 43:14 44:9192.4127 45:13499.993 46:23 47:7257.5846 48:20080.588 
0.080078125 19:84 20:2063.4057 21:2310.7517 25:5 26:37862.543 27:7951.4834 28:3 29:19142.866 30:18692.429 43:17 44:9857.0513 45:14828.322 46:16 47:9376.0407 48:16001.169 55:1 
0.080078125 13:2 14:123.54071 15:0 16:1 19:107 20:1593.8663 21:1407.0663 25:6 26:27870.799 27:10516.222 28:1 43:18 44:8338.1737 45:13703.39 46:14 47:5938.5241 48:7763.6054 55:1 
0.080078125 13:2 14:123.54071 15:0 16:1 19:104 20:1619.8476 21:1590.7535 22:2 23:169.91756 24:0 25:6 26:29274.517 27:9273.6257 28:1 43:19 44:8131.8104 45:11480.863 46:14 47:11392.23 48:18802.043 
0.080078125 19:97 20:1735.8587 21:1888.6871 22:3 23:71778.386 24:71608.469 25:5 26:37729.932 27:13086.276 28:4 29:6142.3122 30:8673.3689 43:26 44:6036.805 45:10872.491 46:24 47:5346.5874 48:11390.193 52:7 53:9811.1826 54:12156.483 
0.080078125 19:108 20:1596.8856 21:1792.7207 22:1 25:5 26:33020.974 27:15833.113 28:4 29:6142.3122 30:8673.3689 43:25 44:6406.5234 45:13432.035 46:34 47:5091.2841 48:11276.672 52:8 53:22695.961 54:33507.816 
0.080078125 19:104 20:1633.7563 21:1834.8711 25:7 26:22862.587 27:18300.762 43:21 44:6858.7959 45:12898.041 46:22 47:7543.2009 48:11638.371 52:2 53:78239.845 54:0 
0.080078125 19:90 20:1927.0909 21:1816.4829 25:6 26:27892.169 27:19374.442 43:18 44:8203.6023 45:13113.524 46:9 47:10794.133 48:14990.094 52:15 53:4645.155 54:8856.4546 
0.080078125 19:100 20:1702.4481 21:1815.5673 22:2 23:54679.954 24:0 25:3 26:61831.249 27:18451.08 28:4 29:9.4170453 30:0.87955012 43:10 44:16148.493 45:26770.158 46:17 47:10450.744 48:25126.783 52:14 53:2816.0654 54:6134.5272 
0.080078125 19:98 20:1776.2024 21:2413.8373 22:2 23:54679.954 24:0 25:5 26:19493.887 27:11777.389 28:6 29:26081.809 30:52120.576 43:16 44:5198.3963 45:10549.809 46:30 47:5364.4809 48:11243.864 52:2 53:75025.911 54:0 
0.080078125 19:77 20:2253.1319 21:2789.9393 22:2 23:40388.168 24:0 25:12 26:14801.034 27:15460.162 28:6 29:20571.137 30:26379.656 43:34 44:4933.6901 45:11329.154 46:40 47:4038.9919 48:6927.4255 52:5 53:29345.272 54:28471.541 61:1 
0.080078125 19:89 20:1902.9151 21:2251.7415 22:5 23:22653.91 24:18778.635 25:8 26:10588.255 27:14050.758 28:8 29:15741.612 30:22455.211 43:30 44:4167.819 45:8616.0853 46:73 47:1871.0044 48:4055.2805 52:15 53:11122.922 54:14157.11 61:1 
0.080078125 19:85 20:1984.9313 21:2806.5481 22:6 23:29831.965 24:24718.775 25:3 26:42270.752 27:466.72076 28:7 29:7077.2067 30:11588.873 43:17 44:9770.5562 45:15963.194 46:60 47:2043.6662 48:5987.3943 52:17 53:10381.972 54:18640.112 
0.080078125 19:106 20:1639.4273 21:2512.2401 22:14 23:11802.308 24:20289.151 25:4 26:41545.468 27:1094.209 28:3 29:14.897873 30:6.006251 43:13 44:12975.257 45:17707.004 46:20 47:9059.8434 48:20725.602 52:7 53:25664.446 54:27968.092 
0.080078125 19:128 20:1347.558 21:2098.8424 22:24 23:5461.7703 24:13942.654 25:4 26:31892.525 27:23439.836 28:4 29:2787.9561 30:3838.0269 43:17 44:5979.8732 45:9776.8525 46:27 47:3700.9586 48:6643.0153 52:5 53:30828.81 54:35032.234 
0.080078125 1:1 19:88 20:1944.0909 21:2613.015 22:31 23:5496.3448 24:12376.261 25:5 26:32831.995 27:19091.608 28:4 29:2787.9561 30:3838.0269 43:20 44:6912.0316 45:13004.232 46:29 47:5746.7046 48:10014.245 52:14 53:7646.8037 54:12510.498 
0.080078125 1:1 4:1 19:82 20:2117.4172 21:2309.0552 22:26 23:4824.5787 24:11350.337 25:4 26:35981.035 27:13754.557 28:5 29:7886.3319 30:12840.964 43:18 44:8352.3202 45:11125.825 46:38 47:4331.6217 48:7758.8319 52:12 53:15046.672 54:27222.206 
0.080078125 1:1 4:1 19:77 20:2260.6509 21:3021.4825 22:12 23:13332.954 24:29707.807 25:5 26:26255.135 27:25651.663 28:8 29:16835.903 30:21854.807 43:19 44:8581.478 45:11535.276 46:47 47:3086.212 48:6495.9929 52:6 53:17143.983 54:19181.265 
0.080078125 1:1 19:63 20:2744.3626 21:3678.4402 22:9 23:12302.807 24:16664.663 25:4 26:45841.507 27:51519.839 28:3 29:30906.125 30:30894.196 31:1 43:14 44:10578.84 45:15242.44 46:22 47:6233.3434 48:9656.8312 52:6 53:19526.457 54:19554.948 
0.080078125 4:1 19:76 20:2212.7618 21:3199.5268 22:8 23:14847.627 24:20033.859 25:5 26:27125.011 27:16215.179 28:7 29:4386.8977 30:9407.9323 31:1 43:15 44:10048.976 45:15423.894 46:27 47:5116.2704 48:9852.5198 52:3 53:66916.697 54:63676.681 
0.080078125 4:1 19:80 20:2176.7414 21:2684.0951 22:3 23:421.23665 24:146.67701 25:6 26:25714.213 27:16814.947 28:7 29:4386.8977 30:9407.9323 43:17 44:9214.9973 45:15235.594 46:23 47:2395.8645 48:4636.4648 52:7 53:16383.79 54:14722.152 
0.080078125 19:78 20:2148.0059 21:2500.1592 25:4 26:42664.912 27:4902.0066 28:1 43:15 44:9142.5094 45:13973.647 46:9 47:6187.3711 48:10547.809 52:9 53:15903.456 54:16611.703 55:1 
0.080078125 4:2 5:117.11321 6:0 19:65 20:2621.4066 21:3531.1913 25:4 26:41042.355 27:3460.8398 28:1 40:2 41:12323.127 42:0 43:20 44:8559.5657 45:13942.406 46:27 47:5521.1261 48:10679.092 52:4 53:4678.037 54:5665.4266 55:1 
0.080078125 4:3 5:55496.659 6:55379.546 19:90 20:1721.2127 21:3222.4633 25:4 26:48321.982 27:5088.3231 28:6 29:12936.492 30:10689.838 40:5 41:13722.026 42:8771.5182 43:22 44:6906.016 45:13638.036 46:50 47:3348.8873 48:7413.4741 52:1 
0.080078125 1:3 2:51598.079 3:51596.995 19:88 20:1939.5243 21:3635.0281 25:4 26:34076.465 27:20677.691 28:10 29:13389.066 30:19252.971 31:1 43:34 44:3514.0935 45:6212.3077 46:85 47:1801.7203 48:5069.7079 52:52 53:2882.9906 54:5803.9856 
0.080078125 1:2 2:1.084162 3:0 19:76 20:2036.5045 21:2874.3817 25:3 26:42395.207 27:2201.825 28:4 29:3351.9891 30:2435.5078 31:1 37:1 43:18 44:8237.9335 45:12482.116 46:33 47:4703.4649 48:13547.964 52:55 53:2856.851 54:4191.7656 
0.080078125 13:1 19:47 20:3591.96 21:5257.6769 25:4 26:55204.326 27:7971.919 37:1 43:14 44:12739.49 45:18635.538 46:6 47:24228.033 48:20980.117 52:51 53:3399.0889 54:7029.4424 61:1 
0.080078125 4:1 13:1 19:37 20:4095.4765 21:4848.3837 25:2 26:57200.221 27:0 28:3 29:5988.425 30:5952.4831 43:10 44:14950.544 45:22165.056 46:24 47:5586.1326 48:11821.871 52:54 53:1875.971 54:4249.1832 61:1 
0.080078125 4:1 19:34 20:4282.2206 21:4850.6521 25:2 26:43115.665 27:0 28:3 29:5988.425 30:5952.4831 43:10 44:9537.6361 45:16509.429 46:26 47:6142.84 48:9308.3038 52:22 53:7578.1765 54:17066.134 
0.080078125 1:1 19:25 20:6457.3105 21:7529.6339 25:5 26:37056.773 27:6867.4184 43:18 44:8719.5327 45:15722.344 46:10 47:16420.981 48:18861.776 52:5 53:9723.9193 54:9590.6724 
0.080078125 1:2 2:46812.339 3:0 19:80 20:2156.1013 21:3933.6213 25:7 26:26809.577 27:12213.633 28:7 29:12144.186 30:15995.325 43:26 44:6434.9421 45:12459.056 46:59 47:2200.0527 48:5279.6598 52:1 
0.080078125 1:1 19:97 20:1734.7819 21:3393.4806 25:5 26:27020.442 27:14980.16 28:11 29:8061.4399 30:13526.743 43:19 44:6004.6322 45:11372.555 46:97 47:1590.3329 48:3852.147 52:2 53:102593 54:0 
0.080078125 19:71 20:2327.4906 21:4183.3856 25:4 26:43312.468 27:31202.406 28:6 29:27868.662 30:55532.072 43:13 44:12293.162 45:19212.464 46:72 47:2257.6515 48:4838.2985 52:5 53:27744.154 54:22491.578 
0.080078125 19:63 20:2577.465 21:3654.9638 25:5 26:33807.89 27:12674.488 28:3 29:35520.414 30:35138.354 40:2 41:32965.73 42:0 43:19 44:8578.9588 45:12497.798 46:50 47:3197.6751 48:5033.0407 52:15 53:11503.748 54:16744.238 
0.080078125 16:1 19:61 20:2740.2954 21:3341.6339 25:5 26:29610.115 27:17710.393 28:3 29:49489.657 30:44500.991 40:2 41:32965.73 42:0 43:18 44:8753.9037 45:15038.209 46:41 47:3812.8452 48:8074.5717 52:13 53:10598.361 54:13665.098 
0.080078125 1:3 2:6763.5522 3:6763.4766 16:1 19:105 20:1479.182 21:2139.2466 25:7 26:20073.749 27:15334.62 28:14 29:8411.3001 30:14865.308 43:17 44:7527.6804 45:13513.646 46:111 47:1126.015 48:2641.4602 52:11 53:11369.721 54:12943.687 
0.080078125 1:3 2:6763.5522 3:6763.4766 19:131 20:1255.5636 21:1816.655 25:7 26:20278.674 27:10315.727 28:20 29:8231.1887 30:14053.847 43:19 44:8277.4599 45:12059.227 46:152 47:1072.788 48:2303.4249 52:10 53:15375.212 54:27192.825 55:2 56:57.526937 57:0 
0.080078125 19:107 20:1599.3596 21:2289.8995 25:5 26:33994.362 27:12819.073 28:13 29:10596.045 30:13911.69 43:19 44:8839.5975 45:12655.843 46:101 47:1600.3101 48:3666.0797 52:4 53:35899.539 54:49016.543 55:2 56:57.526937 57:0 
0.080078125 19:116 20:1486.4854 21:2194.0019 25:5 26:38410.011 27:11832.367 28:12 29:14398.556 30:14912.838 43:20 44:8086.3441 45:13942.251 46:112 47:1495.8346 48:3688.7715 52:8 53:11957.751 54:12099.286 
0.080078125 19:111 20:1536.928 21:1932.035 25:5 26:38061.533 27:11602.065 28:7 29:10680.021 30:10954.592 43:18 44:9010.9319 45:17054.658 46:80 47:1996.0322 48:5233.0664 52:9 53:19270.686 54:18572.482 55:5 56:191.81083 57:127.40075 
0.080078125 19:93 20:1857.8606 21:3153.5649 25:4 26:31679.732 27:19075.983 28:5 29:9101.2094 30:15680.396 31:3 32:16.274857 33:12.162806 43:16 44:8733.5432 45:16834.574 46:40 47:3637.6478 48:8046.8099 52:5 53:19456.069 54:18911.007 55:5 56:191.81083 57:127.40075 
0.080078125 19:108 20:1554.8197 21:3096.5966 25:5 26:38589.156 27:12614.986 28:8 29:8375.4642 30:11986.511 31:3 32:16.274857 33:12.162806 43:17 44:10613.785 45:16149.199 46:80 47:2089.687 48:5336.9314 52:4 53:35585.957 54:17854.577 
0.080078125 19:120 20:1445.8185 21:2606.1964 25:6 26:26012.73 27:9686.1642 28:13 29:12055.319 30:24750.832 37:2 38:72.45451 39:0 43:22 44:7411.9056 45:10429.84 46:119 47:1457.9794 48:3303.3353 52:9 53:20191.678 54:17016.699 55:1 
0.080078125 1:1 19:192 20:800.4985 21:1666.3084 25:15 26:10488.979 27:13332.188 28:28 29:4310.5838 30:7877.7283 37:2 38:72.45451 39:0 43:62 44:2407.3132 45:4840.2488 46:153 47:1068.7943 48:2787.1312 52:6 53:13997.227 54:15502.689 55:1 61:1 
0.080078125 1:1 4:7 5:3228.7178 6:7150.8982 19:186 20:925.16775 21:2461.7243 25:15 26:11482.38 27:22712.486 28:23 29:7038.5358 30:13459.289 40:1 43:67 44:2551.6699 45:6601.3017 46:139 47:1235.2964 48:2881.9552 61:1 
0.080078125 4:7 5:3228.7178 6:7150.8982 19:101 20:1552.4466 21:2663.4294 25:4 26:22469.885 27:24251.992 28:6 29:21632.256 30:22856.368 40:1 43:28 44:4474.04 45:10272.154 46:84 47:1470.3044 48:3213.15 52:5 53:11284.456 54:12967.652 
0.080078125 1:2 2:18803.16 3:0 19:72 20:2328.5182 21:3275.0411 25:3 26:46847.449 27:44681.016 28:6 29:20353.15 30:25901.687 31:1 40:2 41:853.70133 42:0 43:18 44:7625.7379 45:13780.385 46:58 47:2965.3857 48:6868.9437 52:11 53:12505.444 54:14802.406 
0.080078125 1:2 2:18803.16 3:0 16:1 19:80 20:2173.9272 21:2834.2132 25:6 26:20300.778 27:17011.733 28:6 29:31447.126 30:39871.678 31:1 40:2 41:853.70133 42:0 43:36 44:4570.9079 45:8364.9356 46:57 47:3055.9535 48:5197.1709 52:8 53:17515.366 54:16851.655 
0.080078125 16:1 19:102 20:1586.9731 21:2170.0002 25:6 26:22730.532 27:12737.694 28:2 29:69806.808 30:0 37:1 43:37 44:4353.1704 45:7084.3159 46:55 47:3002.2809 48:4362.0597 52:6 53:33480.323 54:19597.423 
0.080078125 19:107 20:1622.3619 21:2543.8286 25:3 26:53362.809 27:31332.06 28:8 29:5122.1304 30:12328.049 37:1 43:20 44:6655.8188 45:10297.217 46:63 47:2766.2946 48:6925.8619 52:6 53:30347.546 54:27141.367 
0.080078125 19:135 20:1263.6858 21:2354.7471 25:8 26:14945.526 27:17138.274 28:14 29:11173.741 30:33831.867 40:1 43:29 44:5887.5529 45:12321.36 46:103 47:1626.2825 48:5931.1928 52:8 53:22481.997 54:25038.498 
0.080078125 1:19 2:1562.7687 3:5001.5792 19:95 20:1736.1223 21:3657.6244 25:10 26:17722.583 27:17170.385 28:7 29:2764.1097 30:2502.1764 40:1 43:28 44:5907.5423 45:11134.763 46:75 47:1804.6552 48:5075.4352 52:26 53:6092.2118 54:8482.7164 
0.080078125 1:19 2:1562.7687 3:5001.5792 16:1 19:49 20:3155.7034 21:4219.6705 25:4 26:45806.393 27:28641.528 43:16 44:9161.3051 45:14383.207 46:14 47:10962.19 48:6880.4524 52:24 53:6156.9086 54:14866.445 
0.080078125 1:10 2:4962.5595 3:8320.2397 16:1 19:100 20:1677.5746 21:2842.3673 25:3 26:22137.985 27:5225.2423 28:7 29:7520.6042 30:15919.394 43:16 44:6947.0827 45:10017.178 46:53 47:2966.3618 48:5780.7004 52:9 53:6400.4487 54:6351.0473 
0.080078125 1:15 2:7548.2112 3:10980.669 7:1 13:1 19:125 20:1358.7341 21:2033.7397 25:3 26:70714.563 27:43351.336 28:10 29:12183.238 30:17655.004 43:11 44:14142.952 45:28848.945 46:62 47:2726.8984 48:7226.3686 52:8 53:21924.68 54:22288.375 55:2 56:75.875176 57:0 
0.080078125 1:5 2:5853.5921 3:4753.7741 7:1 13:1 19:99 20:1742.0132 21:2171.0557 25:4 26:34207.832 27:12203.413 28:3 29:22479.152 30:21068.391 43:11 44:10262.37 45:17041.284 46:30 47:5355.9289 48:10392.922 52:10 53:15728.142 54:11176.699 55:2 56:75.875176 57:0 
0.080078125 1:4 2:3166.8285 3:2862.6206 19:79 20:2121.583 21:2873.6076 25:8 26:20444.168 27:15832.48 37:1 43:22 44:6814.7417 45:11818.349 46:28 47:5995.9391 48:9744.1729 52:12 53:10948.773 54:13911.596 
0.080078125 1:4 2:3166.8285 3:2862.6206 19:61 20:2741.4135 21:4271.5001 25:6 26:23884.859 27:21501.459 28:2 29:55.850346 30:0 37:1 43:16 44:7965.723 45:15149.315 46:30 47:5673.0996 48:9830.2114 52:8 53:11783.046 54:21809.191 
0.080078125 19:64 20:2700.4992 21:4097.206 25:3 26:50546.836 27:3252.2492 28:2 29:55.850346 30:0 34:1 43:10 44:13894.181 45:20836.019 46:33 47:5136.9797 48:8067.8184 52:5 53:33254.188 54:30316.329 
0.080078125 13:1 19:71 20:2396.0443 21:3018.4842 25:5 26:41387.202 27:6138.5102 34:1 43:18 44:9770.1595 45:15876.71 46:32 47:5331.4146 48:8468.1377 52:3 53:67004.251 54:6689.4924 55:15 56:97.801668 57:122.66073 
0.080078125 13:1 19:65 20:2619.0706 21:3045.7932 25:4 26:35960.042 27:6061.855 28:3 29:32.861516 30:3.017734 43:19 44:8956.495 45:15806.27 46:28 47:5652.702 48:11854.882 52:4 53:36188.05 54:25046.363 55:15 56:97.801668 57:122.66073 
0.080078125 19:64 20:2698.9563 21:3013.442 25:3 26:58554.291 27:33204.329 28:4 29:31132.064 30:43980.914 43:15 44:9820.1961 45:15990.303 46:29 47:5950.0815 48:12054.931 52:6 53:15292.912 54:15246.29 
0.080078125 13:1 19:60 20:2919.898 21:2838.8533 25:3 26:57205.011 27:31855.05 28:2 29:24170.51 30:0 43:12 44:10400.947 45:12072.105 46:34 47:4444.4566 48:7470.158 52:7 53:24372.944 54:22437.125 
0.080078125 13:1 19:56 20:3092.7328 21:3048.9569 25:3 26:43297.494 27:384.71118 28:1 43:12 44:11920.538 45:14825.277 46:32 47:4302.0788 48:5193.5312 52:4 53:20604.334 54:14174.56 
0.080078125 19:77 20:2181.8338 21:2728.1618 25:4 26:43642.916 27:1142.5563 28:1 43:16 44:9625.3535 45:12691.541 46:41 47:3916.0288 48:6865.0263 52:4 53:14357.062 54:17604.297 
0.080078125 1:1 4:1 19:152 20:1092.7767 21:1347.0596 25:4 26:35204.302 27:14310.071 28:16 29:5772.6608 30:9890.1081 43:20 44:7186.6283 45:9797.3614 46:130 47:1184.5769 48:2246.4659 52:9 53:9003.5405 54:12437.113 
0.080078125 1:1 4:1 19:134 20:1231.9885 21:2217.5197 25:4 26:44792.735 27:24888.825 28:15 29:4035.5963 30:7716.2213 43:18 44:7904.6235 45:13511.855 46:103 47:1001.9916 48:2653.5205 52:9 53:20986.701 54:44028.631 
0.080078125 1:2 2:15067.449 3:0 4:1 19:69 20:2357.0719 21:3346.4189 25:3 26:43297.114 27:222.17725 43:10 44:10305.417 45:17736.87 46:14 47:9967.3991 48:21545.364 52:7 53:11167.189 54:8649.0222 
0.080078125 1:2 2:15067.449 3:0 4:1 19:108 20:1588.5668 21:2545.9831 25:6 26:28295.425 27:23477.915 28:8 29:6507.3189 30:7793.4041 37:1 43:23 44:6430.7965 45:13103.5 46:84 47:1895.565 48:4088.8462 52:7 53:23014.258 54:13074.242 
0.080078125 19:132 20:1302.2324 21:1991.4068 25:9 26:17131.084 27:9335.6389 28:14 29:6997.7811 30:11444.405 37:1 43:39 44:4035.2376 45:8041.5902 46:115 47:1483.7759 48:3174.2992 52:10 53:16719.95 54:17648.648 
0.080078125 19:107 20:1627.0713 21:2238.6949 25:5 26:34499.795 27:23307.162 28:8 29:24615.201 30:37573.14 43:24 44:7469.4886 45:13308.087 46:74 47:2365.8107 48:4784.996 52:8 53:18985.14 54:19668.467 
0.080078125 1:2 2:5483.9219 3:0 13:1 19:94 20:1707.2997 21:1935.9983 25:10 26:10836.521 27:21756.819 28:6 29:25038.554 30:28773.687 37:2 38:242.25728 39:0 43:25 44:5837.7671 45:12800.178 46:74 47:2060.0025 48:4771.8266 52:16 53:10106.316 54:22348.555 55:2 56:5250.8681 57:0 
0.080078125 1:2 2:5483.9219 3:0 13:1 19:93 20:1866.1918 21:2246.486 25:12 26:12005.398 27:16269.444 28:5 29:35374.96 30:41276.303 37:2 38:242.25728 39:0 43:31 44:4401.9926 45:9823.2137 46:92 47:1871.9943 48:3995.7545 52:14 53:1544.2 54:990.07904 55:11 56:10140.334 57:13191.107 
0.080078125 19:130 20:1295.7395 21:1783.4279 25:6 26:29325.491 27:14662.396 28:12 29:9444.238 30:15458.892 31:1 43:30 44:5691.1775 45:11772.227 46:147 47:1130.6658 48:2351.7664 52:1 55:15 56:10279.127 57:19667.639 
0.080078125 19:140 20:1229.887 21:1937.2572 25:9 26:18074.852 27:14967.061 28:31 29:4648.1412 30:8129.7625 31:1 37:2 38:30147.086 39:0 40:1 43:40 44:3707.6721 45:9089.9886 46:212 47:810.93126 48:1836.3682 52:5 53:27838.335 54:35487.955 55:7 56:28236.824 57:40286.409 
0.080078125 4:2 5:1917.9155 6:0 19:99 20:1737.5835 21:2170.1256 25:7 26:19916.622 27:21760.666 28:21 29:5957.6643 30:12451.47 37:2 38:30147.086 39:0 40:1 43:29 44:4753.6471 45:7992.5239 46:143 47:1196.0545 48:2927.8915 52:16 53:5888.0747 54:6989.0376 55:15 56:5988.9342 57:7209.8427 
0.080078125 1:1 4:4 5:40124.058 6:55350.656 19:77 20:2150.7464 21:2268.054 25:2 26:54950.142 27:0 28:2 29:42831.589 30:0 43:11 44:9718.299 45:13612.911 46:50 47:2908.4301 48:4786.4675 52:17 53:10260.223 54:13161.583 55:14 56:4483.8518 57:4926.1152 
0.080078125 1:1 4:2 5:59.902636 6:0 16:1 19:55 20:3149.6772 21:4007.1655 25:1 28:1 43:5 44:34103.817 45:34183.078 46:33 47:4523.1304 48:6135.2968 52:14 53:10033.633 54:8933.4998 
0.080078125 1:11 2:3782.0341 3:7903.6617 4:1 13:1 16:1 19:54 20:3234.032 21:4410.8698 25:1 43:6 44:17332.585 45:24547.083 46:19 47:8703.693 48:10285.526 52:16 53:9934.2152 54:8871.2465 
0.080078125 1:13 2:6006.9446 3:11194.158 4:1 13:1 19:79 20:2192.5575 21:3174.4264 25:5 26:36153.144 27:51904.708 28:13 29:3325.3496 30:10965.09 40:1 43:14 44:11124.075 45:28828.354 46:48 47:3515.9716 48:7780.8249 52:13 53:14107.039 54:14250.867 
0.080078125 1:3 2:49993.565 3:49921.05 19:74 20:2272.6406 21:2901.1605 25:6 26:16478.528 27:14124.409 28:14 29:6914.9104 30:16297.357 40:1 43:15 44:5885.2171 45:11554.854 46:51 47:2188.988 48:4839.5356 52:17 53:8373.6717 54:9667.9212 
0.080078125 1:1 4:1 13:1 19:68 20:2497.7767 21:2751.7398 22:5 23:15345.185 24:26178.765 25:4 26:47086.859 27:10700.157 28:1 43:12 44:12841.907 45:21702.144 46:10 47:16302.586 48:31177.729 52:12 53:8393.3464 54:10104.72 
0.080078125 4:1 13:1 19:119 20:1438.9171 21:2155.5432 22:8 23:15618.365 24:22211.026 25:5 26:33980.557 27:21763.956 28:4 29:49.452266 30:55.300395 43:28 44:6142.8925 45:12953.449 46:84 47:1346.2858 48:4448.7402 52:11 53:13053.605 54:26686.013 55:6 56:2783.5008 57:5321.057 
0.080078125 19:123 20:1244.1051 21:1271.7107 22:3 23:5234.1312 24:3010.1592 25:5 26:33340.994 27:38525.699 28:4 29:49.452266 30:55.300395 43:35 44:4192.1553 45:6360.131 46:91 47:1638.0939 48:3580.8488 52:24 53:5848.0551 54:11003.579 55:16 56:7519.5462 57:23341.386 
0.080078125 19:64 20:2648.427 21:3434.2141 25:3 26:33909.677 27:26194.195 28:3 29:21830.096 30:21781.026 43:20 44:8383.958 45:14865.134 46:29 47:4867.3713 48:6500.2431 52:21 53:4558.0319 54:7811.8601 55:10 56:541.50961 57:352.17753 
0.080078125 19:111 20:1491.302 21:2497.8401 25:6 26:23285.893 27:24800.21 28:5 29:39240.437 30:40606.355 34:1 43:40 44:3105.6094 45:7789.5311 46:76 47:2190.6978 48:5071.9769 52:11 53:13234.637 54:25514.72 
0.080078125 1:2 2:37692.664 3:0 19:131 20:1232.512 21:1532.1947 25:7 26:18402.244 27:20751.741 28:3 29:9963.4789 30:398.78413 34:1 43:46 44:2706.7982 45:6922.238 46:71 47:2320.3165 48:5884.8319 52:6 53:21898.675 54:26845.04 
0.080078125 1:2 2:37692.664 3:0 19:66 20:2495.1949 21:2820.6475 25:4 26:46643.147 27:18533.935 28:1 43:21 44:7185.9218 45:16580.315 46:23 47:6831.5099 48:10286.254 52:11 53:9899.1489 54:9103.0584 
0.080078125 4:1 16:1 19:140 20:1210.2354 21:2807.3597 25:13 26:12381.717 27:25214.023 28:18 29:3645.5852 30:12400.547 31:1 34:3 35:538.37179 36:292.39331 43:69 44:2185.016 45:8225.6836 46:75 47:2014.5995 48:6638.7561 52:24 53:6304.1038 54:7510.7527 
0.080078125 4:1 16:1 19:160 20:1034.466 21:2114.4509 25:13 26:9162.426 27:15983.109 28:22 29:7825.2765 30:23930.554 31:1 34:3 35:538.37179 36:292.39331 43:66 44:2322.7962 45:8956.5262 46:81 47:2054.14 48:7569.0938 52:17 53:5541.5339 54:7097.9154 61:1 
0.080078125 1:1 19:82 20:2090.7582 21:2124.0449 25:3 26:41392.546 27:12684.145 28:4 29:7.7752083 30:8.3611504 43:12 44:7737.0309 45:12186.548 46:15 47:10701.014 48:17681.988 52:10 53:16200.894 54:22498.584 61:1 
0.080078125 1:1 13:3 14:14598.142 15:8766.6355 19:70 20:2480.7875 21:3040.3469 25:2 26:85653.794 27:0 43:11 44:11167.875 45:17011.651 46:5 47:34492.731 48:27088.942 52:8 53:8293.5492 54:5951.0867 
0.080078125 13:3 14:14598.142 15:8766.6355 19:72 20:2374.7439 21:3146.6104 22:5 23:1751.4508 24:2940.0452 25:2 26:114730.68 27:0 28:1 43:11 44:15664.329 45:24207.363 46:13 47:10055.146 48:17208.499 52:1 
0.080078125 19:63 20:2716.9193 21:3344.3 22:5 23:1751.4508 24:2940.0452 25:2 26:89052.819 27:0 28:2 29:21766.629 30:0 43:10 44:16290.787 45:25294.284 46:24 47:6490.7072 48:13236.589 52:3 53:21515.635 54:8500.2485 55:7 56:141.32554 57:77.60601 
0.080078125 1:2 2:7322.7324 3:0 16:1 19:64 20:2537.2848 21:3208.0102 22:12 23:1281.0552 24:3947.2461 25:3 26:20400.055 27:12508.759 28:1 43:18 44:4600.8845 45:8763.9157 46:17 47:7634.4565 48:10470.954 52:19 53:7387.0963 54:16309.45 55:7 56:141.32554 57:77.60601 61:1 
0.080078125 1:3 2:36187.706 3:28864.973 16:1 19:81 20:2112.6994 21:2544.4501 22:12 23:1281.0552 24:3947.2461 25:3 26:59602.067 27:51710.771 28:10 29:67.116685 30:178.98964 40:1 43:18 44:7180.5361 45:15543.183 46:45 47:3690.7216 48:10129.614 52:25 53:5431.3803 54:8292.4108 61:1 
0.080078125 1:1 19:61 20:2739.3842 21:3059.5039 25:10 26:8323.4222 27:23483.321 28:11 29:8401.5937 30:25004.008 40:1 43:24 44:5515.9081 45:18153.454 46:46 47:1875.9332 48:6314.7021 52:11 53:13194.636 54:15723.307 
0.080078125 19:44 20:3861.501 21:3557.6212 25:16 26:7553.4878 27:16696.622 28:9 29:14394.466 30:38052.01 40:4 41:8081.8699 42:5480.8401 43:46 44:2518.8137 45:10247.638 46:38 47:3843.9507 48:19013.183 52:4 53:31628.456 54:21587.937 55:15 56:36.294388 57:50.326669 
0.080078125 19:57 20:3059.9775 21:3038.5678 25:9 26:14357.702 27:21036.333 28:8 29:12.159398 30:13.866886 37:1 40:6 41:23101.566 42:19959.061 43:31 44:3828.7372 45:12547.567 46:35 47:3668.0527 48:17093.323 52:3 53:63977.311 54:43481.059 55:16 56:45.103261 57:58.738993 
0.080078125 1:2 2:10749.252 3:0 19:57 20:2911.3781 21:2878.9852 25:3 26:28235.768 27:28224.623 37:1 40:2 41:35389.838 42:0 43:8 44:8067.419 45:19756.184 46:2 47:69600.766 48:0 52:10 53:12817.634 54:9965.6801 55:1 
0.080078125 1:2 2:10749.252 3:0 19:63 20:2661.4086 21:3147.1694 25:4 26:47152.788 27:38096.681 28:10 29:5295.8298 30:11241.349 43:14 44:10881.444 45:27007.354 46:30 47:3063.1398 48:9847.0753 52:10 53:12117.613 54:8910.8415 
0.080078125 1:1 16:1 19:73 20:2324.8523 21:3149.6939 25:4 26:48947.868 27:40292.758 28:10 29:5295.8298 30:11241.349 34:4 35:5492.6828 36:4816.6059 43:19 44:8158 45:16656.41 46:29 47:1702.3225 48:6835.5714 52:8 53:22700.992 54:25826.618 
0.080078125 1:1 16:1 19:53 20:3186.6274 21:4598.8278 25:4 26:24833.616 27:13198.215 28:1 34:4 35:5492.6828 36:4816.6059 40:1 43:18 44:6972.0198 45:11800.314 46:6 47:4547.5244 48:9066.3492 52:18 53:8179.2957 54:7472.6279 
0.080078125 4:4 5:9.4096297 6:2.5325035 19:69 20:2496.7649 21:3902.4011 25:5 26:38779.59 27:15322.343 28:5 29:34967.453 30:60561.308 40:1 43:17 44:10517.887 45:18184.457 46:26 47:5594.8084 48:12695.59 52:13 53:8824.355 54:8027.6423 
0.080078125 4:4 5:9.4096297 6:2.5325035 19:90 20:1878.4939 21:2180.2745 25:3 26:55505.641 27:408.9398 28:5 29:5865.5578 30:10155.347 43:11 44:14813.473 45:20594.995 46:28 47:5699.9617 48:9427.9831 52:1 55:54 56:1120.2875 57:2280.3308 
0.080078125 19:98 20:1725.1628 21:1971.4966 25:2 26:54309.019 27:0 28:1 43:11 44:13241.242 45:18047.045 46:19 47:9250.1199 48:14331.265 52:7 53:6233.5999 54:7159.9951 55:65 56:994.2277 57:2100.3902 
0.080078125 1:1 19:85 20:1965.4314 21:2521.6024 25:3 26:74809.283 27:32357.333 31:2 32:15.478156 33:0 43:16 44:10859.692 45:16088.702 46:18 47:9671.0802 48:14258.429 52:7 53:6233.5999 54:7159.9951 55:11 56:361.02647 57:421.44769 
0.080078125 1:1 19:62 20:2546.8022 21:3013.155 25:6 26:21533.292 27:18172.014 28:7 29:2187.5779 30:4582.2121 31:2 32:15.478156 33:0 40:2 41:149.07247 42:0 43:18 44:7498.1367 45:11855.673 46:31 47:4704.206 48:8884.8857 52:10 53:3163.591 54:8882.8972 
0.080078125 19:66 20:2301.0304 21:3577.793 25:6 26:26478.844 27:24377.24 28:9 29:9518.5037 30:20619.323 40:2 41:149.07247 42:0 43:20 44:6968.1379 45:14221.593 46:42 47:3207.8219 48:6098.1281 52:14 53:8698.2023 54:13007.031 
0.080078125 19:60 20:2765.3763 21:3769.1725 25:6 26:28012.902 27:28930.235 28:6 29:28033.188 30:56013.175 40:1 43:25 44:6054.354 45:16283.707 46:35 47:4746.4386 48:8349.6124 52:10 53:16914.129 54:12739.855 61:1 
0.080078125 19:50 20:3272.8571 21:4029.7762 25:5 26:30145.895 27:32276.143 28:4 29:34.229435 30:25.925821 40:1 43:20 44:8391.8726 45:19609.626 46:29 47:5491.265 48:8916.0632 52:14 53:12979.205 54:9375.1296 61:1 
0.080078125 19:75 20:2260.3426 21:3892.503 25:2 26:68026.379 27:0 43:9 44:12791.167 45:16654.247 46:22 47:7902.789 48:9124.8788 52:15 53:11264.401 54:12807.977 
0.080078125 19:67 20:2312.7595 21:3593.473 25:3 26:69484.774 27:3092.5394 28:6 29:10339.319 30:20628.83 37:2 38:51674.946 39:0 43:10 44:15441.105 45:26210.996 46:32 47:5151.9575 48:8814.0023 52:12 53:14437.172 54:14905.969 
0.080078125 19:35 20:4923.1298 21:5168.2027 25:4 26:51204.95 27:10745.408 28:6 29:10339.319 30:20628.83 37:2 38:51674.946 39:0 43:13 44:12801.271 45:20205.924 46:24 47:4608.5611 48:10025.265 52:7 53:22468.825 54:11293.286 55:1 
0.080078125 1:1 19:64 20:2687.6561 21:2997.0264 25:3 26:72862.272 27:28797.641 28:1 31:1 43:12 44:13247.722 45:21858.079 46:5 47:25275.94 48:26892.25 52:6 53:28369.098 54:27962.471 55:1 
0.080078125 1:1 13:1 19:78 20:2192.7125 21:2219.1223 25:3 26:42647.583 27:16651.658 28:1 31:1 43:12 44:11810.604 45:20557.551 46:3 47:18782.482 48:18782.283 52:8 53:17865.614 54:13980.66 
0.080078125 13:2 14:89368.882 15:0 19:63 20:2691.5398 21:3933.1009 25:8 26:11485.688 27:16061.219 28:3 29:5.066907 30:0.149549 43:24 44:3495.6611 45:10307.24 46:13 47:3044.2163 48:10092.756 52:22 53:7253.4173 54:11162.09 
0.080078125 19:107 20:1532.3014 21:2305.093 25:4 26:46112.308 27:6581.935 28:1 31:1 37:1 43:12 44:12576.12 45:20822.07 46:7 47:17933.586 48:35798.264 52:15 53:10255.793 54:8001.0552 
0.080078125 19:166 20:1017.0022 21:1551.4204 25:6 26:27713.64 27:27221.764 28:2 29:41236.144 30:0 43:18 44:8151.0938 45:19424.347 46:11 47:12201.418 48:21252.073 52:12 53:10811.765 54:10720.548 61:1 
0.080078125 19:117 20:1464.2904 21:2636.315 22:4 23:419.78811 24:307.8584 25:5 26:28628.965 27:35841.982 28:3 29:57364.478 30:16128.334 43:15 44:8180.4981 45:23114.749 46:12 47:10430.587 48:21543.068 52:8 53:20541.872 54:42688.79 61:1 
0.080078125 19:81 20:2130.265 21:3249.3588 22:6 23:3935.1249 24:7105.1426 25:1 28:2 29:96414.291 30:0 43:3 44:0.1983245 45:0.0005245 46:12 47:8766.311 48:27163.917 52:6 53:16271.731 54:22248.923 55:6 56:2076.1728 57:2446.4638 
0.080078125 1:1 19:87 20:1966.0081 21:2673.089 22:2 23:279.27288 24:0 25:2 26:17379.055 27:0 28:3 29:61170.552 30:61166.945 37:1 40:2 41:427.68724 42:0 43:9 44:8234.0766 45:12980.216 46:14 47:9545.831 48:19228.45 52:8 53:23679.784 54:20699.105 55:27 56:6050.5568 57:14611.223 
0.080078125 1:2 2:48939.157 3:0 4:1 19:56 20:3038.1497 21:3950.112 25:4 26:46666.374 27:21229.832 28:4 29:25590.623 30:25658.617 37:1 40:2 41:427.68724 42:0 43:21 44:7499.5709 45:13032.183 46:9 47:19328.828 48:24905.017 52:13 53:12520.765 54:15060.468 55:36 56:2597.6175 57:7516.7647 
0.080078125 1:1 4:1 19:49 20:3381.8741 21:3269.4653 25:3 26:49482.18 27:6105.2357 28:2 29:16101.281 30:0 43:16 44:9525.2411 45:16858.539 46:4 47:18488.062 48:16158.14 52:23 53:5938.7345 54:6386.9611 55:15 56:632.81169 57:1002.3004 
0.080078125 19:94 20:1813.8144 21:2103.1042 25:3 26:35738.973 27:21345.757 28:3 29:1210.3012 30:936.7961 40:2 41:224.9569 42:0 43:14 44:10241.71 45:19110.682 46:9 47:17131.172 48:44415.02 52:19 53:8961.3893 54:9999.0761 
0.080078125 1:1 19:109 20:1576.8606 21:2656.0464 25:5 26:42575.237 27:23255.624 28:3 29:1210.3012 30:936.7961 40:2 41:224.9569 42:0 43:20 44:8963.2281 45:18190.987 46:14 47:6308.4946 48:16034.421 52:7 53:20271.707 54:19046.307 
0.080078125 1:1 19:65 20:2675.6344 21:4137.4329 25:4 26:45617.838 27:13097.567 28:2 29:21966.837 30:0 43:16 44:11257.865 45:19352.77 46:18 47:7001.7097 48:12528.846 52:9 53:16241.28 54:21975.028 
0.080078125 4:1 19:55 20:3089.3203 21:4070.5136 25:3 26:53879.847 27:2810.5811 28:2 29:21966.837 30:0 40:1 43:14 44:8289.2377 45:14821.546 46:16 47:5093.5202 48:7572.5679 52:22 53:6584.0783 54:7628.8899 55:6 56:7.6359922 57:6.4338123 
0.080078125 1:1 4:1 19:76 20:2264.696 21:2764.0851 25:3 26:61503.819 27:10434.553 37:1 40:1 43:12 44:13233.688 45:20550.363 46:8 47:17291.376 48:26981.618 52:15 53:6610.8381 54:7518.246 55:6 56:7.6359922 57:6.4338123 
0.080078125 1:2 2:49158.399 3:0 4:2 5:7.280144 6:0 19:94 20:1836.0158 21:2444.5995 25:3 26:41530.446 27:11460.537 37:2 38:72002.123 39:0 43:16 44:8282.6024 45:13334.153 46:36 47:4396.7512 48:9761.1425 52:1 
0.080078125 1:1 4:2 5:7.280144 6:0 19:132 20:1273.8571 21:1946.476 25:3 26:69470.31 27:39400.401 28:2 29:10773.883 30:0 37:1 43:27 44:5506.1609 45:7886.5793 46:85 47:1832.7208 48:2039.7588 52:2 53:39209.345 54:0 
0.080078125 19:129 20:1304.1265 21:1751.0394 22:13 23:1889.0893 24:2739.4066 25:2 26:61985.456 27:0 28:2 29:10773.883 30:0 43:18 44:7363.1984 45:14951.058 46:58 47:2969.3342 48:7818.2245 52:11 53:10375.894 54:15061.321 
0.080078125 19:115 20:1493.6422 21:1920.6235 22:13 23:1889.0893 24:2739.4066 25:2 26:42089.811 27:0 28:3 29:1962.9788 30:1917.4548 43:12 44:10671.499 45:12792.152 46:22 47:7829.0677 48:12665.966 52:13 53:12090.428 54:31885.468 
0.080078125 1:1 19:205 20:837.0921 21:1441.3679 25:7 26:23066.957 27:24249.977 28:18 29:8047.7789 30:16876.112 43:45 44:3881.0634 45:5290.1996 46:218 47:778.8455 48:1397.4848 52:14 53:11728.237 54:14908.662 
0.080078125 19:242 20:716.62104 21:1085.2054 25:5 26:25600.037 27:8428.5083 28:10 29:15414.348 30:14869.333 31:1 34:1 43:54 44:2886.9121 45:3927.7026 46:182 47:952.90233 48:1329.6628 52:8 53:23314.116 54:17805.535 55:9 56:7914.7144 57:11918.37 
0.080078125 13:20 14:3407.14 15:11938.262 19:100 20:1735.5514 21:2479.2094 25:7 26:20570.248 27:15565.561 28:8 29:14134.71 30:25025.427 43:18 44:7970.241 45:12994.66 46:66 47:2638.7204 48:6208.5688 52:4 53:51019.92 54:42631.887 55:16 56:506.46453 57:498.76946 
0.080078125 19:133 20:1288.3316 21:1774.8667 25:14 26:9303.5091 27:16342.589 28:9 29:17181.868 30:30737.709 37:1 43:37 44:3359.6115 45:8533.4982 46:78 47:2207.9321 48:3774.236 52:11 53:8184.8579 54:17660.988 55:1 
0.080078125 16:1 19:132 20:1305.3572 21:1574.8345 25:14 26:12116.478 27:22933.308 28:4 29:45326.637 30:49658.281 37:1 43:42 44:3841.8221 45:8559.3763 46:61 47:2752.4018 48:4937.3099 52:10 53:2415.0892 54:3696.6074 55:10 56:10162.336 57:9873.3026 
0.080078125 1:1 4:1 16:1 19:98 20:1709.2657 21:3067.1363 25:5 26:18067.415 27:30639.07 28:8 29:11714.482 30:18750.373 40:14 41:5508.3157 42:5936.8087 43:21 44:6593.3766 45:11277.9 46:62 47:2489.5845 48:6420.5053 52:15 53:4344.5156 54:5561.1023 55:19 56:9085.3725 57:10993.601 61:1 
0.080078125 1:1 4:2 5:74978.97 6:0 7:8 8:3702.2795 9:8690.1937 19:104 20:1666.0154 21:2966.7155 25:6 26:16474.679 27:19868.628 28:8 29:20545.993 30:27718.237 37:1 40:23 41:5675.5635 42:5771.0208 43:22 44:6475.3827 45:13267.279 46:56 47:3041.2789 48:7588.24 52:20 53:6725.894 54:8413.5271 55:17 56:8448.254 57:13519.775 61:1 
0.080078125 4:1 19:216 20:801.65128 21:1708.3279 22:8 23:208.00262 24:72.296961 25:11 26:14346.637 27:12020.538 28:10 29:10355.247 30:12341.757 34:1 43:46 44:3375.8657 45:6870.3139 46:140 47:1200.6155 48:3294.723 52:3 53:3366.0358 54:2521.9896 
0.080078125 19:198 20:818.32159 21:1216.4785 22:8 23:208.00262 24:72.296961 25:10 26:15438.248 27:21077.38 28:11 29:8509.5455 30:10512.015 34:1 43:38 44:3808.1474 45:7481.2365 46:160 47:989.13487 48:1974.7005 52:6 53:18830.438 54:20890.683 55:17 56:429.50515 57:465.53325 
0.080078125 19:110 20:1557.6746 21:1703.9595 25:7 26:14558.254 27:17426.977 28:8 29:19944.782 30:43787.155 43:27 44:5090.6307 45:9353.5694 46:95 47:1816.2338 48:2805.668 52:12 53:15043.152 54:16681.951 55:17 56:429.50515 57:465.53325 
0.080078125 4:1 19:138 20:1211.9264 21:1659.8516 25:4 26:41146.934 27:8107.2264 28:19 29:4547.179 30:13082.048 31:3 32:25.578449 33:1.377893 43:23 44:5694.4519 45:12490.107 46:107 47:1520.2757 48:2950.6241 52:18 53:8591.6383 54:16002.26 55:4 56:10370.039 57:7160.6239 
0.080078125 4:1 19:171 20:990.27003 21:1684.6431 25:6 26:30759.382 27:31532.815 28:15 29:9661.7681 30:30698.185 31:3 32:25.578449 33:1.377893 34:1 43:37 44:4280.5066 45:12046.376 46:104 47:1666.8566 48:5854.8 52:13 53:7773.2145 54:18257.31 55:39 56:2799.6506 57:4765.8353 
0.080078125 16:1 19:234 20:735.12594 21:1363.3539 25:17 26:5537.4915 27:9970.6701 28:8 29:3699.572 30:2493.0835 34:1 43:75 44:1796.4539 45:5075.5642 46:134 47:1223.4735 48:5249.836 52:4 53:2402.8799 54:1305.2676 55:35 56:1796.3165 57:3312.6676 
0.080078125 16:1 19:269 20:641.75935 21:911.65642 25:18 26:8591.4312 27:13676.216 28:8 29:18187.287 30:35627.483 34:2 35:76523.117 36:0 37:2 38:899.49282 39:0 43:78 44:2233.6559 45:4431.468 46:176 47:981.4557 48:2299.3108 
0.080078125 19:187 20:897.52287 21:1935.2543 25:8 26:19068.115 27:17423.671 28:8 29:12899.446 30:26169 34:2 35:76523.117 36:0 37:2 38:899.49282 39:0 43:51 44:2794.1293 45:3806.0894 46:128 47:1087.124 48:1682.5447 52:14 53:6477.8626 54:7037.1871 
0.080078125 16:1 19:202 20:849.40245 21:2106.9983 22:11 23:537.80635 24:1079.5315 25:34 26:4798.5885 27:12985.637 28:15 29:7789.5323 30:14454.172 43:110 44:1462.1971 45:5388.5433 46:109 47:1290.6737 48:4177.744 52:16 53:7195.3711 54:8006.7077 
0.080078125 16:1 19:219 20:758.14812 21:1444.4351 22:11 23:537.80635 24:1079.5315 25:36 26:3745.0473 27:11089.813 28:12 29:12129.08 30:17836.552 43:108 44:1422.8153 45:5130.6468 46:116 47:1392.3521 48:5382.7453 52:10 53:16282.515 54:26857.421 
0.080078125 19:200 20:850.69514 21:1510.6016 25:27 26:5356.5926 27:14240.031 28:9 29:17560.38 30:19480.47 34:2 35:17851.827 36:0 43:90 44:1882.8079 45:6329.6543 46:113 47:1315.5164 48:3884.1467 52:9 53:17848.643 54:26779.219 55:39 56:1253.1848 57:3898.7025 
0.080078125 19:169 20:972.14066 21:1498.6405 25:41 26:4046.8915 27:11709.916 28:7 29:23008.225 30:30836.085 34:4 35:19310.56 36:16309.314 37:1 40:2 41:248.24112 42:0 43:138 44:1189.7606 45:4406.8288 46:88 47:1672.5395 48:4058.69 52:7 53:9676.4935 54:9982.7064 55:65 56:1623.7714 57:4667.8899 
0.080078125 19:170 20:907.28538 21:1413.0132 25:24 26:5411.7331 27:9212.0264 28:7 29:11081.245 30:12690.967 34:2 35:105.16601 36:0 37:1 40:2 41:248.24112 42:0 43:114 44:1179.0362 45:2222.3694 46:111 47:1428.1826 48:2777.1643 52:6 53:5592.4903 54:4417.1055 55:26 56:1097.7364 57:1589.1013 
0.080078125 1:1 19:384 20:447.734 21:1107.8662 25:17 26:9573.8582 27:10804.253 28:37 29:4467.3905 30:9113.0346 34:2 35:35038.679 36:0 43:132 44:1308.3495 45:3481.0347 46:307 47:549.94255 48:1638.7331 52:1 
0.080078125 1:1 7:3 8:13579.631 9:11003.211 19:346 20:482.69035 21:919.98248 25:17 26:8296.1063 27:11508.067 28:36 29:4086.0316 30:8992.8875 34:2 35:35038.679 36:0 43:109 44:1262.9497 45:2148.8334 46:292 47:517.64074 48:1232.3838 52:1 
0.080078125 7:4 8:23883.074 9:17118.284 19:191 20:903.54346 21:1388.7363 25:7 26:18960.661 27:23606.77 28:23 29:6642.4289 30:16809.791 31:1 43:38 44:3954.9999 45:10633.773 46:181 47:949.01867 48:3130.9749 52:6 53:5357.928 54:6767.3663 
0.080078125 7:13 8:11376.474 9:23971.313 16:1 19:227 20:711.15839 21:2475.4455 25:6 26:24054.634 27:15726.798 28:17 29:8358.3676 30:12856.902 34:1 43:80 44:1706.2656 45:5056.0601 46:153 47:1049.7848 48:3296.7712 52:1 55:10 56:3922.4322 57:9030.8587 
0.080078125 7:20 8:4532.3697 9:11286.719 19:353 20:433.26688 21:1406.2755 25:9 26:16268.709 27:13297.763 28:49 29:3167.3938 30:4842.8777 34:3 35:23465.59 36:16841.984 43:95 44:1610.0973 45:3741.6575 46:316 47:484.10703 48:1649.273 52:6 53:8806.574 54:7403.8588 55:13 56:5205.62 57:8863.7243 
0.080078125 7:15 8:3318.0023 9:10600.578 19:537 20:312.06613 21:610.40506 25:15 26:10600.417 27:11404.463 28:70 29:2082.114 30:3381.956 34:3 35:60375.331 36:53751.726 43:130 44:1183.857 45:2339.0288 46:487 47:328.26783 48:705.50911 52:7 53:21423.97 54:29011.624 55:22 56:6137.8228 57:15028.866 
0.080078125 19:331 20:516.31226 21:809.23189 25:10 26:13756.123 27:18601 28:30 29:2995.6931 30:6653.4975 34:1 43:69 44:2417.5944 45:8088.8773 46:244 47:647.53868 48:1781.7647 52:1 55:9 56:138.86768 57:73.79484 
0.080078125 1:32 2:2809.3041 3:10052.969 19:367 20:469.35676 21:1062.9355 25:13 26:12522.476 27:15346.157 28:47 29:2893.5295 30:6409.6819 34:1 37:2 38:1512.2664 39:0 43:73 44:2142.6482 45:4854.7901 46:305 47:519.97709 48:1436.5518 52:2 53:114302.76 54:0 64:7 65:3891.2147 66:8649.424 
0.080078125 1:6 2:11499.586 3:22728.892 19:302 20:568.97657 21:1250.3424 25:17 26:9011.9913 27:10054.911 28:41 29:3863.7746 30:9507.364 34:1 37:2 38:1512.2664 39:0 43:78 44:1997.457 45:3337.3866 46:253 47:674.4216 48:1928.5139 52:3 53:26974.617 54:25238.561 64:7 65:3891.2147 66:8649.424 
0.080078125 16:1 19:178 20:959.41404 21:1666.9645 25:11 26:13589.739 27:14461.783 28:23 29:7424.6194 30:11488.946 43:41 44:3397.4447 45:7976.6939 46:165 47:1015.187 48:2316.4911 52:6 53:23871.643 54:28438.328 
0.080078125 1:1 16:1 19:137 20:1218.6241 21:2575.6255 25:4 26:24185.165 27:20845.147 28:17 29:3462.9021 30:6131.2141 43:16 44:4837.033 45:11392.378 46:121 47:1065.6075 48:3112.0134 52:11 53:11885.453 54:6561.9507 
0.080078125 1:7 2:18329.758 3:28587.302 16:1 19:72 20:2414.8181 21:3708.3667 25:5 26:37891.813 27:26493.48 28:2 29:4.9318 30:0 43:19 44:8885.8024 45:18791.054 46:22 47:7245.3862 48:14153.231 52:26 53:6071.3464 54:6055.8254 
0.080078125 1:10 2:10879.828 3:12158.693 4:1 16:1 19:59 20:2840.7338 21:4536.2897 25:7 26:21742.361 27:17015.084 28:9 29:2856.3928 30:7427.6649 43:23 44:5929.7528 45:11590.564 46:32 47:4211.601 48:10376.84 52:35 53:4846.3231 54:4961.3668 
0.080078125 1:7 2:25270.169 3:17463.699 4:1 19:68 20:2566.2627 21:4781.9129 25:9 26:20321.986 27:15323.928 28:7 29:56.609627 30:107.47401 34:3 35:2982.2811 36:1146.6535 43:36 44:4645.0367 45:10887.443 46:39 47:3962.6351 48:10092.182 52:43 53:3704.7661 54:3314.2911 55:18 56:1903.4347 57:5035.1845 
0.080078125 1:3 2:20271.76 3:18424.453 19:52 20:2555.9825 21:3971.7873 25:9 26:16186.426 27:8504.0562 34:4 35:21517.031 36:26228.809 43:37 44:3596.9946 45:6774.7779 46:21 47:5274.1941 48:7948.876 52:35 53:4736.424 54:7207.6261 55:50 56:2425.2973 57:9812.8919 
0.080078125 19:22 20:7484.4966 21:7280.0908 25:6 26:29110.377 27:17000.253 34:1 43:21 44:7838.5287 45:10632.907 46:2 47:18306.911 48:0 52:8 53:10039.789 54:13720.357 55:32 56:2778.6427 57:11742.55 
0.080078125 19:26 20:6845.2075 21:10448.648 25:4 26:36217.397 27:20405.172 43:16 44:11176.965 45:14644.166 46:5 47:20166.789 48:27235.463 52:14 53:3151.7607 54:2884.4184 
0.080078125 1:10 2:1637.6262 3:4555.5331 19:151 20:1064.8174 21:4405.3458 22:12 23:112.51655 24:174.18516 25:10 26:13854.264 27:19722.246 28:15 29:3279.8994 30:6717.5466 34:6 35:8754.0125 36:6901.4898 43:74 44:1708.0653 45:4429.041 46:95 47:1688.9624 48:7020.74 52:23 53:6393.1833 54:11385.512 
0.080078125 1:11 2:5283.7484 3:11761.184 19:143 20:1132.7799 21:3680.9303 22:12 23:112.51655 24:174.18516 25:9 26:7587.3673 27:9171.8017 28:16 29:6998.8458 30:15353.988 34:6 35:8754.0125 36:6901.4898 43:72 44:1653.0302 45:5347.4217 46:94 47:1720.3962 48:5521.3522 52:18 53:7296.2525 54:7713.085 55:1 
0.080078125 1:18 2:6617.6569 3:18278.988 19:22 20:5893.7786 21:8899.2972 25:1 28:4 29:26428.229 30:37357.891 43:7 44:14657.352 45:21845.997 46:19 47:6223.3291 48:10466.807 52:20 53:8747.3744 54:9680.3838 55:2 56:78195.513 57:0 
0.080078125 1:18 2:7748.8089 3:22696.281 19:30 20:4956.1173 21:7055.1918 25:3 26:60189.541 27:32610.588 28:4 29:21313.828 30:30125.035 43:13 44:10031.623 45:18383.576 46:23 47:6451.393 48:12430.078 52:37 53:4544.9577 54:6089.2003 55:1 
0.080078125 1:8 2:10266.937 3:12773.849 19:57 20:3027.3724 21:4680.5312 25:6 26:28063.674 27:13644.948 28:5 29:33096.646 30:40381.451 43:27 44:6307.8792 45:12330.921 46:42 47:3993.2947 48:9303.0997 52:45 53:3711.4718 54:3554.4972 55:11 56:2971.9253 57:6485.7239 
0.080078125 19:40 20:4170.8276 21:8841.4492 25:8 26:17422.202 27:22973.579 28:5 29:31838.896 30:32671.781 43:28 44:5242.4565 45:14216.045 46:35 47:4783.6517 48:9286.015 52:28 53:4669.0542 54:9123.3062 55:12 56:2111.3515 57:3077.2955 
0.080078125 19:115 20:1513.5757 21:4832.3315 25:4 26:33455.431 27:8699.6222 28:11 29:12724.813 30:16320.168 31:1 37:1 43:27 44:4436.9826 45:10109.881 46:70 47:2458.727 48:6389.3104 52:13 53:9917.8998 54:17445.228 55:12 56:2111.3515 57:3077.2955 
0.080078125 19:52 20:3285.8238 21:5789.625 25:6 26:25841.497 27:22429.529 28:1 43:35 44:4746.129 45:12922.828 46:29 47:5483.03 48:10820.224 52:15 53:6230.049 54:15044.739 55:76 56:2066.237 57:7307.456 61:1 
0.080078125 19:16 20:5493.9065 21:8311.4202 25:2 26:45780.656 27:0 43:9 44:10021.829 45:15619.939 46:13 47:5380.8773 48:11835.971 52:14 53:2209.0731 54:4171.3077 55:63 56:1320.385 57:3513.501 
0.080078125 19:5 20:125.00686 21:70.636342 43:4 44:166.67155 45:90.619896 46:1 52:2 53:2859.8482 54:0 
0.080078125 1:3 2:34827.739 3:6569.6099 19:333 20:441.81376 21:1405.6448 25:52 26:2874.6294 27:5669.7622 28:78 29:1904.4193 30:7561.333 31:2 32:92.044286 33:0 43:275 44:535.07904 45:1720.1584 46:209 47:705.05899 48:3751.3924 52:5 53:19375.332 54:19022.126 
0.080078125 1:10 2:9043.3612 3:19854.43 7:1 19:160 20:1016.5974 21:2446.883 25:16 26:9380.8073 27:16579.42 28:18 29:8315.269 30:12141.657 34:6 35:19731.955 36:30954.156 37:1 40:2 41:2265.879 42:0 43:111 44:1456.6602 45:4889.7207 46:101 47:1469.8533 48:4822.9021 49:1 52:27 53:5824.1061 54:11666.511 55:4 56:4087.6596 57:3296.1187 
0.080078125 1:6 2:1125.668 3:1102.9717 7:1 19:82 20:2056.4294 21:3888.5273 25:4 26:31932.521 27:22928.408 28:12 29:10282.766 30:15391.002 34:2 35:14591.998 36:0 37:5 38:12003.25 39:20227.544 40:8 41:6989.3164 42:15544.973 43:15 44:6877.9684 45:14093.173 46:84 47:1812.7608 48:5065.7037 49:1 52:22 53:5962.7487 54:11137.901 55:10 56:2953.0224 57:3878.0182 
0.080078125 19:46 20:3678.539 21:5144.9856 25:5 26:27882.96 27:18186.061 28:8 29:18016.988 30:26967.969 37:4 38:324.91466 39:62.817614 40:6 41:325.79615 42:125.95453 43:15 44:7966.5962 45:15905.987 46:53 47:3276.9924 48:6700.3457 52:5 53:29014.451 54:18323.8 55:6 56:609.88036 57:686.76795 
0.080078125 1:1 19:52 20:3267.829 21:4499.1273 25:5 26:41484.27 27:11968.536 28:10 29:15510.275 30:25232.025 37:1 43:15 44:11852.677 45:19802.286 46:55 47:3093.522 48:6710.0974 52:9 53:19091.483 54:13925.706 
0.080078125 1:5 2:619.52699 3:750.73041 19:101 20:1560.6368 21:2736.7241 25:7 26:21101.745 27:14728.387 28:20 29:6117.9009 30:9695.3267 37:1 43:35 44:3817.1728 45:9195.2607 46:94 47:1472.1446 48:4641.089 52:22 53:6722.668 54:9282.2467 55:13 56:1016.9736 57:1255.9359 
0.080078125 1:4 2:191.57739 3:137.47037 19:107 20:1253.2008 21:2244.275 25:9 26:13699.557 27:16476.591 28:19 29:6458.0785 30:14803.942 43:42 44:3077.2075 45:8188.6758 46:85 47:1383.895 48:4540.153 52:22 53:7670.6272 54:11953.362 55:13 56:1016.9736 57:1255.9359 
0.080078125 19:79 20:2151.7897 21:4665.1761 25:8 26:17127.558 27:16269.621 28:5 29:13647.128 30:19280.378 37:3 38:27551.285 39:26417.25 43:27 44:4611.2809 45:10986.935 46:30 47:4629.0767 48:9614.196 52:11 53:12995.095 54:11459.567 
0.080078125 19:129 20:1232.152 21:1515.2777 22:46 23:969.15828 24:1787.4061 25:12 26:10508 27:13013.187 28:8 29:14483.025 30:14004.468 31:2 32:43.422818 33:0 43:48 44:2459.3276 45:6045.4326 46:61 47:2293.152 48:5619.6706 52:2 53:65360.821 54:0 55:15 56:2889.279 57:6336.4106 
0.080078125 19:111 20:1552.0355 21:2094.5758 22:60 23:1312.3968 24:3146.8575 25:7 26:23083.273 27:18188.283 28:5 29:19775.434 30:11749.849 31:2 32:43.422818 33:0 43:20 44:7289.4756 45:13006.88 46:34 47:3236.2465 48:6449.3265 52:4 53:51155.53 54:57188.058 55:15 56:2889.279 57:6336.4106 61:1 
0.080078125 4:11 5:1599.0529 6:1887.2073 19:65 20:2306.286 21:5297.8551 22:14 23:1592.8074 24:4762.9981 25:7 26:21570.512 27:15440.461 28:1 43:20 44:6811.7614 45:13259.389 46:7 47:22710.189 48:46368.713 52:17 53:6097.4457 54:8340.4539 61:1 
0.080078125 4:11 5:1599.0529 6:1887.2073 19:16 20:11014.571 21:13271.787 25:5 26:37551.663 27:6796.7829 43:17 44:9387.9406 45:16611.343 46:9 47:6559.8352 48:9909.0282 52:20 53:8019.7213 54:10643.647 
0.080078125 19:24 20:7065.2097 21:10425.774 25:5 26:24640.954 27:7862.0047 28:2 29:6723.2012 30:0 37:3 38:33667.687 39:9602.9467 43:17 44:6160.2635 45:11334.125 46:19 47:7071.0021 48:16913.744 52:25 53:6504.7623 54:9000.9176 
0.080078125 4:1 19:25 20:7112.0026 21:10846.074 22:7 23:702.61784 24:860.43244 25:6 26:18315.058 27:18099.194 28:9 29:7360.6889 30:14802.091 37:3 38:33667.687 39:9602.9467 43:23 44:7672.9129 45:18804.299 46:41 47:3790.0246 48:12754.254 52:30 53:5096.0366 54:8420.0582 
0.080078125 4:1 19:76 20:1968.3128 21:5350.7983 22:16 23:724.30479 24:820.9669 25:5 26:31723.492 27:33846.146 28:16 29:6300.9744 30:18552.909 31:1 43:23 44:5769.0951 45:17032.525 46:89 47:1738.5147 48:8032.3782 52:37 53:4689.8821 54:7048.3411 
0.080078125 19:108 20:1486.6163 21:3015.8223 22:19 23:8928.7614 24:25188.366 25:4 26:49209.213 27:7795.8685 28:17 29:9930.0414 30:20078.999 31:1 37:2 38:282.56418 39:0 43:23 44:7185.3463 45:13952.97 46:108 47:1484.8699 48:4884.388 52:31 53:4657.9328 54:5000.0584 
0.080078125 19:78 20:2238.1663 21:4905.4806 22:10 23:6413.1528 24:17392.649 25:4 26:42260.932 27:26621.309 28:16 29:10330.632 30:12850.504 37:2 38:282.56418 39:0 43:21 44:8187.9862 45:15580.304 46:83 47:2101.6927 48:5614.8863 52:11 53:14445.373 54:15467.534 61:1 
0.080078125 1:1 4:1 19:43 20:3090.1613 21:6750.5646 22:1 25:6 26:17711.255 27:21094.846 28:13 29:11290.123 30:13147.287 37:1 43:19 44:5202.0109 45:9537.6728 46:57 47:2710.2819 48:7230.6805 52:10 53:13855.719 54:14820.282 55:2 56:8544.564 57:0 61:1 
0.080078125 1:2 2:96609.992 3:0 4:1 19:106 20:1619.2356 21:5058.4488 22:1 25:24 26:6733.8177 27:13546.413 28:15 29:11506.122 30:14709.402 34:1 37:1 43:75 44:2097.6588 45:6217.0326 46:99 47:1685.9582 48:4620.1094 52:5 53:26666.343 54:25011.953 55:16 56:3503.404 57:6229.0551 
0.080078125 1:1 19:146 20:1136.9205 21:3031.7513 25:24 26:5717.8428 27:12148.965 28:13 29:13666.608 30:23794.052 34:1 43:85 44:1988.1898 45:5700.5722 46:100 47:1656.763 48:6750.1356 52:19 53:7655.1303 54:12597.545 55:14 56:2757.2671 57:6370.989 
0.080078125 19:63 20:2759.8297 21:5591.3311 25:6 26:27463.998 27:18758.421 28:4 29:40696.295 30:32624.5 43:31 44:5113.6217 45:10615.121 46:31 47:4764.1775 48:13801.249 52:19 53:4623.5602 54:4900.2703 55:1 
0.080078125 19:45 20:3465.8239 21:4812.2573 25:5 26:37997.897 27:9329.9782 28:2 29:75056.372 30:0 43:19 44:8443.9992 45:14483.047 46:11 47:7505.6769 48:16222.674 52:2 53:129478.66 54:0 55:1 
0.080078125 19:44 20:3792.0492 21:5482.1476 25:6 26:32621.265 27:9262.2321 28:1 34:1 43:20 44:8584.5643 45:15023.025 46:6 47:28279.61 48:56556.828 52:2 53:90957.236 54:0 
0.080078125 19:26 20:6830.5523 21:6379.4212 25:4 26:32167.89 27:7659.1422 34:1 43:14 44:7423.3898 45:13874.79 46:3 47:21302.483 48:21298.117 52:1 
0.080078125 19:53 20:3195.4174 21:4000.6259 25:3 26:44497.223 27:2331.2601 28:1 40:1 43:10 44:9888.316 45:16749.227 46:7 47:20762.153 48:29390.537 52:19 53:2897.5078 54:6189.8505 
0.080078125 19:58 20:3007.8845 21:5475.0055 25:3 26:65866.283 27:23700.319 28:4 29:24398.623 30:30070.225 40:1 43:11 44:13173.296 45:27378.04 46:20 47:6985.4386 48:17877.328 52:26 53:5238.9487 54:9531.9657 
0.080078125 1:1 4:2 5:13.135855 6:0 19:30 20:5795.9043 21:9038.2317 25:2 26:120860.63 27:0 28:3 29:3160.5317 30:1777.1017 43:9 44:15371.917 45:26162.844 46:18 47:9763.7754 48:19741.331 52:23 53:7612.8321 54:10750.806 
0.080078125 1:1 4:2 5:13.135855 6:0 19:50 20:3461.034 21:5519.1959 25:2 26:57717.975 27:0 43:6 44:24709.767 45:29593.595 46:16 47:8087.7469 48:14132.026 52:20 53:6497.6614 54:9501.2895 
0.080078125 16:1 19:70 20:2292.9583 21:2404.2923 25:4 26:28199.606 27:12699.986 43:11 44:8459.8817 45:12336.907 46:17 47:6070.0152 48:9040.2724 52:44 53:3740.5498 54:10440.673 
0.080078125 4:1 16:1 19:64 20:2665.3221 21:2959.121 25:3 26:24072.945 27:13814.719 28:2 29:12.948398 30:0 37:1 43:15 44:11106.516 45:22125.448 46:27 47:6163.2878 48:10848.78 52:222 53:619.55984 54:1938.3452 64:7 65:6.5606365 66:9.0528464 
0.080078125 4:1 19:76 20:2209.8171 21:2751.385 25:4 26:14565.931 27:11823.055 28:5 29:32105.825 30:29108.894 37:2 38:78208.068 39:0 43:28 44:4013.3823 45:7046.1247 46:51 47:3079.5458 48:4961.5921 52:185 53:892.879 54:4896.7439 64:7 65:6.5606365 66:9.0528464 
0.080078125 19:90 20:1927.0843 21:2688.7061 25:7 26:17997.311 27:14911.483 28:5 29:19847.324 30:22208.767 37:3 38:60295.863 39:58445.165 43:31 44:4483.5466 45:9717.0009 46:35 47:4660.323 48:12364.32 52:19 53:7809.0368 54:14283.855 
0.080078125 19:57 20:1977.4673 21:2702.2465 25:4 26:29794.713 27:19965.784 28:2 29:17.23919 30:0 37:2 38:1850.6972 39:0 43:12 44:9189.2459 45:16697.742 46:9 47:12636.033 48:23493.845 52:25 53:4443.1802 54:6651.3932 
0.080078125 19:19 20:9590.7333 21:24094.983 25:3 26:72952.201 27:52075.243 37:2 38:990.91242 39:0 43:10 44:16211.644 45:35041.184 46:4 47:54508.059 48:68959.098 52:31 53:4918.1298 54:13670.48 
0.080078125 19:50 20:2506.1358 21:3394.1324 25:5 26:30931.458 27:17909.808 37:2 38:990.91242 39:0 43:15 44:8837.5873 45:16937.942 46:20 47:4387.2606 48:5309.2268 52:44 53:3510.6764 54:6598.0359 
0.080078125 19:88 20:1976.356 21:2494.2251 25:6 26:26468.196 27:27669.599 28:9 29:1968.7449 30:3023.7539 37:2 38:198.12597 39:0 43:20 44:6965.3355 45:14348.631 46:61 47:2855.3679 48:7764.0092 52:53 53:2836.0769 54:5288.6658 61:1 
0.080078125 19:63 20:2650.3088 21:4063.6737 25:5 26:33943.062 27:26241.177 28:11 29:12519.157 30:25127.385 37:8 38:21550.641 39:33327.569 43:19 44:7542.9247 45:14600.423 46:53 47:3081.8179 48:9451.7061 52:62 53:2386.9066 54:5262.5249 61:1 
0.080078125 19:40 20:4407.6285 21:4637.009 25:5 26:30128.977 27:14880.322 28:10 29:9880.8727 30:20629.995 37:8 38:14198.963 39:12116.214 43:19 44:6701.1403 45:14055.154 46:34 47:3349.1421 48:8745.4562 52:45 53:3823.2455 54:7877.8807 
0.080078125 19:68 20:2546.7609 21:3828.5618 25:8 26:22448.245 27:18199.547 28:10 29:16256.982 30:45786.779 37:3 38:75495.915 39:63078.475 43:37 44:4404.2681 45:11725.629 46:35 47:4303.3311 48:22433.567 52:39 53:4208.2778 54:8473.8516 
0.080078125 19:93 20:1793.3779 21:3473.6162 25:10 26:17815.837 27:16280.272 28:8 29:8035.9674 30:13525.845 37:5 38:15668.313 39:19050.093 43:48 44:3413.5225 45:9906.3417 46:45 47:1906.5656 48:5120.7253 52:51 53:3044.7077 54:6202.5485 
0.080078125 19:60 20:2893.2845 21:4817.8665 25:6 26:26293.1 27:19644.381 28:7 29:15544.271 30:19193.236 37:4 38:5285.6703 39:7257.9366 43:26 44:5438.3841 45:13626.286 46:38 47:3684.0218 48:8565.5635 52:47 53:3305.4299 54:5125.8715 
0.080078125 1:2 2:46878.807 3:0 19:45 20:3892.5233 21:5135.91 25:4 26:31772.882 27:22471.57 28:4 29:50456.694 30:31138.097 37:2 38:12810.999 39:0 43:12 44:9901.9107 45:18195.595 46:19 47:8409.471 48:16736.911 52:39 53:4035.3191 54:5526.5562 55:4 56:330.64153 57:123.42235 
0.080078125 1:2 2:46878.807 3:0 19:70 20:2345.3817 21:2811.828 25:6 26:27495.72 27:22401.607 28:8 29:21489.581 30:31924.877 37:3 38:35909.37 39:23098.371 40:1 43:16 44:9165.2664 45:16706.109 46:36 47:4297.9728 48:14667.36 52:26 53:6374.9219 54:7250.3058 55:4 56:330.64153 57:123.42235 61:1 
0.080078125 19:55 20:2825.4787 21:3863.7874 25:5 26:34204.913 27:19632.537 28:5 29:15.23749 30:8.6633279 37:1 40:1 43:15 44:9772.8607 45:18678.484 46:22 47:665.99113 48:2131.4288 52:21 53:8416.0952 54:9942.4525 61:1 
0.080078125 4:1 19:67 20:2410.0499 21:5354.5602 25:5 26:37543.695 27:14725.443 28:1 43:20 44:7903.9566 45:14572.992 46:13 47:1494.3467 48:4793.0608 52:66 53:2451.1282 54:4924.6563 
0.080078125 4:1 19:69 20:2261.199 21:3518.5456 25:4 26:34943.811 27:16217.51 28:1 43:17 44:6551.9893 45:11210.834 46:13 47:1494.3467 48:4793.0608 52:90 53:1931.6837 54:2883.7812 
0.080078125 1:2 2:22102.864 3:0 19:65 20:1983.5314 21:3133.8424 25:7 26:14686.181 27:14492.965 28:5 29:437.15803 30:334.66156 43:20 44:6922.2471 45:13209.753 46:44 47:690.55457 48:1516.5051 52:87 53:1858.5991 54:2656.7479 
0.080078125 1:2 2:22102.864 3:0 19:67 20:2579.0251 21:5627.8582 25:8 26:19489.991 27:17822.946 28:5 29:437.15803 30:334.66156 43:22 44:6496.6826 45:13423.028 46:44 47:690.55457 48:1516.5051 52:88 53:1671.1982 54:2207.9412 
0.080078125 1:3 2:13.071763 3:5.1648005 19:52 20:3324.8391 21:3989.9999 25:4 26:43580.013 27:6250.5541 28:5 29:4841.1787 30:4922.309 37:5 38:16350.063 39:17605.529 43:12 44:11885.494 45:19681.192 46:17 47:1210.3195 48:3232.7533 52:42 53:3687.5802 54:9498.7286 
0.080078125 1:4 2:28004.595 3:39585.992 19:49 20:3469.4653 21:4276.7368 25:4 26:42302.866 27:4953.2325 28:6 29:26972.642 30:44481.345 37:6 38:26965.136 39:26432.61 43:12 44:11537.181 45:19016.568 46:21 47:6744.2408 48:25120.475 52:16 53:10151.006 54:13693.968 
0.080078125 1:3 2:45111.863 3:45109.255 19:72 20:2407.1422 21:4255.5194 25:4 26:46226.269 27:2685.5422 28:5 29:29178.54 30:24511.634 37:1 43:22 44:6603.7716 45:14826.742 46:26 47:4668.5822 48:10260.081 52:22 53:5925.5318 54:8075.7098 
0.080078125 1:3 2:63254.586 3:63251.979 19:99 20:1686.1397 21:2613.102 25:4 26:45439.444 27:191.87407 28:6 29:21834.335 30:23100.763 43:22 44:6869.5943 45:15479.397 46:46 47:3471.5613 48:6236.629 52:22 53:8004.8571 54:9669.4942 55:1 
0.080078125 19:107 20:1592.5161 21:2204.0653 25:4 26:28578.622 27:14194.577 28:6 29:30560.991 30:48598.255 43:17 44:9776.6148 45:14383.422 46:54 47:3121.4608 48:7865.4118 52:13 53:14034.062 54:11418.595 
0.080078125 1:1 7:1 19:49 20:3258.2551 21:5468.9484 25:4 26:48657.122 27:6088.2177 28:2 29:14829.027 30:0 37:2 38:61.201282 39:0 43:15 44:10426.562 45:17960.214 46:20 47:7083.2694 48:13966.313 52:9 53:9934.5007 54:7691.3785 
0.080078125 1:2 2:70925.096 3:0 7:1 19:28 20:5918.2723 21:9006.4488 25:3 26:73744.733 27:17568.979 28:4 29:16595.601 30:13648.497 37:4 38:17442.14 39:16290.589 43:12 44:13408.169 45:21074.521 46:22 47:7229.2733 48:16138.494 52:3 53:24120.527 54:3165.5729 
0.080078125 1:2 2:65708.005 3:0 19:53 20:3136.0857 21:5467.1146 25:3 26:48380.369 27:2897.7051 28:4 29:16595.601 30:13648.497 37:2 38:39228.493 39:0 40:3 41:3476.1146 42:3341.5987 43:13 44:11833.999 45:17814.221 46:19 47:5448.7665 48:12731.53 52:5 53:28127.015 54:5818.5428 
0.080078125 1:1 16:1 19:75 20:2221.7687 21:3432.954 25:3 26:40003.694 27:11274.38 28:1 40:4 41:12378.062 42:12881.519 43:10 44:14855.68 45:18548.836 46:11 47:13220.964 48:17350.748 52:8 53:19088.132 54:12688.787 
0.080078125 16:2 17:47044.067 18:0 19:63 20:2762.0251 21:3918.6264 25:3 26:61389.522 27:4165.4484 28:8 29:17019.774 30:18955.531 37:2 38:8885.4831 39:0 40:2 41:69715.83 42:0 43:13 44:10572.586 45:18959.739 46:47 47:3590.6903 48:8134.0804 52:15 53:11192.364 54:14732.609 
0.080078125 1:2 2:56.216359 3:0 16:1 19:47 20:3635.7957 21:5087.9492 25:4 26:33541.421 27:16861.991 28:8 29:22136.858 30:26648.196 37:2 38:8885.4831 39:0 40:1 43:18 44:8732.792 45:16080.116 46:46 47:3481.3608 48:11261.829 52:19 53:9081.6902 54:16384.207 
0.080078125 1:3 2:50553.4 3:50497.184 19:29 20:5772.0594 21:6237.6089 25:3 26:56804.27 27:37520.593 28:3 29:45290.852 30:24807.537 37:1 43:11 44:16157.671 45:21240.294 46:15 47:11533.415 48:23891.182 52:28 53:4022.5442 54:7414.7611 
0.080078125 1:1 4:1 19:25 20:7139.8377 21:8240.1437 25:2 26:144787.33 27:0 28:7 29:24275 30:22284.513 37:3 38:23631.616 39:5563.5169 43:7 44:24131.288 45:36925.472 46:27 47:5602.7996 48:14409.093 52:33 53:4904.09 54:8195.1047 
0.080078125 4:1 19:16 20:9898.1302 21:12271.409 25:1 28:9 29:18966.585 30:22212.878 37:4 38:50413.552 39:22932.7 43:3 44:0.1979925 45:4.45e-05 46:32 47:5176.5059 48:10942.266 52:35 53:4727.0963 54:6428.9696 
0.080078125 19:11 20:16617.603 21:14887.523 22:11 23:1210.2149 24:1735.9999 25:4 26:49538.107 27:3316.8301 28:7 29:25746.256 30:33202.437 37:2 38:67360.763 39:0 43:11 44:14861.472 45:22773.504 46:28 47:5721.5017 48:11927.157 52:46 53:3159.3993 54:6020.701 55:62 56:2092.493 57:5284.5629 
0.080078125 19:37 20:4704.8857 21:8062.8849 25:3 26:74551.473 27:20415.93 28:5 29:20075.533 30:11259.505 37:1 43:33 44:4659.4795 45:11923.734 46:30 47:5066.4502 48:9941.9532 52:51 53:2979.8167 54:3994.7025 55:60 56:1236.8062 57:2350.7399 
0.080078125 19:44 20:3955.1669 21:8125.4035 25:4 26:31817.485 27:11837.419 28:5 29:37966.778 30:31192.061 43:39 44:4470.7752 45:10990.013 46:33 47:4745.8603 48:12869.541 52:14 53:11884.165 54:16397.521 
0.080078125 19:35 20:4697.8247 21:9173.2654 25:4 26:41998.212 27:15880.514 28:9 29:18944.444 30:19845.446 43:16 44:8400.1717 45:17925.292 46:53 47:2932.8895 48:9784.9508 52:18 53:8807.6415 54:13974.788 
0.080078125 19:31 20:4455.8747 21:7340.3351 25:4 26:31729.613 27:2928.7976 28:7 29:19100.169 30:21889.155 43:12 44:8791.0028 45:14136.187 46:47 47:2491.3588 48:6452.7571 49:47 50:1.3919465 51:2.7609755 52:20 53:6304.2777 54:9374.3838 
0.080078125 19:16 20:8089.0714 21:9836.8209 25:5 26:36632.482 27:15378.361 28:3 29:37196.061 30:37069.107 43:15 44:11950.13 45:18411.548 46:22 47:5777.9081 48:16188.029 49:47 50:1.3919465 51:2.7609755 52:7 53:22423.082 54:37854.846 55:29 56:2462.1351 57:3894.6758 
0.080078125 19:13 20:11220.687 21:11805.776 25:4 26:39804.214 27:11190.407 28:1 43:13 44:9951.0864 45:15296.586 46:10 47:14123.295 48:28533.089 52:31 53:3709.7724 54:4596.3742 55:29 56:2462.1351 57:3894.6758 
0.080078125 19:8 20:20437.132 21:16938.345 25:3 26:48253.019 27:858.29116 43:9 44:12063.304 45:20898.319 46:4 47:29366.457 48:29846.779 52:43 53:3831.4698 54:5280.1288 
0.080078125 4:2 5:6.075404 6:0 16:1 19:18 20:8225.4569 21:14796.057 22:11 23:2725.9572 24:8066.0516 25:2 26:112693.51 27:0 28:5 29:13258.835 30:17933.66 43:15 44:8049.565 45:16462.49 46:24 47:4081.9048 48:9280.1683 52:20 53:6533.67 54:8769.7197 55:12 56:91.837332 57:86.087833 
0.080078125 1:2 2:2.795925 3:0 16:1 19:24 20:6444.131 21:11415.946 25:5 26:36099.638 27:9237.8209 28:2 29:64.375605 30:0 43:17 44:10389.518 45:15981.828 46:9 47:17568.579 48:44144.055 52:16 53:9642.5783 54:15927.582 
