svm_type c_svc
kernel_type rbf
gamma 0.0123457
nr_class 2
total_sv 11618
rho -0.91958
label 0 1
nr_sv 10744 874
SV
0.080078125 1:11 2:7850.549 3:9407.8437 16:1 19:2168 20:36.169932 21:582.04935 25:2 26:54422.702 27:0 28:3 29:16168.214 30:9669.4004 43:6 44:10884.62 45:21768.843 46:15 47:5384.4292 48:8686.9938 52:4910 53:17.180931 54:179.37048 
0.080078125 19:336 20:39.068114 21:518.6425 46:2 47:0.084161 48:0 52:2 53:240.98037 54:0 
0.080078125 19:524 20:164.98607 21:743.70815 25:5 26:13321.84 27:15517.512 28:3 29:10761.424 30:2622.5688 37:1 43:35 44:1712.2319 45:5094.1402 46:43 47:2046.9487 48:4816.4124 52:370 53:231.54686 54:739.64644 61:1 
0.080078125 1:6 2:8193.5666 3:16356.358 16:1 19:1846 20:42.853052 21:295.69647 25:21 26:3707.7586 27:8456.6716 28:27 29:2999.7672 30:6683.9498 43:108 44:738.28123 45:3527.0545 46:150 47:540.64165 48:2422.8947 52:298 53:288.34149 54:1027.4211 61:1 
0.080078125 19:1669 20:46.360482 21:532.86626 25:2 26:24453.014 27:0 43:8 44:3493.3443 45:8556.4376 46:5 47:5028.8296 48:7522.3188 52:384 53:219.04329 54:677.61244 
0.080078125 19:2154 20:39.998045 21:224.20941 25:2 26:38161.827 27:0 43:8 44:5451.7462 45:9801.5647 46:31 47:2570.9517 48:2984.0096 52:507 53:166.32895 54:442.53424 
0.080078125 1:1 19:2941 20:29.317298 21:308.49104 25:3 26:26723.162 27:797.22306 28:2 29:18750.865 30:0 43:11 44:5344.6721 45:10691.305 46:14 47:6237.2913 48:10203.481 52:445 53:190.01483 54:485.16453 
0.080078125 1:3 2:21233.054 3:19248.462 16:12 17:5783.8184 18:5713.5541 19:1539 20:55.121618 21:504.62951 28:2 29:48.507894 30:0 37:1 43:1 46:13 47:3944.803 48:6711.869 52:367 53:229.15929 54:700.458 
0.080078125 1:1 16:33 17:2464.6124 18:5357.3982 19:2188 20:37.347605 21:181.5757 25:5 26:12536.851 27:21649.511 28:4 29:7965.72 30:8670.4334 43:16 44:3343.1866 45:7259.3911 46:20 47:2711.6732 48:6276.2411 52:618 53:136.49437 54:446.86714 
0.080078125 1:1 4:1 16:11 17:3341.0815 18:3172.5421 19:2281 20:36.987505 21:182.46367 28:13 29:6636.735 30:10579.158 43:5 44:19625.518 45:14830.6 46:58 47:1398.669 48:3725.7644 52:1389 53:62.065764 54:215.60456 
0.080078125 19:1576 20:54.133323 21:525.45824 25:2 26:41467.293 27:0 28:2 29:13.099073 30:0 34:1 43:10 44:8316.5643 45:14723.307 46:15 47:5323.2154 48:7727.7122 52:322 53:200.66558 54:1657.5432 61:1 
0.080078125 19:1174 20:73.104792 21:389.27309 25:2 26:45661.203 27:0 43:14 44:5491.998 45:7610.3601 46:7 47:8936.7858 48:12672.948 52:28 53:1786.3031 54:3891.5587 
0.080078125 19:2285 20:36.780976 21:635.49008 25:1 28:2 29:38167.816 30:0 37:2 38:796.07661 39:0 43:12 44:3865.7807 45:3974.1761 46:12 47:3614.6778 48:8506.5838 52:4 53:5208.0994 54:3744.6641 
0.080078125 1:1 19:3883 20:21.740326 21:196.12467 25:4 26:14369.286 27:4243.6525 28:3 29:13441.279 30:11884.064 31:1 43:39 44:1965.174 45:3299.9656 46:28 47:2675.6852 48:4346.4319 52:2 53:14365.8 54:0 
0.080078125 1:1 19:2413 20:35.09078 21:255.79433 25:2 26:51689.932 27:0 28:1 43:12 44:6126.6266 45:6518.2126 46:20 47:3801.7623 48:4388.74 52:1 
0.080078125 19:2647 20:32.334051 21:262.36674 25:2 26:34341.356 27:0 28:3 29:42.595682 30:35.054926 40:1 43:14 44:5991.8043 45:7497.5801 46:17 47:3568.7555 48:7398.5381 52:2 53:38069.292 54:0 
0.080078125 19:1921 20:43.618111 21:470.01724 25:2 26:43795.151 27:0 28:1 43:18 44:3387.0844 45:6938.635 46:15 47:5072.272 48:5932.6537 52:4 53:15079.821 54:2790.1431 
0.080078125 4:1 19:2164 20:36.8854 21:532.89938 28:5 29:18684.824 30:23454.297 43:14 44:3965.7905 45:12575.223 46:28 47:2768.1374 48:9016.0306 52:3 53:21207.173 54:16670.281 
0.080078125 19:2211 20:37.802446 21:293.57013 25:1 43:4 44:8437.2936 45:11931.855 46:4 47:6716.7066 48:2725.488 
0.080078125 1:1 19:1956 20:42.554538 21:477.95135 25:1 43:7 44:12721.827 45:17024.963 46:7 47:10195.739 48:12304.657 52:2 53:3781.8695 54:0 
0.080078125 19:2031 20:39.594544 21:339.45727 25:3 26:32960.472 27:13295.868 28:3 29:34463.845 30:34414.739 37:1 43:31 44:2562.5019 45:6489.5503 46:11 47:6892.8103 48:20642.157 52:15 53:5688.7789 54:13106.944 
0.080078125 1:1 19:1688 20:27.488298 21:186.68291 25:1 28:4 29:1071.987 30:808.29534 43:4 44:4868.3706 45:6884.6354 46:52 47:841.39161 48:1159.6569 52:1 
0.080078125 19:1968 20:43.661864 21:214.30814 25:2 26:46628.318 27:0 28:1 37:2 38:173.05093 39:0 43:10 44:8622.9857 45:11562.913 46:14 47:6319.8943 48:11827.201 52:265 53:278.81307 54:1414.7811 
0.080078125 1:2 2:13205.264 3:0 4:1 19:2294 20:37.540365 21:232.18866 25:4 26:12.978461 27:14.862562 28:6 29:6489.3471 30:8070.2171 37:7 38:7069.8929 39:11061.055 43:17 44:1868.6435 45:3906.5395 46:38 47:2012.4346 48:3386.1751 52:625 53:136.05428 54:354.62979 
0.080078125 1:1 19:1107 20:68.367401 21:303.13714 25:3 26:34267.5 27:9876.69 43:22 44:3547.9171 45:4950.622 46:3 47:15560.636 48:15560.552 52:340 53:219.57313 54:625.96373 
0.080078125 1:3 2:29832.402 3:23935.026 19:3079 20:26.7597 21:407.65363 25:1 28:1 43:22 44:1870.258 45:5045.1092 46:11 47:7793.8413 48:10783.574 52:297 53:271.40856 54:749.16645 
0.080078125 1:16 2:3437.7218 3:8722.9592 19:2026 20:41.859867 21:342.00924 25:3 26:34138.955 27:14129.028 28:22 29:2839.0481 30:9172.2523 43:29 44:2651.715 45:7160.9993 46:83 47:841.54489 48:4669.8117 52:409 53:209.84609 54:609.22837 
0.080078125 19:3500 20:24.022299 21:212.7048 25:1 28:2 29:2112.0866 30:0 43:16 44:5601.3254 45:10327.401 46:16 47:4737.5971 48:7281.1372 52:507 53:166.19698 54:486.25279 
0.080078125 1:1 19:2633 20:32.803109 21:218.92482 25:4 26:26646.15 27:16600.212 28:4 29:286.92263 30:400.81648 37:22 38:187.23885 39:145.16327 43:41 44:2090.7032 45:6847.0386 46:15 47:5657.4934 48:7658.2318 52:451 53:190.24899 54:525.98749 
0.080078125 19:2520 20:34.029995 21:353.37898 25:2 26:43635.965 27:0 28:1 37:1 43:24 44:2301 45:4691.4289 46:5 47:1.5797227 48:2.4978777 52:443 53:188.33993 54:474.33906 
0.080078125 19:1562 20:52.330215 21:422.01616 25:1 28:2 29:7047.6137 30:0 43:9 44:8263.1252 45:16240.819 46:30 47:2769.8264 48:3923.0516 52:366 53:236.0473 54:761.72812 
0.080078125 1:2 2:6382.6353 3:0 16:1 19:2471 20:31.160832 21:312.05858 25:2 26:50103.726 27:0 28:3 29:9906.8125 30:9899.5659 37:1 43:19 44:3490.4982 45:5379.1675 46:14 47:5325.1066 48:10748.191 52:528 53:162.48815 54:489.39025 
0.080078125 19:3638 20:23.623061 21:153.5395 25:4 26:17900.849 27:7285.4294 28:4 29:18659.625 30:25694.964 43:230 44:373.00498 45:730.04577 46:27 47:2211.6723 48:5948.5104 52:4 53:18062.693 54:15705.619 
0.080078125 1:3 2:383.69286 3:112.25015 19:2354 20:36.427588 21:139.3453 25:5 26:8596.514 27:5396.1183 28:7 29:14.162492 30:6.9762584 43:222 44:378.52196 45:730.29551 46:20 47:1855.7316 48:5472.5502 52:243 53:274.84139 54:848.06026 
0.080078125 19:2236 20:38.444353 21:156.8634 25:8 26:5143.9218 27:3626.5582 28:3 29:26678.06 30:6575.239 40:1 43:238 44:359.86623 45:673.71661 46:22 47:2944.3987 48:3682.8436 52:327 53:264.25873 54:775.10808 
0.080078125 1:2 2:22.455864 3:0 16:1 19:2984 20:28.821676 21:187.23099 25:9 26:5077.7405 27:5255.0788 28:4 29:8219.4 30:7118.8696 37:1 43:217 44:397.94867 45:741.78927 46:22 47:2766.6684 48:4464.3502 52:593 53:145.16692 54:580.82188 
0.080078125 19:2190 20:38.524829 21:229.13633 25:6 26:5948.1949 27:6123.9844 43:224 44:378.16526 45:772.7223 46:7 47:4633.0152 48:5730.9293 52:352 53:238.33908 54:661.86231 
0.080078125 19:2168 20:38.180527 21:162.01401 25:12 26:5219.6976 27:4147.7776 28:1 43:215 44:386.41837 45:742.56137 46:32 47:2074.641 48:2265.823 52:435 53:190.567 54:435.96186 
0.080078125 1:1 19:24664 20:3.4594877 21:76.50445 25:9 26:9542.9699 27:9516.8646 43:204 44:399.3034 45:973.76201 46:6 47:7693.5966 48:8803.7354 52:369 53:219.51044 54:637.06487 
0.080078125 1:2 2:317.66558 3:0 16:1 19:2585 20:32.607722 21:202.13129 22:13 23:4894.4732 24:14134.976 25:8 26:9565.6979 27:15005.799 28:3 29:31713.905 30:19959.826 43:211 44:397.93264 45:880.90626 46:25 47:2655.1586 48:6671.5653 52:340 53:249.2662 54:779.44891 
0.080078125 16:1 19:1464 20:56.585316 21:202.12197 25:5 26:8377.4809 27:7315.5389 28:4 29:12318.564 30:5462.4 43:215 44:386.84261 45:819.76425 46:19 47:2172.0851 48:3826.9715 52:340 53:241.00631 54:681.86361 
0.080078125 1:1 19:1731 20:48.24036 21:215.69895 25:6 26:14479.453 27:14837.548 28:2 29:25706.854 30:0 34:1 43:247 44:335.7323 45:610.25231 46:11 47:7340.9131 48:13218.564 52:3402 53:23.798381 54:155.49523 
0.080078125 1:1 19:3629 20:23.312069 21:179.17785 22:1 25:4 26:13117.359 27:10935.792 43:226 44:368.30685 45:744.36992 46:6 47:6265.233 48:6675.2566 52:1528 53:55.448425 54:333.00511 
0.080078125 1:4 2:17224.14 3:18471.038 4:1 19:2439 20:34.82515 21:176.49903 25:7 26:11978.641 27:12010.294 28:1 43:250 44:327.62831 45:620.51056 46:15 47:5198.1586 48:7575.4437 52:5251 53:15.996644 54:128.43581 
0.080078125 1:2 2:36603.168 3:0 19:3466 20:24.788004 21:160.2058 22:1 25:5 26:3784.2321 27:2332.1837 43:246 44:347.87768 45:683.10301 46:3 47:142.51919 48:142.32113 52:5058 53:17.048627 54:154.97478 61:2 62:9182.7696 63:0 
0.080078125 1:1 19:2772 20:30.728241 21:143.5086 22:2 23:49119.115 24:0 25:3 26:20885.123 27:19754.692 43:254 44:336.51635 45:642.61384 46:1 52:388 53:218.22434 54:611.88168 
0.080078125 1:3 2:24263.944 3:17672.227 4:2 5:14.920761 6:0 19:2405 20:35.464213 21:279.61226 25:1 28:4 29:3098.0186 30:2190.6224 43:55 44:1496.9298 45:6210.2022 46:19 47:4003.0415 48:6327.1425 52:413 53:204.81711 54:575.78856 
0.080078125 1:2 2:41624.953 3:0 19:1878 20:44.952563 21:318.29224 25:2 26:41972.188 27:0 43:54 44:1527.4114 45:2176.7662 46:7 47:12258.053 48:13878.406 52:270 53:319.47782 54:766.85902 
0.080078125 1:2 2:58993.475 3:0 4:4 5:45.804707 6:19.525781 19:3468 20:24.299264 21:225.57279 25:3 26:24598.088 27:24595.297 28:3 29:29542.301 30:27456.208 37:1 43:45 44:1914.6716 45:3456.1917 46:27 47:2433.2677 48:5384.24 52:88 53:971.85893 54:1509.5004 
0.080078125 1:2 2:20769.499 3:0 19:2780 20:29.956665 21:244.53207 22:9 23:4796.7679 24:8495.8164 25:18 26:16.320931 27:30.362137 28:5 29:90.298406 30:131.56059 43:74 44:1036.9726 45:3357.2817 46:16 47:3337.4887 48:12271.615 52:231 53:366.30193 54:798.48901 
0.080078125 1:3 2:23225.886 3:20697.395 4:3 5:23346.061 6:23314.251 19:1788 20:48.04664 21:279.86429 22:38 23:1918.0014 24:3898.4751 25:7 26:4606.4817 27:10223.053 28:8 29:10091.069 30:11005.848 43:60 44:1348.021 45:2622.4359 46:41 47:1940.1448 48:4237.0671 52:373 53:230.93263 54:563.58406 
0.080078125 1:6 2:10700.039 3:17511.503 19:1208 20:69.200606 21:354.90357 28:1 43:47 44:1664.176 45:2942.7228 46:10 47:5254.4643 48:8461.1478 52:354 53:234.95262 54:695.95119 
0.080078125 1:3 2:31229.661 3:11590.742 4:1 19:3109 20:27.613805 21:157.22118 25:1 28:1 34:1 43:15 44:4898.2072 45:8501.4633 46:31 47:2361.3166 48:4278.0231 52:388 53:216.9443 54:577.40193 61:1 
0.080078125 1:2 2:78838.992 3:0 19:2013 20:42.894191 21:257.63647 25:7 26:58.175759 27:71.193427 28:4 29:5225.1802 30:4323.3449 43:34 44:2091.2344 45:4594.3257 46:45 47:1102.3878 48:1490.3502 52:309 53:265.85899 54:539.79639 
0.080078125 1:1 19:1901 20:42.913329 21:332.00201 28:4 29:23.976881 30:5.5709055 43:42 44:1896.8058 45:3389.544 46:15 47:404.39236 48:1393.2437 52:669 53:74.864318 54:257.23496 
0.080078125 1:2 2:27338.241 3:0 19:2499 20:33.954087 21:271.20435 25:1 43:54 44:1559.2357 45:4109.2312 46:1 52:2 53:11226.1 54:0 
0.080078125 1:4 2:17557.973 3:9595.9517 19:2642 20:32.487319 21:277.51545 25:2 26:15465.896 27:0 37:1 43:48 44:1603.6462 45:2829.0426 46:9 47:8500.0909 48:9390.9408 52:3 53:8211.8218 54:8041.4481 
0.080078125 7:1 19:1694 20:50.158726 21:352.28313 25:1 43:26 44:3262.0715 45:4709.6534 46:16 47:5185.891 48:5080.6546 52:5 53:14283.866 54:7215.1856 55:28 56:2470.4752 57:2910.9761 
0.080078125 19:1522 20:53.739742 21:340.05764 28:2 29:29719.169 30:0 43:26 44:2114.3756 45:3185.1579 46:28 47:2520.4444 48:2928.7774 52:61 53:1280.7046 54:4981.4679 55:97 56:850.478 57:1192.4536 
0.080078125 1:2 2:34220.079 3:0 19:1826 20:45.901661 21:324.55971 25:11 26:4199.4441 27:9916.3327 28:7 29:8285.5918 30:9636.7142 43:64 44:1295.3822 45:2681.485 46:35 47:1724.5417 48:3682.1249 52:6 53:10905.724 54:7773.389 
0.080078125 1:5 2:14534.785 3:8974.528 16:1 19:2778 20:30.204603 21:243.3025 25:2 26:12196.669 27:0 28:1 43:30 44:2473.9281 45:4968.3326 46:6 47:12829.627 48:17757.211 52:3 53:21461.542 54:7216.8401 
0.080078125 1:1 16:1 19:2884 20:28.786852 21:195.79626 25:7 26:1201.4468 27:2231.5238 28:1 43:31 44:2038.6418 45:5276.5435 46:13 47:5260.7733 48:10249.702 52:2 53:34412.732 54:0 
0.080078125 1:2 2:23441.883 3:0 4:2 5:4452.14 6:0 19:1523 20:55.026539 21:230.30102 25:2 26:9633.84 27:0 28:4 29:10981.417 30:15500.22 43:19 44:3795.4375 45:7962.0607 46:19 47:3319.6393 48:8333.0011 52:4 53:28047.641 54:31165.195 
0.080078125 1:2 2:17399.473 3:0 19:1787 20:47.389745 21:206.81268 25:2 26:17030.028 27:0 37:1 43:18 44:2217.9415 45:4765.2952 46:2 47:30.424681 48:0 52:5 53:15744.954 54:9571.7229 
0.080078125 1:1 19:2036 20:41.907722 21:244.1555 25:2 26:42498.39 27:0 28:4 29:6.2833207 30:2.7092925 43:22 44:2907.4741 45:6085.8264 46:18 47:2499.8366 48:7763.3694 52:4 53:22124.495 54:8397.0179 
0.080078125 1:3 2:1695.1204 3:1683.1443 19:1117 20:74.831496 21:414.02268 28:2 29:8953.7366 30:0 37:1 43:59 44:1363.3972 45:2656.483 46:14 47:3870.1562 48:7863.3308 52:5372 53:12.120294 54:98.939201 
0.080078125 1:2 2:47909.125 3:0 19:3277 20:25.348339 21:213.91612 25:3 26:23825.327 27:5060.8139 43:51 44:1634.5474 45:3381.4531 46:3 47:11580.671 48:2684.6526 52:210 53:390.3183 54:1833.7007 
0.080078125 19:1350 20:61.382499 21:312.13206 28:4 29:2426.4599 30:3400.6247 43:39 44:2113.1987 45:3935.8688 46:22 47:3864.7529 48:11430.228 52:222 53:378.7507 54:929.61324 
0.080078125 1:1 19:2072 20:41.60434 21:349.4876 25:2 26:15655.558 27:0 43:51 44:1596.8959 45:2633.7158 46:7 47:11201.559 48:12804.672 52:324 53:260.96422 54:698.18873 
0.080078125 1:3 2:35418.961 3:31373.625 19:1994 20:41.714409 21:283.7287 25:2 26:54553.569 27:0 43:34 44:2455.9445 45:6220.5137 46:16 47:5193.0147 48:8309.9512 52:365 53:234.17813 54:654.62708 
0.080078125 1:1 19:2830 20:29.014726 21:276.51827 25:2 26:22779.417 27:0 28:1 43:49 44:1710.0554 45:3384.1647 46:1 52:203 53:418.69099 54:949.10614 
0.080078125 19:1885 20:45.217318 21:344.08816 25:10 26:3143.0188 27:5368.4803 28:4 29:30.89746 30:34.158388 43:67 44:1245.1806 45:2011.9501 46:11 47:4497.8772 48:13413.138 52:139 53:610.79439 54:905.94887 
0.080078125 19:3317 20:24.428739 21:249.86123 25:3 26:12421.249 27:12417.048 43:46 44:1800.1266 45:1926.4464 46:5 47:11763.499 48:8450.162 52:265 53:320.98111 54:634.28752 
0.080078125 1:3 2:22677.705 3:12259.589 19:1613 20:52.597088 21:350.13015 28:1 43:63 44:1367.5245 45:1823.3261 46:8 47:9801.4275 48:14865.496 52:112 53:758.09081 54:1082.6321 
0.080078125 1:2 2:36763.836 3:0 19:2511 20:33.962053 21:538.13436 43:15 44:4225.9504 45:13661.7 46:2 47:40572.645 48:0 52:80 53:1093.3106 54:2106.2216 
0.080078125 1:3 2:39002.465 3:23868.895 19:2303 20:36.806874 21:292.42664 25:1 43:7 44:11807.57 45:15988.985 46:6 47:13840.695 48:9953.4559 52:1065 53:81.027674 54:537.52609 
0.080078125 4:1 19:2161 20:39.105759 21:667.46142 25:2 26:32686.647 27:0 28:2 29:19.999824 30:0 43:6 44:6537.4088 45:13074.419 46:4 47:7.318176 48:8.7105719 52:106 53:822.04356 54:1380.2691 
0.080078125 1:1 4:1 19:1121 20:75.551132 21:405.26312 25:1 43:5 44:7825.2104 45:11960.313 46:17 47:3217.0938 48:4397.7786 52:85 53:981.60396 54:1538.6504 
0.080078125 1:1 19:1512 20:56.582742 21:340.87608 25:1 28:2 29:8.66781 30:0 43:3 44:0.198017 45:1.6e-05 46:12 47:1.2562754 48:1.3000853 52:1069 53:79.540463 54:669.41505 
0.080078125 1:2 2:516.05694 3:0 19:2633 20:31.251636 21:285.66537 25:1 34:1 37:1 43:11 44:7853.0474 45:16663.327 46:9 47:3208.4722 48:3380.5486 52:321 53:260.01446 54:771.04947 
0.080078125 1:2 2:51447.957 3:0 19:2970 20:28.839447 21:345.09469 25:1 43:5 44:0.12377075 45:0.043092024 46:3 47:17843.9 48:15569.662 52:1073 53:79.295722 54:420.44036 
0.080078125 1:1 19:2678 20:31.555966 21:207.02814 25:1 43:10 44:7860.2412 45:11284.157 46:2 47:16865.002 48:0 52:15 53:6150.4037 54:12006.651 
0.080078125 19:1329 20:62.362343 21:447.36435 25:1 28:1 37:1 43:8 44:10248.752 45:15955.498 46:12 47:7157.3841 48:12258.053 52:12 53:293.31717 54:764.94706 
0.080078125 4:1 19:3485 20:24.596066 21:190.25547 25:1 28:2 29:5.091261 30:0 43:4 44:20835.535 45:29465.616 46:10 47:1996.7489 48:4416.0467 52:3 53:27603.706 54:10548.61 
0.080078125 1:1 19:1687 20:51.007909 21:247.00294 43:1 46:1 49:3 50:226.56184 51:222.72179 52:5 53:12411.693 54:11816.719 
0.080078125 19:3591 20:22.697861 21:125.95959 25:1 28:3 29:22176.343 30:22172.546 43:8 44:11337.551 45:24209.462 46:14 47:6033.5308 48:9077.1839 52:33 53:2130.9938 54:5735.6545 
0.080078125 1:1 19:4029 20:21.02358 21:115.6118 25:1 28:11 29:4989.3829 30:7003.4673 34:1 40:1 43:8 44:11027.306 45:15736.038 46:46 47:1108.815 48:3801.7468 52:272 53:309.07848 54:1631.8609 
0.080078125 1:1 16:1 19:3594 20:23.946041 21:136.83405 25:1 28:2 29:9182.3745 30:0 37:1 43:5 44:13547.195 45:13606.21 46:15 47:3934.0314 48:6170.1966 52:231 53:352.14705 54:1116.4871 
0.080078125 1:1 4:4 5:140.67107 6:193.62063 19:2366 20:36.196856 21:173.14218 25:4 26:20975.817 27:17702.787 43:13 44:5252.6988 45:12440.954 46:2 47:73884.565 48:0 52:37 53:2039.521 54:3442.5613 
0.080078125 19:3692 20:22.782298 21:158.35153 25:3 26:5042.9665 27:4878.5305 28:2 29:8132.9928 30:0 43:11 44:2207.9403 45:4396.0365 46:22 47:1068.5424 48:1776.5833 52:10 53:8435.54 54:7603.929 
0.080078125 1:2 2:72749.27 3:0 19:72856 20:1.1834093 21:44.905043 25:4 26:15413.932 27:19595.271 28:1 31:1 43:14 44:4811.2311 45:9120.9877 46:9 47:3845.8065 48:6049.0332 52:35 53:2121.4335 54:3696.432 
0.080078125 1:1 19:2936 20:26.244722 21:251.02907 25:3 26:28969.226 27:28897.021 28:6 29:29.753183 30:53.951757 34:1 43:17 44:4342.6228 45:6234.0387 46:22 47:2968.5843 48:5484.7351 52:8 53:9169.6818 54:8150.889 
0.080078125 1:1 19:2517 20:33.068436 21:281.01856 25:3 26:11992.909 27:2822.5319 43:10 44:3057.1329 45:5076.1328 52:19 53:4236.6624 54:3897.1181 
0.080078125 1:2 2:42967.181 3:0 4:1 19:2883 20:29.009789 21:145.69148 25:2 26:43562.442 27:0 28:1 43:31 44:2732.816 45:7683.2117 46:18 47:4505.8865 48:8690.9749 52:8 53:8773.5304 54:8501.5005 
0.080078125 1:3 2:24429.605 3:21999.573 19:2036 20:38.160642 21:345.12497 25:1 28:7 29:8876.7865 30:12809.128 37:1 43:22 44:3410.2312 45:6684.4996 46:38 47:1894.445 48:3545.6475 52:84 53:975.46826 54:4317.2319 
0.080078125 19:3139 20:24.694494 21:181.3446 25:2 26:44209.098 27:0 28:1 34:1 43:20 44:3681.1248 45:8430.7136 46:18 47:3784.5543 48:6223.0432 52:5 53:15214.491 54:17905.931 
0.080078125 1:2 2:20203.862 3:0 19:1598 20:50.472617 21:292.7967 25:3 26:19730.398 27:812.81139 28:7 29:8086.0451 30:10297.795 43:37 44:1621.3537 45:2318.6138 46:52 47:1217.6656 48:1474.8596 52:76 53:1012.72 54:3217.4173 
0.080078125 1:2 2:11296.963 3:0 19:1064 20:77.069506 21:441.29461 25:1 28:2 29:17715.844 30:0 43:11 44:5632.7612 45:8412.1121 46:12 47:5408.5734 48:7420.2886 49:1 52:129 53:524.91796 54:2007.6221 55:1 
0.080078125 4:2 5:15.071803 6:0 19:1522 20:51.986254 21:239.72248 25:2 26:43120.7 27:0 28:1 43:7 44:7186.8493 45:10196.206 46:9 47:7478.8859 48:8872.1953 49:1 52:25 53:2561.8576 54:4857.5719 
0.080078125 19:3259 20:26.382072 21:273.12932 25:9 26:4512.5077 27:8868.4584 28:4 29:19835.871 30:28044.561 43:23 44:2691.9106 45:6120.3361 46:15 47:4250.5437 48:11857.937 49:3 50:31113.148 51:31112.545 52:13 53:4254.84 54:4909.8028 
0.080078125 1:2 2:3513.683 3:0 4:11 5:8.4638449 6:7.9104524 19:3299 20:25.853815 21:153.26578 25:2 26:49109.033 27:0 28:5 29:9397.822 30:9867.165 40:2 41:37629.206 42:0 43:7 44:8184.9047 45:16102.243 46:20 47:1978.5097 48:5579.157 49:3 50:128.6303 51:116.68877 52:463 53:121.7855 54:1134.7045 
0.080078125 1:3 2:607.70587 3:591.89799 19:2443 20:34.23796 21:269.30353 25:2 26:32861.401 27:0 28:1 43:13 44:4177.6657 45:5702.0763 46:19 47:2844.075 48:3881.2677 52:15 53:5601.2735 54:5292.7641 55:1 
0.080078125 1:3 2:19856.323 3:16193.399 4:3 5:5.2154165 6:0.2805715 16:1 19:2463 20:34.665378 21:334.91596 25:3 26:37883.746 27:3696.0554 28:5 29:16798.329 30:26921.137 34:2 35:48696.749 36:0 37:1 40:1 43:13 44:6315.8189 45:9604.1808 46:29 47:3048.0764 48:11694.665 52:387 53:179.55104 54:1609.2349 
0.080078125 1:50 2:1439.0994 3:5210.7723 19:2356 20:35.883538 21:451.55765 25:1 28:1 43:12 44:7392.7078 45:11169.338 46:14 47:6259.5371 48:10026.003 49:14 50:979.19759 51:3331.3331 52:21 53:3273.9102 54:5950.6156 
0.080078125 1:6 2:10867.21 3:14528.536 19:2089 20:38.879155 21:567.42379 25:3 26:26666.872 27:10839.159 43:9 44:6666.7676 45:12755.441 46:4 47:18201.203 48:25286.202 52:18 53:2517.6178 54:3389.0851 
0.080078125 19:2352 20:36.063452 21:400.87348 25:3 26:19474.451 27:1855.9758 28:1 43:11 44:3899.0292 45:6886.4062 46:8 47:9892.3279 48:14170.823 52:33 53:2501.3668 54:8274.1212 
0.080078125 1:1 19:1868 20:45.154814 21:310.49454 25:2 26:45457.185 27:0 43:6 44:9091.5162 45:18182.634 49:1 52:9 53:8061.3606 54:9274.1283 
0.080078125 1:2 2:2.944668 3:0 19:2968 20:27.491231 21:350.06553 25:1 43:3 44:0.198206 45:1.5e-05 52:3 53:12987.184 54:7382.1823 
0.080078125 1:2 2:10.68986 3:0 4:6 5:928.80535 6:1834.843 19:2316 20:33.607849 21:310.28204 25:1 34:2 35:5247.6702 36:0 43:16 44:5188.6244 45:11465.156 46:29 47:1135.1173 48:2445.0551 52:73 53:656.41658 54:2077.4464 
0.080078125 19:2735 20:30.850266 21:259.955 25:2 26:43452.524 27:0 28:8 29:8743.9094 30:5463.0671 31:1 37:4 38:14469.6 39:12989.952 40:1 43:19 44:3009.6458 45:5742.1403 46:42 47:2057.7312 48:4302.2874 52:53 53:1410.9895 54:5863.8475 55:1 
0.080078125 1:5 2:244.65274 3:418.10631 4:1 19:1958 20:41.244042 21:210.68682 25:3 26:35389.079 27:6098.3945 28:2 29:16296.736 30:0 43:13 44:6271.6074 45:11246.787 46:14 47:4517.6353 48:5722.6647 52:12 53:6026.5539 54:8319.1438 55:1 
0.080078125 1:7 2:4456.1558 3:9645.5438 19:2642 20:30.381674 21:237.24572 25:2 26:25867.836 27:0 28:1 43:7 44:6926.9052 45:10226.668 46:7 47:10048.191 48:10951.118 52:6 53:12094.207 54:7734.2717 
0.080078125 1:8 2:6304.7942 3:14595.352 19:1360 20:62.279991 21:429.49419 25:1 28:6 29:7428.8529 30:9188.5913 37:2 38:323.17434 39:0 43:5 44:18555.763 45:19085.267 46:31 47:2685.7036 48:5179.0242 52:18 53:2361.4022 54:4651.7248 
0.080078125 1:4 2:27490.678 3:38872.195 19:2749 20:30.615693 21:278.18171 25:4 26:19063.479 27:8820.9682 28:5 29:6180.5689 30:9001.4229 37:2 38:3046.5433 39:0 43:16 44:5186.3968 45:8699.7676 46:29 47:3002.8861 48:7575.1269 52:26 53:3148.5512 54:8317.242 
0.080078125 1:5 2:5779.9409 3:9986.0005 19:1419 20:56.367265 21:559.57571 25:2 26:23856.603 27:0 28:2 29:8913.0845 30:0 43:6 44:4771.3998 45:9542.4035 46:10 47:991.56443 48:2790.5904 52:15 53:4671.6093 54:9021.0273 
0.080078125 1:3 2:20283 3:19647.958 19:3194 20:25.529792 21:308.09345 25:3 26:36511.391 27:3996.7641 28:1 43:9 44:9127.8973 45:15935.437 46:4 47:0.13909167 48:0.042912928 
0.080078125 1:1 19:4234 20:18.661433 21:225.72856 25:3 26:21825.473 27:3374.3198 37:2 38:366.61137 39:0 43:9 44:5456.4178 45:9599.8705 46:3 47:18778.875 48:6665.6115 52:15 53:4339.8002 54:7254.7732 
0.080078125 19:426 20:201.89927 21:416.88105 25:1 34:2 35:29000.79 36:0 43:16 44:4028.3244 45:4500.609 46:45 47:1897.8367 48:3434.102 52:5 53:12226.938 54:11645.9 
0.080078125 1:1 19:2888 20:29.218253 21:225.42156 25:3 26:32233.888 27:11302.875 31:1 43:10 44:7163.1303 45:11344.262 46:5 47:9669.5318 48:6500.5468 52:9 53:8158.1582 54:14044.121 
0.080078125 19:1962 20:43.194831 21:334.16021 25:2 26:42695.924 27:0 43:6 44:8539.2643 45:17078.132 46:3 47:20366.01 48:19542.44 52:4 53:14734.307 54:8249.4484 
0.080078125 1:1 19:2432 20:31.737672 21:401.66057 25:2 26:44177.394 27:0 43:6 44:8835.5579 45:17670.718 52:26 53:2722.7895 54:8519.9407 
0.080078125 1:7 2:35.984672 3:45.785166 19:954 20:90.078552 21:549.47782 25:1 28:3 29:25971.893 30:25906.698 43:3 44:0.1981985 45:0.0004405 46:13 47:5782.3351 48:14618.536 52:286 53:45.327436 54:510.41098 
0.080078125 1:3 2:30850.463 3:17132.668 4:1 19:2973 20:28.503714 21:206.66297 25:2 26:64415.636 27:0 43:7 44:10736.005 45:24006.088 52:3 53:26296.753 54:25222.09 
0.080078125 1:19 2:2485.9012 3:3296.0882 19:1216 20:70.720203 21:481.86134 25:2 26:43201.513 27:0 31:2 32:47.684353 33:0 43:6 44:8640.382 45:17280.367 46:5 47:17483.32 48:18368.548 52:6 53:9578.3356 54:11317.607 55:1 
0.080078125 1:2 2:95.308179 3:0 19:2221 20:38.768005 21:200.65663 25:3 26:34195.74 27:7926.4594 28:2 29:24035.038 30:0 34:1 43:9 44:8548.9846 45:15328.158 46:11 47:6746.501 48:10067.217 52:88 53:884.02533 54:2612.0992 
0.080078125 19:2130 20:40.470283 21:193.54787 25:2 26:41215.333 27:0 28:2 29:3882.9596 30:0 34:1 40:3 41:218.05224 42:30.702247 43:10 44:8687.3002 45:12928.069 46:21 47:4122.9368 48:7529.4738 52:1169 53:64.523504 54:1418.2492 
0.080078125 1:2 2:2155.0243 3:0 19:12388 20:6.8772555 21:139.94186 25:2 26:20516.104 27:0 28:6 29:7258.9942 30:13012.371 43:13 44:4216.0589 45:8064.2081 46:44 47:1622.3791 48:5019.6635 52:4707 53:16.393621 54:358.56407 
0.080078125 19:1739 20:48.604878 21:603.15412 25:3 26:35048.906 27:8423.6733 28:2 29:111.77117 30:0 43:9 44:8762.2762 45:15749.971 46:17 47:3752.0308 48:11184.061 52:10 53:5744.0193 54:6631.7378 
0.080078125 4:1 19:1962 20:41.254283 21:304.9491 25:1 43:3 44:0.1984825 45:0.0008435 46:1 52:27 53:3150.7075 54:3580.9909 
0.080078125 4:4 5:13.742393 6:3.488425 19:2549 20:33.814302 21:332.92763 25:3 26:25959.137 27:13441.731 28:1 43:12 44:5830.7854 45:9890.3451 46:8 47:8166.0936 48:11835.17 52:12 53:5267.1427 54:4697.5758 
0.080078125 19:2062 20:39.755683 21:461.16001 22:23 23:2471.513 24:7277.4946 25:2 26:44638.539 27:0 28:2 29:39054.24 30:0 31:4 32:3146.6688 33:4280.033 43:7 44:7439.8225 45:10696.137 46:8 47:5579.2369 48:13665.942 52:12 53:4825.0449 54:4996.317 55:1 
0.080078125 19:1930 20:42.016678 21:361.91995 25:1 31:1 34:2 35:13381.134 36:0 43:4 44:1926.7175 45:2724.5098 46:2 47:15139.074 48:0 52:14 53:5763.265 54:6220.329 
0.080078125 4:1 19:1864 20:43.3145 21:280.83608 25:2 26:44111.892 27:0 43:6 44:8822.4577 45:17644.519 46:9 47:7296.5869 48:6449.981 52:38 53:1719.9351 54:3140.8335 
0.080078125 1:1 4:1 19:1849 20:38.325578 21:424.23857 25:2 26:34738.862 27:0 28:1 37:1 40:2 41:2946.4548 42:0 43:7 44:5789.8763 45:12946.203 46:4 47:8408.1294 48:11890.61 52:15 53:5654.0609 54:6305.5887 
0.080078125 19:2237 20:36.742104 21:581.86316 25:3 26:26974.572 27:19405.567 28:2 29:11461.76 30:0 43:13 44:6837.7663 45:14206.946 46:22 47:3705.2464 48:7986.5492 52:4 53:13965.902 54:12867.624 
0.080078125 4:1 19:1560 20:44.408691 21:354.12612 25:1 28:31 29:1126.6208 30:2972.9531 37:2 38:6070.3038 39:0 40:2 41:3212.9723 42:0 43:9 44:2017.1121 45:1944.9764 46:118 47:402.3149 48:1115.7703 52:28 53:2426.6614 54:6961.1311 
0.080078125 19:2374 20:35.06424 21:277.76669 25:3 26:39949.305 27:9648.7543 28:1 37:1 40:1 43:15 44:5707.0719 45:8945.9891 46:9 47:6614.9104 48:13796.211 52:3 53:19904.582 54:9671.837 
0.080078125 4:6 5:2.579393 6:1.2036922 19:2524 20:33.973812 21:372.88078 25:3 26:11080.436 27:1832.6134 43:9 44:2770.1586 45:4884.4302 46:2 47:29111.809 48:0 52:9 53:7588.0454 54:6969.5709 
0.080078125 4:1 19:2252 20:37.464617 21:303.43213 25:2 26:23260.025 27:0 28:12 29:5663.599 30:6889.7372 37:1 40:1 43:15 44:2459.9575 45:3895.8814 46:67 47:1024.1858 48:2440.2771 52:5 53:14237.906 54:13402.731 
0.080078125 19:1233 20:59.327087 21:506.09356 25:2 26:40220.399 27:0 28:9 29:8108.2419 30:10632.449 40:2 41:32319.15 42:0 43:7 44:10488.931 45:15219.229 46:64 47:1154.3997 48:2340.7897 52:11 53:5754.1869 54:8664.8037 
0.080078125 4:1 19:2707 20:30.72305 21:327.30869 25:4 26:23829.958 27:14121.517 28:8 29:8805.0478 30:17352.122 31:1 37:2 38:51449.241 39:0 43:13 44:5957.5224 45:8712.0355 46:69 47:1128.6792 48:2353.9562 52:28 53:2447.5719 54:4111.6143 
0.080078125 19:2106 20:40.072861 21:299.80471 25:2 26:42339.145 27:0 28:1 37:1 43:9 44:10053.823 45:14540.93 46:11 47:7960.6804 48:12845.745 52:155 53:503.77941 54:1741.0499 
0.080078125 1:3 2:15.654733 3:0.587882 4:1 19:3792 20:22.685367 21:303.80933 25:2 26:43317.801 27:0 28:2 29:2592.8158 30:0 43:9 44:7709.2896 45:12948.897 46:10 47:4740.144 48:8905.8774 52:47 53:377.57518 54:970.11444 
0.080078125 4:1 19:1833 20:44.827069 21:306.41609 25:5 26:10404.193 27:7467.649 28:7 29:4218.0763 30:3951.547 43:39 44:1157.7884 45:2862.4443 46:62 47:1295.959 48:5158.5198 52:1 
0.080078125 19:2931 20:28.605517 21:219.92023 25:2 26:25725.865 27:0 43:9 44:5881.9054 45:7016.6078 46:17 47:4985.5613 48:3881.2422 52:2 53:39931.943 54:0 
0.080078125 19:1851 20:45.842122 21:317.0919 25:1 28:8 29:8241.0555 30:15576.196 43:7 44:1705.9868 45:2557.3118 46:51 47:1595.3505 48:4145.2907 52:139 53:578.07313 54:2782.3909 
0.080078125 1:7 2:376.46065 3:801.06233 19:2874 20:29.938296 21:239.7184 25:2 26:39158.248 27:0 43:12 44:6837.6152 45:7906.7344 46:12 47:4401.5118 48:5333.2836 52:274 53:307.97779 54:1030.6568 
0.080078125 1:1 4:1 16:1 19:2012 20:42.430513 21:170.51544 28:2 29:6254.2013 30:0 43:8 44:10383.618 45:12075.023 46:17 47:5318.8803 48:7686.7613 52:131 53:546.45707 54:1416.4541 61:1 
0.080078125 1:1 16:1 19:3543 20:23.432648 21:129.47703 25:1 28:2 29:4597.9792 30:0 43:10 44:5949.0041 45:10005.265 46:34 47:1925.3872 48:4573.2883 52:179 53:482.67724 54:1517.8263 55:1 
0.080078125 4:1 19:2381 20:35.95299 21:244.83435 25:2 26:423.14408 27:0 28:3 29:20082.653 30:20075.155 43:10 44:5049.2575 45:14114.805 46:22 47:4050.5765 48:9765.2415 52:1153 53:74.545678 54:1035.8698 
0.080078125 16:1 19:69893 20:1.1214726 21:81.600037 25:2 26:4807.7257 27:0 28:4 29:6602.9476 30:9324.1877 37:1 43:8 44:4986.5757 45:6867.7103 46:16 47:4400.7076 48:7609.1835 52:481 53:130.777 54:596.68554 
0.080078125 19:150 20:542.95337 21:2051.1105 25:2 26:303.8897 27:0 28:1 43:9 44:5685.9608 45:10391.191 46:24 47:3598.1083 48:6291.9413 52:29 53:2876.4537 54:4193.0371 
0.080078125 1:1 16:1 19:27 20:3244.66 21:10529.942 25:1 28:2 29:62602.118 30:0 43:2 44:80.346723 45:0 46:20 47:4094.6741 48:12411.065 52:31 53:1980.9751 54:2296.2146 55:2 56:32742.841 57:0 
0.080078125 19:23 20:3816.7829 21:3660.3557 28:1 40:1 43:2 44:40513.891 45:0 46:12 47:5348.6224 48:10460.642 52:15 53:4724.2967 54:4327.8965 55:35 56:803.60098 57:946.13015 
0.080078125 1:14 2:2044.6283 3:4195.47 19:69 20:1263.8417 21:1228.725 25:3 26:28489.92 27:6647.7267 28:5 29:5450.1343 30:6895.4821 43:18 44:3403.4712 45:8587.8632 46:33 47:1540.9006 48:2426.7329 52:13 53:4981.2108 54:5888.1953 
0.080078125 19:30 20:2713.0232 21:3504.8396 25:3 26:20800.24 27:12803.185 28:3 29:16831.025 30:16814.042 37:1 43:11 44:5141.2644 45:9934.3612 46:28 47:2690.2727 48:5313.3875 52:9 53:9671.4458 54:6822.4492 
0.080078125 1:2 2:17171.79 3:0 16:1 19:99 20:796.78615 21:2894.8903 25:17 26:1172.8745 27:4313.1431 28:9 29:6192.6364 30:9336.782 37:4 38:805.82926 39:302.71339 40:2 41:2168.2307 42:0 43:73 44:268.01747 45:1619.0154 46:65 47:774.08576 48:1565.9285 52:17 53:4782.2827 54:10270.865 55:1 
0.080078125 19:31 20:2644.5787 21:4014.0639 25:2 26:23945.932 27:0 28:4 29:27.878142 30:14.07837 34:1 43:13 44:2961.9099 45:6936.4992 46:14 47:2844.5302 48:9594.4667 52:14 53:6336.0411 54:7899.4408 
0.080078125 19:23 20:3746.846 21:4767.4824 25:4 26:21092.305 27:26435.885 28:4 29:24390.448 30:18115.909 40:1 43:10 44:7030.8125 45:18215.62 46:19 47:4065.0966 48:10573.848 52:12 53:6843.4495 54:6505.8591 
0.080078125 19:215 20:380.41386 21:1457.427 25:30 26:2406.9692 27:4877.5632 28:25 29:637.63431 30:769.14898 43:163 44:457.96537 45:1588.822 46:119 47:689.90305 48:2573.6071 52:7 53:8865.7749 54:6784.2801 
0.080078125 19:46 20:1681.0471 21:4563.4295 25:5 26:16227.391 27:14305.027 28:5 29:18830.604 30:17502.382 31:2 32:121.30273 33:0 43:35 44:1909.1259 45:6709.2021 46:20 47:3964.3882 48:10639.689 52:35 53:2315.9377 54:3433.4542 
0.080078125 4:7 5:3675.811 6:8038.1042 19:75 20:1124.2758 21:2044.8312 25:6 26:13994.432 27:11919.749 28:2 29:1499.5915 30:0 43:72 44:1121.4545 45:2163.1696 46:24 47:3495.0314 48:7721.6666 52:53 53:1436.5926 54:1992.1243 55:1 
0.080078125 1:1 19:41 20:1726.9292 21:3327.724 25:3 26:21220.939 27:21057.14 28:10 29:794.47775 30:1863.1885 43:21 44:3170.212 45:9545.0223 46:40 47:1857.3275 48:5371.3242 52:21 53:4021.0705 54:3335.8833 
0.080078125 19:33 20:2582.9598 21:4409.7504 25:2 26:3.485085 27:0 28:5 29:116.30361 30:119.58614 43:6 44:83.371918 45:108.22009 46:19 47:2429.0901 48:9885.1715 52:19 53:2505.5699 54:2538.3402 
0.080078125 16:1 19:37 20:2133.0655 21:3167.9948 25:3 26:15.575832 27:11.118531 28:3 29:77.330641 30:30.578178 37:1 43:12 44:569.26962 45:1313.8449 46:10 47:17.268775 48:23.938547 52:5 53:19025.919 54:13170.384 
0.080078125 1:1 19:14 20:5861.4396 21:8562.1646 43:9 44:9105.8325 45:15839.735 46:2 47:72847.253 48:0 52:10 53:8143.9779 54:13516.136 
0.080078125 1:1 19:13 20:3272.1082 21:3267.8846 25:1 43:8 44:2273.7467 45:5568.9786 46:2 47:15986.352 48:0 52:7 53:13109.462 54:16122.567 
0.080078125 1:2 2:29991.768 3:0 19:12 20:6996.3179 21:11022.821 25:2 26:15195.746 27:0 28:1 43:8 44:2170.9281 45:5294.6353 46:4 47:1403.2379 48:1983.8086 52:19 53:2826.5606 54:3732.8178 
0.080078125 4:1 7:2 8:7128.0487 9:0 19:9 20:10268.159 21:14041.073 25:2 26:60324.04 27:0 43:12 44:5484.0553 45:13193.152 46:2 47:0.377876 48:0 52:28 53:2942.0959 54:2946.6405 
0.080078125 1:1 4:1 19:5 20:10172.539 21:10190.494 25:2 26:19485.279 27:0 43:11 44:5099.3915 45:10546.824 52:31 53:2547.7784 54:2456.6557 
0.080078125 19:24 20:2728.2496 21:4062.2786 25:2 26:41425.937 27:0 43:10 44:4602.9681 45:13018.618 46:3 47:21981.859 48:21967.485 52:49 53:1576.161 54:1392.0529 
0.080078125 19:57 20:1311.934 21:2627.6009 25:4 26:19117.305 27:9705.974 28:5 29:20.401129 30:10.674604 43:16 44:3823.5114 45:8751.8515 46:23 47:1196.7475 48:3414.1596 52:37 53:2277.1201 54:4947.8834 
0.080078125 4:1 19:44 20:1692.3152 21:1482.0027 25:2 26:46860.609 27:0 43:7 44:9844.0647 45:17143.364 46:2 47:9004.9773 48:0 52:4 53:20893.314 54:29089.036 61:1 
0.080078125 19:69 20:1228.8504 21:2560.1709 25:3 26:26477.209 27:6721.6192 28:1 40:1 43:25 44:3369.5517 45:5048.0911 46:28 47:2773.2736 48:3793.1179 52:15 53:5731.7646 54:6430.8281 
0.080078125 19:44 20:1946.5242 21:2387.9944 25:1 28:2 29:34573.847 30:0 43:6 44:10654.4 45:21308.452 46:31 47:1715.9404 48:4200.3725 52:3 53:4372.5892 54:1960.371 
0.080078125 19:30 20:2843.8408 21:3076.9584 25:1 43:14 44:3599.9589 45:3493.6654 46:24 47:3585.7123 48:8779.5782 52:9 53:2577.9746 54:5270.6684 64:1 
0.080078125 19:71 20:1102.0506 21:1218.1012 25:7 26:9089.4363 27:13288.661 28:3 29:7830.8377 30:1033.706 43:21 44:2789.7465 45:6656.703 46:61 47:1043.1324 48:2721.7129 
0.080078125 19:41 20:2000.0732 21:2620.128 25:2 26:52382.984 27:0 28:1 43:7 44:8730.5615 45:19521.779 46:8 47:8937.5152 48:14986.549 52:9 53:9032.3627 54:20012.725 
0.080078125 19:39 20:2178.0607 21:2400.6515 25:2 26:36982.504 27:0 43:9 44:5933.9636 45:12133.544 46:8 47:6781.5449 48:8451.8388 52:3 53:21372.047 54:6967.2433 
0.080078125 19:37 20:2279.9653 21:2715.3379 25:2 26:40657.495 27:0 43:6 44:8131.5782 45:16262.76 46:1 
0.080078125 4:3 5:14889.602 6:14872.572 19:51 20:1702.1861 21:1520.2608 25:2 26:10612 27:0 28:1 34:1 43:7 44:5248.4985 45:7992.0943 46:11 47:1215.4566 48:3636.9239 
0.080078125 19:33 20:2564.9058 21:3089.0863 25:2 26:43887.635 27:0 28:3 29:19142.866 30:18692.429 43:7 44:7314.6718 45:10419.724 46:12 47:5236.8234 48:11669.041 
0.080078125 19:51 20:1661.9962 21:1452.8675 25:3 26:34446.39 27:9813.5323 43:10 44:8350.6031 45:14822.23 46:4 47:9528.6014 48:6391.5628 55:1 
0.080078125 13:2 14:123.54071 15:0 16:1 19:56 20:1549.7381 21:1368.6281 25:3 26:29374.509 27:2030.3095 28:1 43:8 44:8734.797 45:13123.471 46:10 47:3659.1222 48:7307.6832 
0.080078125 19:48 20:1711.7417 21:1826.1499 22:2 23:169.91756 24:0 25:3 26:29611.4 27:14504.24 43:11 44:5922.3196 45:8922.7892 46:4 47:19695.306 48:21393.012 
0.080078125 19:49 20:1644.8105 21:1796.9386 22:1 25:2 26:45294.254 27:0 28:4 29:6142.3122 30:8673.3689 43:15 44:4631.116 45:11011.879 46:20 47:1956.371 48:4093.2042 52:7 53:9811.1826 54:12156.483 
0.080078125 19:59 20:1466.508 21:1661.484 25:3 26:25291.048 27:19006.034 43:10 44:5857.0877 45:13733.519 46:14 47:5620.2206 48:8374.6718 52:1 
0.080078125 19:45 20:1861.8577 21:2037.3787 25:4 26:17429.798 27:18759.901 43:11 44:5228.9791 45:9763.8829 46:8 47:11362.45 48:15944.261 52:1 
0.080078125 19:45 20:1881.2145 21:1404.9 25:2 26:43380.168 27:0 43:7 44:10842.352 45:16564.06 46:1 52:14 53:2816.0654 54:6134.5272 
0.080078125 19:55 20:1580.0606 21:2089.1826 22:2 23:54679.954 24:0 25:1 28:4 29:9.4170453 30:0.87955012 43:3 44:0.197785 45:0.00037 46:16 47:4952.0838 48:13772.483 
0.080078125 19:43 20:2046.7639 21:2776.3474 25:4 26:15379.462 27:10827.213 28:2 29:57.83923 30:0 43:13 44:3844.8985 45:8582.1922 46:14 47:5067.8476 48:7424.2342 52:2 53:75025.911 54:0 
0.080078125 19:34 20:2477.127 21:2821.7437 22:2 23:40388.168 24:0 25:8 26:10588.255 27:14050.758 28:4 29:12950.068 30:18283.624 43:21 44:3705.909 45:9726.1748 46:26 47:3088.4657 48:6358.5209 52:3 53:17183.937 54:14209.767 61:1 
0.080078125 19:55 20:1470.2217 21:1626.9733 22:3 23:21344.119 24:20786.535 28:4 29:3672.7702 30:5130.1124 43:9 44:3562.88 45:2634.4955 46:47 47:1083.2979 48:1269.0118 52:12 53:6324.7377 54:6196.0754 
0.080078125 19:30 20:2929.2186 21:4061.4707 22:3 23:23148.735 24:22769.11 25:3 26:42270.752 27:466.72076 28:3 29:14.897873 30:6.006251 43:8 44:12077.386 45:19097.34 46:13 47:3290.8995 48:9689.6885 52:5 53:21372.795 54:33437.429 
0.080078125 19:76 20:1134.7488 21:1247.8003 22:11 23:6076.7496 24:15920.727 25:1 43:5 44:7766.7207 45:9485.3205 46:7 47:7323.0684 48:6751.7062 52:2 53:34149.525 54:0 
0.080078125 19:52 20:1662.3351 21:2917.8919 22:13 23:5233.9511 24:12650.348 25:3 26:19959.423 27:19923.406 28:4 29:2787.9561 30:3838.0269 43:12 44:3629.0421 45:8234.1466 46:20 47:2685.7394 48:6364.3177 52:3 53:1166.4974 54:964.01513 
0.080078125 1:1 19:36 20:2383.2412 21:2056.3769 22:18 23:4037.3711 24:10450.142 25:2 26:44910.433 27:0 43:8 44:6415.8328 45:10555.452 46:9 47:9287.2066 48:10428.375 52:11 53:7393.0626 54:13068.983 
0.080078125 4:1 19:46 20:1890.841 21:2486.7983 22:8 23:5930.3884 24:13697.422 25:2 26:16550.337 27:0 28:5 29:7886.3319 30:12840.964 43:10 44:6435.9375 45:5928.1443 46:29 47:1984.2253 48:3413.8875 52:1 
0.080078125 1:1 19:31 20:2842.656 21:3644.8926 22:4 23:1560.3069 24:952.11792 25:3 26:9857.6965 27:9845.6534 28:3 29:30906.125 30:30894.196 43:9 44:7729.3372 45:12985.48 46:18 47:4389.127 48:9318.2862 52:5 53:17575.765 54:21423.562 
0.080078125 19:32 20:2514.4083 21:3685.0188 22:5 23:12173.853 24:14147.201 25:1 31:1 43:5 44:8046.4051 45:11142.468 46:4 47:11429.015 48:5624.2162 52:1 
0.080078125 4:1 19:44 20:1982.7832 21:2817.8341 22:3 23:421.23665 24:146.67701 25:4 26:24018.214 27:17662.595 28:7 29:4386.8977 30:9407.9323 43:10 44:8015.2918 45:15232.536 46:23 47:2395.8645 48:4636.4648 52:2 53:3240.0158 54:0 
0.080078125 19:36 20:2367.0038 21:2518.5389 25:2 26:43361.808 27:0 43:7 44:10358.019 45:16275.706 52:5 53:17976.124 54:16368.084 
0.080078125 19:42 20:1970.49 21:2499.6819 25:2 26:36343.168 27:0 28:1 43:8 44:7456.0698 45:12508.03 46:9 47:6187.3711 48:10547.809 52:4 53:4678.037 54:5665.4266 55:1 
0.080078125 4:2 5:117.11321 6:0 19:23 20:3548.7363 21:4602.5843 25:2 26:42206.894 27:0 40:2 41:12323.127 42:0 43:12 44:5992.9677 45:10550.192 46:18 47:4492.907 48:10588.36 
0.080078125 4:1 19:67 20:1030.6838 21:2216.9426 25:2 26:54664.465 27:0 28:6 29:12936.492 30:10689.838 40:3 41:7181.692 42:2301.2403 43:10 44:7762.7534 45:17192.782 46:32 47:2443.8039 48:4632.7374 52:1 
0.080078125 1:2 2:1.084162 3:0 19:40 20:1695.5372 21:2062.5826 25:1 28:4 29:3351.9891 30:2435.5078 31:1 43:11 44:4721.6342 45:6453.2639 46:30 47:1752.3644 48:5582.3804 52:41 53:1637.2613 54:2512.7117 
0.080078125 19:36 20:2237.196 21:3416.091 25:2 26:44597.032 27:0 37:1 43:7 44:11061.806 45:16974.294 46:3 47:16123.984 48:16123.786 52:14 53:6537.0397 54:5947.3896 
0.080078125 13:1 19:11 20:6478.753 21:6095.1965 25:2 26:57200.221 27:0 43:7 44:12748.493 45:21090.253 46:3 47:29994.768 48:27029.241 52:37 53:1292.074 54:3703.7837 61:1 
0.080078125 4:1 19:26 20:2951.3037 21:3807.547 28:3 29:5988.425 30:5952.4831 43:3 44:2770.6071 45:2770.4095 46:21 47:3112.4637 48:4684.3823 52:17 53:2632.7586 54:4758.1544 
0.080078125 19:8 20:7491.1687 21:5082.0227 25:2 26:43115.665 27:0 43:7 44:7186.7718 45:16067.713 46:5 47:16074.28 48:13351.016 52:5 53:9723.9193 54:9590.6724 
0.080078125 1:1 19:17 20:4759.0006 21:6749.2049 25:3 26:31908.844 27:6363.2276 43:11 44:6383.3777 45:12347.203 46:5 47:6385.6509 48:9500.0426 
0.080078125 1:1 19:63 20:1280.0899 21:1690.3565 25:4 26:23201.432 27:15519.91 28:7 29:12144.186 30:15995.325 43:15 44:4971.8506 45:11604.241 46:54 47:1407.0534 48:3110.9032 52:1 
0.080078125 19:34 20:2614.8801 21:5191.0463 25:1 28:4 29:9.605634 30:3.3913505 43:4 44:5860.1817 45:8287.2675 46:43 47:1809.0594 48:4648.5038 52:1 
0.080078125 19:37 20:1872.948 21:2780.4215 25:3 26:21308.811 27:2811.1477 28:2 29:382.06057 30:0 43:9 44:7725.9152 45:10090.835 46:29 47:2252.2582 48:3709.7525 52:4 53:17369.159 54:15618.345 
0.080078125 19:26 20:3006.214 21:3538.5243 25:2 26:47270.709 27:0 28:1 40:2 41:32965.73 42:0 43:10 44:8627.4015 45:14720.567 46:21 47:3662.2657 48:5154.6518 52:11 53:4788.6727 54:4284.7685 
0.080078125 16:1 19:35 20:2190.0539 21:2422.024 25:3 26:17608.354 27:17527.382 28:2 29:4988.6663 30:0 43:8 44:5031.0148 45:12290.07 46:20 47:1775.5138 48:3674.8802 52:2 53:35641.959 54:0 
0.080078125 1:3 2:6763.5522 3:6763.4766 19:70 20:1011.3543 21:1608.084 25:4 26:16556.551 27:13006.571 28:12 29:5570.231 30:11946.432 43:9 44:6208.7312 45:11299.579 46:91 47:786.21908 48:1332.3662 52:9 53:6186.285 54:8482.5418 
0.080078125 19:61 20:1392.1195 21:1685.3388 25:3 26:21181.646 27:284.51306 28:8 29:7344.4292 30:10959.288 43:10 44:7742.8587 45:11070.951 46:61 47:1256.3506 48:2625.57 52:1 55:2 56:57.526937 57:0 
0.080078125 19:46 20:1884.1663 21:2902.2248 25:2 26:47301.99 27:0 28:5 29:15390.234 30:18047.73 43:9 44:8804.6742 45:14431.366 46:40 47:1938.7096 48:4705.3677 52:3 53:1240.3967 54:404.67837 
0.080078125 19:70 20:1177.2102 21:1469.2896 25:3 26:30865.384 27:12819.972 28:7 29:10680.021 30:10954.592 43:11 44:6262.4458 45:13541.691 46:72 47:987.7064 48:1940.2838 52:5 53:16980.667 54:13152.715 
0.080078125 19:41 20:2121.312 21:2433.9701 25:2 26:44119.68 27:0 43:7 44:7361.0163 45:16438.795 46:8 47:7973.1553 48:9919.0484 52:4 53:8727.5871 54:4053.8363 55:5 56:191.81083 57:127.40075 
0.080078125 19:52 20:1612.9327 21:3619.9825 25:2 26:46190.785 27:0 28:5 29:9101.2094 30:15680.396 31:3 32:16.274857 33:12.162806 43:9 44:10269.342 45:17968.912 46:32 47:2625.9034 48:7344.6098 52:1 
0.080078125 19:56 20:1511.8187 21:2547.9514 25:3 26:30145.815 27:13228.276 28:3 29:6631.0951 30:2617.2778 43:8 44:10822.225 45:15055.885 46:48 47:1759.0336 48:3460.0433 52:3 53:27247.392 54:16419.009 
0.080078125 19:64 20:1225.4361 21:2332.5517 25:3 26:21107.248 27:4150.6419 28:10 29:4500.717 30:7812.5761 37:2 38:72.45451 39:0 43:14 44:5215.451 45:6394.7568 46:71 47:1178.3596 48:3130.0129 52:6 53:13997.227 54:15502.689 55:1 
0.080078125 1:1 19:128 20:593.00411 21:1158.799 25:12 26:5636.2907 27:9225.9562 28:18 29:3149.6177 30:6765.4299 43:48 44:1482.0446 45:3875.7391 46:82 47:971.67002 48:2467.8655 61:1 
0.080078125 4:7 5:3228.7178 6:7150.8982 19:58 20:1209.0065 21:2117.8576 25:3 26:5626.1665 27:5577.2884 28:5 29:11174.18 30:10303.405 40:1 43:19 44:3591.2087 45:7820.1632 46:57 47:1234.6344 48:1840.3542 
0.080078125 19:43 20:1996.772 21:3228.8546 25:1 28:1 43:9 44:1442.0786 45:2471.0522 46:27 47:1897.8448 48:5019.4149 52:5 53:11284.456 54:12967.652 
0.080078125 1:2 2:18803.16 3:0 19:29 20:2825.3045 21:3338.8098 25:2 26:2166.4336 27:0 28:5 29:15547.072 30:26891.072 31:1 40:2 41:853.70133 42:0 43:9 44:9132.3852 45:13488 46:31 47:2783.8312 48:5481.1789 52:6 53:12874.811 54:17335.528 
0.080078125 16:1 19:51 20:1599.727 21:1920.6126 25:4 26:19003.233 27:14467.228 28:1 43:27 44:2995.3818 45:5344.3811 46:26 47:3139.8975 48:4783.7658 52:2 53:36478.379 54:0 
0.080078125 19:51 20:1588.0036 21:2411.1331 25:2 26:22030.75 27:0 28:1 37:1 43:10 44:8438.6878 45:9796.9357 46:29 47:2949.1586 48:4013.4216 52:4 53:21770.021 54:12481.895 
0.080078125 19:56 20:1562.0174 21:2592.3852 25:1 28:7 29:89.352087 30:94.396256 43:10 44:4414.3506 45:10852.243 46:34 47:2594.0186 48:8739.9165 52:2 53:79710.898 54:0 
0.080078125 19:79 20:1049.8408 21:2162.7576 25:7 26:9595.5376 27:11929.679 28:7 29:2764.1097 30:2502.1764 40:1 43:19 44:4337.6259 45:8926.2135 46:69 47:717.40123 48:1139.5806 52:6 53:12289.818 54:10532.302 
0.080078125 1:19 2:1562.7687 3:5001.5792 19:16 20:3827.0235 21:4464.976 25:3 26:26856.601 27:12378.277 43:9 44:6714.1997 45:13173.415 46:6 47:10156.311 48:8409.1638 52:20 53:3395.7611 54:5151.5261 
0.080078125 16:1 19:33 20:2494.3822 21:3587.4409 25:1 43:7 44:7017.596 45:9891.6141 46:8 47:11068.391 48:5948.9986 52:4 53:1607.7668 54:744.39979 
0.080078125 1:10 2:4962.5595 3:8320.2397 19:67 20:1263.659 21:2315.7688 25:2 26:27363.227 27:0 28:7 29:7520.6042 30:15919.394 43:9 44:5648.5398 45:10032.869 46:45 47:1603.7566 48:4617.7246 52:5 53:6734.7126 54:4516.6433 
0.080078125 1:5 2:5853.5921 3:4753.7741 7:1 13:1 19:58 20:1469.8953 21:1662.948 25:1 28:3 29:22479.152 30:21068.391 43:2 44:0.198578 45:0 46:17 47:4917.9343 48:10922.009 52:3 53:27852.992 54:2349.8198 55:2 56:75.875176 57:0 
0.080078125 19:41 20:2108.9462 21:2711.0555 25:3 26:26245.177 27:5759.6284 43:9 44:6561.3439 45:11723.448 46:13 47:6073.9031 48:10049.409 52:7 53:10472.303 54:10003.174 
0.080078125 1:4 2:3166.8285 3:2862.6206 19:38 20:2136.6445 21:3075.9927 25:5 26:17890.914 27:19956.303 37:1 43:13 44:5968.7669 45:11818.771 46:15 47:5392.8842 48:9599.8905 52:5 53:2859.6723 54:2513.3745 
0.080078125 19:23 20:3513.3426 21:5595.9463 25:1 28:2 29:55.850346 30:0 43:3 44:0.1984295 45:0.0007645 46:15 47:5176.4347 48:9961.7155 52:3 53:3028.0449 54:948.36745 
0.080078125 19:41 20:2002.7001 21:2419.0075 25:2 26:47294.587 27:0 34:1 43:7 44:11874.724 45:17815.335 46:18 47:4679.3369 48:6124.9228 52:2 53:60314.759 54:0 
0.080078125 13:1 19:30 20:2812.3248 21:3615.5874 25:3 26:37834.676 27:6676.5539 43:11 44:8154.7691 45:15217.639 46:14 47:5695.0492 48:10869.392 52:1 55:15 56:97.801668 57:122.66073 
0.080078125 19:35 20:2509.7319 21:2482.6893 25:1 28:3 29:32.861516 30:3.017734 43:8 44:6857.5066 45:15251.707 46:14 47:5636.2934 48:13180.766 52:3 53:22768.769 54:20018.719 
0.080078125 19:29 20:3000.3443 21:3559.4108 25:2 26:25349.961 27:0 28:1 43:7 44:7620.6876 45:10872.301 46:15 47:4650.2435 48:9596.4147 52:3 53:9140.1407 54:9117.4634 
0.080078125 13:1 19:31 20:2851.7159 21:2003.1586 25:1 28:1 43:5 44:11132.733 45:12807.677 46:19 47:3316.3137 48:3536.1586 52:4 53:20604.334 54:14174.56 
0.080078125 19:25 20:3234.3273 21:3947.5645 25:2 26:42912.783 27:0 43:7 44:7152.1964 45:10114.737 46:13 47:4520.633 48:5510.3201 
0.080078125 19:52 20:1682.73 21:1728.263 25:2 26:45256.314 27:0 28:1 43:9 44:7338.4839 45:8845.1144 46:28 47:2378.9454 48:3219.2352 52:4 53:14357.062 54:17604.297 
0.080078125 1:1 4:1 19:100 20:776.63894 21:966.92606 25:2 26:14966.952 27:0 28:15 29:4035.5963 30:7716.2213 43:11 44:4589.9983 45:7194.7564 46:102 47:791.42044 48:1608.7838 52:5 53:5558.6813 54:6501.3107 
0.080078125 19:34 20:2085.294 21:2643.428 25:2 26:43519.292 27:0 43:7 44:8278.9698 45:15919.168 46:1 52:4 53:2969.1623 54:1969.7985 
0.080078125 1:2 2:15067.449 3:0 4:1 19:35 20:2406.1021 21:3738.0068 25:1 43:3 44:0.1982565 45:0.0001815 46:13 47:3894.7813 48:4846.5801 52:3 53:21643.008 54:1186.8697 
0.080078125 19:73 20:1194.332 21:1599.6716 25:5 26:17103.198 27:7917.4352 28:8 29:6507.3189 30:7793.4041 37:1 43:20 44:4458.0601 45:7561.5156 46:71 47:1222.0358 48:2645.3154 52:4 53:16696.128 54:11951.644 
0.080078125 19:59 20:1448.5899 21:2394.9069 25:4 26:21681.149 27:8187.0393 28:6 29:1059.8199 30:691.45681 43:19 44:3721.0669 45:8692.806 46:44 47:1941.3489 48:3867.6176 52:6 53:10089.271 54:14498.447 
0.080078125 19:48 20:1767.7845 21:1966.8994 25:1 28:2 29:74289.111 30:0 43:5 44:18572.278 45:18943.783 46:30 47:2575.4199 48:5480.3717 52:2 53:52887.286 54:0 
0.080078125 1:2 2:5483.9219 3:0 13:1 19:46 20:1661.6008 21:1919.835 25:9 26:3565.6579 27:7532.5997 28:4 29:13550.861 30:19143.644 37:2 38:242.25728 39:0 43:20 44:1509.3459 45:5192.8527 46:44 47:1738.8846 48:4253.0396 52:14 53:1544.2 54:990.07904 55:2 56:5250.8681 57:0 
0.080078125 19:47 20:1792.5669 21:1730.2409 25:3 26:30875.668 27:12021.274 28:1 43:11 44:7864.8809 45:13000.979 46:48 47:1725.7423 48:3309.0665 55:9 56:7035.4064 57:9716.0633 
0.080078125 19:83 20:1017.4048 21:1763.0337 25:3 26:26920.879 27:19578.26 28:11 29:5023.7601 30:6923.0199 31:1 43:19 44:3075.6319 45:9177.4904 46:99 47:831.79818 48:1646.6129 52:1 55:6 56:14972.539 57:29865.469 
0.080078125 19:57 20:1499.1886 21:2127.7549 25:6 26:10478.403 27:5809.656 28:20 29:3803.5258 30:8390.0412 37:2 38:30147.086 39:0 40:1 43:21 44:2619.6206 45:5373.2463 46:113 47:743.84888 48:1925.8231 52:4 53:7987.6849 54:10148.895 55:1 
0.080078125 4:2 5:1917.9155 6:0 19:42 20:2020.6183 21:2200.2219 25:1 28:1 43:8 44:7976.4059 45:9580.998 46:30 47:2436.472 48:4230.5961 52:12 53:5133.9218 54:6031.9663 55:14 56:4483.8518 57:4926.1152 
0.080078125 1:1 4:2 5:59.902636 6:0 19:35 20:2276.4867 21:2364.6516 25:1 28:1 43:3 44:0.1978725 45:0.0003595 46:20 47:3634.2001 48:5558.7042 52:5 53:14993.002 54:12141.082 
0.080078125 16:1 19:20 20:4494.6172 21:5617.6296 43:2 44:64913.192 45:0 46:13 47:4655.0689 48:5537.344 52:9 53:7328.9359 54:5997.1673 
0.080078125 1:11 2:3782.0341 3:7903.6617 4:1 13:1 19:34 20:2562.9725 21:3407.8485 25:1 43:4 44:5520.1847 45:7806.44 46:6 47:13565.297 48:11244.021 52:7 53:12129.887 54:11185.78 
0.080078125 1:2 2:72.514524 3:0 19:45 20:1813.5785 21:2908.0583 25:4 26:6545.0659 27:9250.8677 28:13 29:3325.3496 30:10965.09 40:1 43:10 44:2181.7328 45:6158.6562 46:42 47:1569.601 48:4071.1898 52:6 53:10202.833 54:10969.92 
0.080078125 1:1 19:29 20:3015.0051 21:2785.6366 25:2 26:31973.031 27:0 28:1 43:5 44:7993.3572 45:13844.442 46:9 47:5524.9169 48:6937.8477 52:11 53:6612.9372 54:8800.4248 
0.080078125 4:1 13:1 19:39 20:2079.8806 21:2685.1192 22:5 23:15345.185 24:26178.765 25:2 26:55291.226 27:0 43:7 44:9215.2706 45:20605.572 46:1 52:1 
0.080078125 19:80 20:969.45083 21:1001.1972 22:3 23:5234.1312 24:3010.1592 25:3 26:13431.342 27:10110.354 28:4 29:49.452266 30:55.300395 43:21 44:3298.3729 45:3778.2665 46:83 47:878.50954 48:1367.8564 52:10 53:4197.5988 54:2642.3305 55:6 56:2783.5008 57:5321.057 
0.080078125 19:43 20:1679.675 21:1484.8586 25:2 26:7715.4818 27:0 43:14 44:4941.138 45:8772.0107 46:8 47:7035.4847 48:4612.2383 52:14 53:3216.4885 54:3923.3861 55:10 56:541.50961 57:352.17753 
0.080078125 19:21 20:3946.4066 21:4244.9042 25:1 28:3 29:21830.096 30:21781.026 43:6 44:6991.3864 45:8478.8188 46:21 47:3493.2206 48:6372.0695 52:7 53:2418.326 54:2965.1481 
0.080078125 19:90 20:882.47552 21:1283.1944 25:5 26:16273.466 27:22867.933 28:2 29:9564.6948 30:0 34:1 43:34 44:2459.8553 45:7616.067 46:55 47:1496.1483 48:4141.2627 52:4 53:9751.0892 54:3719.234 
0.080078125 1:2 2:37692.664 3:0 19:41 20:1965.8747 21:1752.9901 25:2 26:37452.683 27:0 28:1 43:12 44:3404.7893 45:4617.5632 46:16 47:5225.0603 48:9430.3384 52:2 53:5083.9743 54:0 
0.080078125 19:25 20:2997.9643 21:3500.1493 25:2 26:29980.166 27:0 43:9 44:4221.2069 45:9814.494 46:7 47:9977.239 48:12030.713 52:9 53:8039.2374 54:6981.4456 
0.080078125 4:1 16:1 19:115 20:716.27009 21:2130.0198 25:11 26:2870.6305 27:6375.5537 28:18 29:3645.5852 30:12400.547 31:1 34:3 35:538.37179 36:292.39331 43:60 44:1182.016 45:5672.6437 46:68 47:952.57353 48:4555.4117 52:15 53:3582.3962 54:3712.899 
0.080078125 19:45 20:1835.7878 21:1863.7037 25:2 26:28708.402 27:0 28:4 29:7.7752083 30:8.3611504 43:6 44:5741.7597 45:11483.122 46:13 47:6647.3433 48:14460.488 52:2 53:9684.5238 54:0 61:1 
0.080078125 1:1 19:37 20:2327.3925 21:2359.6265 25:1 43:6 44:5626.3043 45:10106.031 46:2 47:50636.501 48:0 52:8 53:8293.5492 54:5951.0867 
0.080078125 13:3 14:14598.142 15:8766.6355 19:33 20:2616.9942 21:3685.186 25:1 43:5 44:10531.973 45:18117.603 46:3 47:9005.2442 48:9005.1447 
0.080078125 19:39 20:2173.2645 21:2640.6409 22:5 23:1751.4508 24:2940.0452 25:1 28:1 43:6 44:11512.852 45:23025.356 46:10 47:7375.5548 48:17118.192 52:1 
0.080078125 19:24 20:3355.5717 21:4022.7824 25:1 28:1 43:4 44:7898.044 45:11169.24 46:14 47:5569.9055 48:10221.967 52:2 53:13015.387 54:0 55:7 56:141.32554 57:77.60601 
0.080078125 1:2 2:7322.7324 3:0 16:1 19:40 20:1971.0892 21:2468.3242 22:12 23:1281.0552 24:3947.2461 25:2 26:7891.2961 27:0 43:14 44:1882.8514 45:3458.0148 46:3 47:16279.299 48:7065.1382 52:17 53:3138.6382 54:6022.5898 61:1 
0.080078125 1:1 19:41 20:2041.7739 21:2288.318 25:1 28:10 29:67.116685 30:178.98964 40:1 43:4 44:17318.362 45:24491.581 46:42 47:1935.2134 48:6591.8504 52:8 53:6905.605 54:6274.6208 
0.080078125 19:20 20:4212.5051 21:3916.7162 25:9 26:20.82325 27:36.114043 28:1 43:20 44:11.099161 45:25.834679 46:4 47:329.72871 48:466.02676 52:3 53:26991.955 54:25190.615 
0.080078125 19:24 20:3490.0957 21:3255.3735 25:7 26:11617.009 27:19753.724 28:8 29:12.159398 30:13.866886 40:4 41:8081.8699 42:5480.8401 43:26 44:2788.1019 45:10826.519 46:34 47:792.93218 48:4469.9969 52:1 55:15 56:36.294388 57:50.326669 
0.080078125 19:33 20:2617.7783 21:2765.0758 25:2 26:11.145288 27:0 37:1 40:2 41:35389.838 42:0 43:5 44:2.8853787 45:4.7692532 46:1 52:2 53:20496.251 54:0 55:1 
0.080078125 1:2 2:10749.252 3:0 19:24 20:3341.326 21:3037.7679 25:1 43:3 44:0.2011305 45:0.0036205 46:1 52:8 53:9184.6486 54:7813.3445 
0.080078125 19:39 20:2001.3984 21:2741.0251 25:3 26:24075.18 27:24068.812 28:10 29:5295.8298 30:11241.349 43:11 44:4815.0756 45:14433.571 46:29 47:1702.3225 48:6835.5714 52:2 53:19526.62 54:0 
0.080078125 1:1 16:1 19:34 20:2578.9403 21:3513.6666 25:1 34:4 35:5492.6828 36:4816.6059 43:8 44:6289.0696 45:9342.8593 52:6 53:11411.545 54:9664.6616 
0.080078125 19:19 20:4421.6167 21:5999.8642 25:3 26:28697.35 27:14714.075 28:1 40:1 43:10 44:6377.2331 45:13527.92 46:6 47:4547.5244 48:9066.3492 52:12 53:7134.1935 54:6001.8122 
0.080078125 4:4 5:9.4096297 6:2.5325035 19:50 20:1645.2405 21:2191.2328 25:2 26:55914.581 27:0 28:4 29:2.3657763 30:0.47467505 43:7 44:11513.736 45:20430.291 46:20 47:2922.9532 48:4237.3534 52:1 
0.080078125 19:40 20:2020.4538 21:1958.6591 25:1 28:1 43:4 44:12374.481 45:17499.879 46:8 47:10701.163 48:14252.61 55:54 56:1120.2875 57:2280.3308 
0.080078125 19:58 20:1498.8258 21:1960.8604 25:1 43:7 44:13017.234 45:19664.301 46:11 47:8262.8874 48:15001.361 52:7 53:6233.5999 54:7159.9951 55:11 56:361.02647 57:421.44769 
0.080078125 1:1 19:27 20:2875.9674 21:3237.0524 25:2 26:42451.95 27:0 31:2 32:15.478156 33:0 43:9 44:9441.2785 45:13765.936 46:7 47:11947.447 48:13872.266 
0.080078125 19:35 20:2032.118 21:2361.5764 25:4 26:9003.3474 27:12444.459 28:7 29:2187.5779 30:4582.2121 40:2 41:149.07247 42:0 43:9 44:3376.3049 45:7102.3799 46:24 47:2023.3841 48:4182.2254 52:10 53:3163.591 54:8882.8972 
0.080078125 19:31 20:1938.5218 21:2800.5185 25:2 26:42294.78 27:0 28:2 29:3.721767 30:0 43:11 44:4753.4766 45:8355.2887 46:18 47:3161.9041 48:4234.3706 52:4 53:19720.503 54:13768.103 
0.080078125 19:29 20:3064.4943 21:3327.0231 25:4 26:25561.518 27:36123.858 28:4 29:34.229435 30:25.925821 40:1 43:14 44:5898.8422 45:20423.515 46:17 47:5254.6037 48:10201.225 52:6 53:15505.649 54:13089.015 61:1 
0.080078125 19:21 20:3532.1754 21:4913.2535 25:1 43:6 44:14632.911 45:17925.689 46:12 47:5702.1033 48:7117.9349 52:8 53:10161.929 54:4602.3957 
0.080078125 19:54 20:1529.5488 21:2750.6134 25:1 43:3 44:0.197947 45:0.0003 46:10 47:9007.2329 48:10129.179 52:7 53:13888.84 54:18412.14 
0.080078125 19:13 20:5784.7689 21:4779.093 25:2 26:66392.234 27:0 28:6 29:10339.319 30:20628.83 37:2 38:51674.946 39:0 43:7 44:11065.439 45:19693.163 46:22 47:3331.9586 48:7774.0308 52:5 53:16839.808 54:9289.5307 
0.080078125 19:22 20:3736.7929 21:4271.8657 25:2 26:44064.63 27:0 43:6 44:8813.0053 45:17625.619 46:2 47:0.197981 48:0 52:2 53:38188.829 54:0 55:1 
0.080078125 1:1 19:42 20:2037.6512 21:1717.0936 25:1 28:1 31:1 43:6 44:8924.2955 45:17848.245 46:3 47:18782.482 48:18782.283 52:4 53:8368.1117 54:5615.3634 
0.080078125 13:1 19:36 20:2415.8064 21:2691.0936 25:2 26:25995.925 27:0 43:6 44:5199.2626 45:10398.133 52:4 53:23767.296 54:16146.708 
0.080078125 13:1 19:27 20:2941.2038 21:5156.6333 25:6 26:2020.019 27:3746.1894 28:3 29:5.066907 30:0.149549 43:18 44:597.1828 45:2229.5194 46:13 47:3044.2163 48:10092.756 52:18 53:3427.9955 54:5570.0468 
0.080078125 19:77 20:944.15038 21:1373.2782 25:2 26:38832.457 27:0 43:6 44:7766.5706 45:15532.749 46:3 47:5020.5418 48:5020.3433 52:5 53:15810.334 54:5064.5709 
0.080078125 19:89 20:945.98183 21:1138.3895 25:4 26:8874.4684 27:12324.898 28:2 29:41236.144 30:0 43:12 44:2421.3199 45:7552.6406 46:8 47:5890.9366 48:9694.2784 52:7 53:3133.37 54:2159.4833 61:1 
0.080078125 19:28 20:3176.1261 21:4670.8123 22:4 23:419.78811 24:307.8584 25:1 28:1 43:3 44:0.1983245 45:0.0005245 46:4 47:2.4963117 48:3.2509131 52:1 
0.080078125 19:53 20:1618.145 21:2008.9442 22:2 23:279.27288 24:0 28:1 46:8 47:252.7759 48:591.50495 52:5 53:18362.976 54:24431.572 55:6 56:2076.1728 57:2446.4638 
0.080078125 1:1 19:34 20:2488.4054 21:3431.6708 25:2 26:17379.055 27:0 28:2 29:3.606799 30:0 37:1 40:2 41:427.68724 42:0 43:9 44:8234.0766 45:12980.216 46:6 47:15572.472 48:23658.725 52:3 53:34101.566 54:11855.029 55:21 56:4084.3481 57:9644.3818 
0.080078125 1:1 4:1 19:22 20:3471.0344 21:4218.6514 25:2 26:55587.416 27:0 28:2 29:16101.281 30:0 43:12 44:5063.1278 45:11837.554 46:3 47:8050.69 48:8050.591 52:10 53:4766.7081 54:5367.1068 55:15 56:632.81169 57:1002.3004 
0.080078125 19:27 20:3099.571 21:2030.7371 25:1 43:4 44:14638.085 45:20701.098 46:1 52:13 53:6638.4528 54:7160.8422 
0.080078125 19:67 20:1293.7088 21:1916.7561 25:2 26:14393.216 27:0 28:3 29:1210.3012 30:936.7961 40:2 41:224.9569 42:0 43:10 44:8450.8324 45:19341.385 46:8 47:345.90872 48:739.4664 52:6 53:13972.264 54:14043.372 
0.080078125 1:1 19:42 20:2060.635 21:3503.3498 25:3 26:41056.553 27:13960.783 43:10 44:9123.7227 45:17974.982 46:6 47:3653.123 48:2355.3848 52:1 
0.080078125 19:23 20:3632.4892 21:4951.4579 25:1 28:2 29:21966.837 30:0 43:6 44:6402.8915 45:11493.512 46:12 47:4643.7129 48:7988.0511 52:8 53:8453.8807 54:8169.404 
0.080078125 4:1 19:32 20:2735.3259 21:3331.3275 25:2 26:51069.266 27:0 40:1 43:8 44:10518.886 45:17339.392 46:4 47:3527.1009 48:4305.204 52:14 53:5921.4028 54:7363.2555 55:6 56:7.6359922 57:6.4338123 
0.080078125 1:1 19:44 20:1936.1195 21:2247.7974 25:1 37:1 43:4 44:4153.6933 45:5873.9291 46:4 47:10368.841 48:12607.176 52:1 
0.080078125 1:1 4:2 5:7.280144 6:0 19:50 20:1663.0176 21:2552.3337 25:2 26:30069.909 27:0 37:1 43:12 44:5344.3063 45:6168.6059 46:32 47:2225.8941 48:2317.332 
0.080078125 19:82 20:1039.2617 21:1428.2841 25:1 28:2 29:10773.883 30:0 43:15 44:4814.8632 45:8702.6486 46:53 47:1580.5965 48:1829.6334 52:2 53:39209.345 54:0 
0.080078125 19:47 20:1697.2216 21:2101.0734 22:13 23:1889.0893 24:2739.4066 25:1 43:3 44:0.198287 45:0.000844 46:5 47:19541.42 48:22782.069 52:9 53:3246.3456 54:5420.0641 
0.080078125 19:68 20:1277.4627 21:1667.1074 25:1 28:3 29:1962.9788 30:1917.4548 43:9 44:9412.0842 45:8459.4823 46:17 47:4942.0526 48:6176.3843 52:4 53:784.96393 54:359.01013 
0.080078125 1:1 19:125 20:666.06284 21:1502.6471 25:5 26:8108.1645 27:13054.754 28:17 29:3990.8231 30:4775.1653 43:29 44:2976.3926 45:4657.656 46:152 47:559.39299 48:1224.0006 52:3 53:31333.889 54:4634.8092 
0.080078125 19:87 20:997.88695 21:1511.4922 25:3 26:20498.538 27:8393.3907 28:6 29:12475.497 30:10816.91 34:1 43:32 44:2226.4102 45:2450.1136 46:66 47:1316.7374 48:1566.4548 52:2 53:28347.884 54:0 55:9 56:7914.7144 57:11918.37 
0.080078125 19:51 20:1666.0922 21:2421.8454 25:1 28:6 29:3947.0129 30:5575.4213 43:4 44:4024.3343 45:5690.9883 46:39 47:2194.0823 48:4347.7427 52:1 
0.080078125 19:82 20:1052.8583 21:1170.0613 25:13 26:6875.7233 27:14584.685 28:3 29:10379.013 30:5908.2926 37:1 43:33 44:2578.4116 45:7854.7965 46:39 47:2170.4646 48:3140.0709 52:10 53:2415.0892 54:3696.6074 55:1 
0.080078125 16:1 19:50 20:1628.1819 21:1928.6046 25:1 28:1 43:9 44:7449.7335 45:9620.7183 46:22 47:3326.8227 48:6786.2748 55:9 56:9517.8033 57:10292.161 
0.080078125 1:1 4:1 19:48 20:1793.643 21:3939.9683 25:4 26:379.80331 27:513.53003 28:7 29:12198.066 30:20212.263 40:14 41:5508.3157 42:5936.8087 43:12 44:4977.1865 45:12245.038 46:40 47:1876.6493 48:6156.3523 52:15 53:4344.5156 54:5561.1023 55:10 56:7037.135 57:10875.781 61:1 
0.080078125 4:1 7:8 8:3702.2795 9:8690.1937 19:56 20:1524.89 21:1768.2878 25:2 26:36732.207 27:0 28:1 37:1 40:9 41:5317.3374 42:5564.5842 43:10 44:4081.4004 45:7636.4375 46:16 47:4464.6152 48:8271.1303 52:5 53:12189.832 54:12055.243 55:7 56:6098.7739 57:13483.864 
0.080078125 19:136 20:570.83801 21:934.02242 22:8 23:208.00262 24:72.296961 25:5 26:15457.432 27:14631.406 28:9 29:7319.4325 30:9402.835 34:1 43:23 44:3283.3699 45:7016.828 46:107 47:715.65637 48:1870.6767 52:3 53:3366.0358 54:2521.9896 
0.080078125 19:62 20:1356.3281 21:1554.8733 25:5 26:3092.2079 27:5026.6586 28:2 29:211.21786 30:0 43:15 44:4036.8023 45:8067.7852 46:53 47:1517.3713 48:2076.9906 52:3 53:39378.35 54:19278.034 55:17 56:429.50515 57:465.53325 
0.080078125 19:48 20:1791.6632 21:1858.3164 25:2 26:45960.453 27:0 28:6 29:2459.7611 30:2009.042 43:12 44:4411.3225 45:8784.5641 46:42 47:2070.4275 48:3429.1696 52:9 53:7292.5007 54:7706.1292 
0.080078125 4:1 19:90 20:852.01673 21:1361.2938 25:2 26:29728.338 27:0 28:13 29:1043.8632 30:3384.4066 31:3 32:25.578449 33:1.377893 43:11 44:2986.225 45:8913.9416 46:65 47:1163.1407 48:2561.9375 52:9 53:10672.414 54:21768.423 55:4 56:10370.039 57:7160.6239 
0.080078125 19:81 20:1076.5182 21:1890.8632 25:4 26:11471.019 27:11338.021 28:2 29:2985.4937 30:0 34:1 43:26 44:2621.5858 45:7437.547 46:39 47:2266.354 48:8872.3548 52:4 53:2402.8799 54:1305.2676 55:35 56:1796.3165 57:3312.6676 
0.080078125 16:1 19:153 20:559.55552 21:934.20516 25:13 26:4445.8213 27:9411.6938 28:6 29:4169.4714 30:2800.7045 43:49 44:1400.9676 45:3215.1265 46:95 47:813.42945 48:2559.8416 
0.080078125 19:116 20:710.83857 21:767.81314 25:5 26:12087.647 27:12068.773 28:2 29:1235.3497 30:0 34:2 35:76523.117 36:0 37:2 38:899.49282 39:0 43:29 44:2861.8894 45:4100.5704 46:81 47:1007.0093 48:1211.7112 
0.080078125 19:71 20:1188.3593 21:2970.4517 25:3 26:26841.842 27:23168.657 28:6 29:2463.0122 30:2710.125 43:22 44:2605.2261 45:3438.8767 46:47 47:1197.8214 48:2280.6373 52:14 53:6477.8626 54:7037.1871 
0.080078125 16:1 19:131 20:608.98902 21:1247.9784 22:11 23:537.80635 24:1079.5315 25:31 26:2197.9812 27:8495.1842 28:9 29:5407.1706 30:8755.159 43:88 44:760.12139 45:4112.7807 46:62 47:732.14584 48:1600.3763 52:2 53:291.33905 54:0 
0.080078125 19:88 20:951.89181 21:1660.1517 25:5 26:13337.406 27:20216.672 28:3 29:16985.555 30:16373.983 43:20 44:3911.7621 45:7545.255 46:54 47:1118.2756 48:1638.6318 52:8 53:8426.1894 54:10455.241 
0.080078125 19:112 20:684.07139 21:1024.167 25:22 26:2186.4191 27:9687.7744 28:6 29:10213.229 30:12600.218 34:2 35:17851.827 36:0 43:70 44:1075.555 45:5472.9133 46:59 47:998.63695 48:3494.2648 52:1 55:39 56:1253.1848 57:3898.7025 
0.080078125 19:57 20:1466.6728 21:1980.458 25:19 26:3754.7935 27:9051.72 28:1 34:2 35:105.16601 36:0 37:1 40:2 41:248.24112 42:0 43:68 44:1088.3663 45:2371.8311 46:29 47:3067.9479 48:4796.2533 52:6 53:5592.4903 54:4417.1055 55:26 56:1097.7364 57:1589.1013 
0.080078125 19:113 20:633.47753 21:903.50491 25:5 26:11845.309 27:7830.9114 28:6 29:11757.877 30:13803.108 43:46 44:1325.5934 45:1996.6449 46:82 47:876.05717 48:1126.9902 
0.080078125 1:1 19:271 20:312.47873 21:674.58838 25:12 26:5654.9015 27:5002.6686 28:31 29:2014.882 30:2663.1661 34:2 35:35038.679 36:0 43:86 44:876.42401 45:1088.0166 46:225 47:317.63048 48:431.18267 52:1 
0.080078125 7:3 8:13579.631 9:11003.211 19:75 20:1093.0125 21:1341.1969 25:5 26:6548.0425 27:10670.509 28:5 29:12596.725 30:18776.218 43:23 44:2375.6123 45:3617.9625 46:67 47:1137.4495 48:2305.5605 
0.080078125 7:1 19:116 20:714.88204 21:1207.4376 25:2 26:20989.392 27:0 28:18 29:1506.5523 30:3296.8948 31:1 43:15 44:2096.2819 45:2670.1433 46:114 47:596.33731 48:2390.3268 52:6 53:5357.928 54:6767.3663 
0.080078125 7:5 8:1781.3437 9:1731.106 19:78 20:719.79608 21:2102.2545 25:3 26:22979.123 27:8859.1601 28:8 29:7387.5509 30:6668.8742 34:1 43:29 44:1982.225 45:4170.2033 46:55 47:1025.2196 48:2865.1145 
0.080078125 7:15 8:3318.0023 9:10600.578 19:275 20:299.8696 21:701.18986 25:6 26:12065.658 27:14294.137 28:41 29:2028.2394 30:3086.5474 34:2 35:6623.6055 36:0 43:66 44:1173.7757 45:2748.2022 46:261 47:314.86773 48:812.83575 52:6 53:8806.574 54:7403.8588 55:13 56:5205.62 57:8863.7243 
0.080078125 19:262 20:316.13431 21:478.46345 25:9 26:7692.7886 27:7640.0705 28:29 29:1933.3805 30:3622.6143 34:1 43:64 44:1063.1577 45:1520.7825 46:226 47:331.16467 48:525.14758 52:1 55:9 56:138.86768 57:73.79484 
0.080078125 19:69 20:1261.9031 21:1246.7689 25:1 28:1 43:5 44:8788.7715 45:10537.896 46:18 47:3962.4282 48:4059.2189 
0.080078125 1:6 2:11499.586 3:22728.892 19:221 20:391.25233 21:1143.0173 25:9 26:7766.6393 27:10279.157 28:35 29:1055.9761 30:1794.5257 34:1 37:2 38:1512.2664 39:0 43:48 44:1611.617 45:3160.2044 46:199 47:356.25812 48:1206.619 52:1 64:7 65:3891.2147 66:8649.424 
0.080078125 19:81 20:1052.6573 21:1402.2932 25:8 26:9791.5158 27:10249.496 28:6 29:15731.672 30:15676.496 43:30 44:2363.483 45:3326.0986 46:54 47:1542.4975 48:2380.6224 52:2 53:1736.0565 54:0 
0.080078125 16:1 19:97 20:849.2792 21:1834.2078 25:3 26:9656.0884 27:4300.9305 28:17 29:3462.9021 30:6131.2141 43:11 44:1931.2177 45:4223.8674 46:111 47:729.30493 48:2223.2269 52:4 53:12536.1 54:2329.2484 
0.080078125 1:1 19:40 20:2091.2743 21:3701.7196 25:1 43:5 44:2094.2981 45:3589.1244 46:10 47:2829.4234 48:3829.77 52:7 53:10297.596 54:7533.6397 
0.080078125 1:6 2:6700.6451 3:13010.112 16:1 19:32 20:2728.5372 21:3709.108 25:4 26:26907.269 27:21289.243 28:2 29:4.9318 30:0 43:14 44:6209.4003 45:12972.672 46:12 47:7349.4466 48:14798.894 52:19 53:4165.1305 54:4239.6089 
0.080078125 1:4 2:19120.933 3:7712.87 4:1 19:27 20:3027.6032 21:5420.1677 25:3 26:21750.671 27:5326.918 28:7 29:56.609627 30:107.47401 43:9 44:5437.7174 45:9776.8148 46:20 47:1433.1486 48:4230.4061 52:16 53:4716.0496 54:4492.1339 
0.080078125 1:3 2:20271.76 3:18424.453 19:41 20:1743.029 21:2726.4416 25:6 26:13072.709 27:9382.5494 34:3 35:2982.2811 36:1146.6535 43:27 44:2513.9976 45:5729.6605 46:19 47:3849.0185 48:7063.2265 52:27 53:3037.6321 54:2210.229 55:18 56:1903.4347 57:5035.1845 
0.080078125 19:11 20:5327.4377 21:6171.4716 25:3 26:20222.626 27:754.89696 34:1 43:10 44:5740.4379 45:8487.2016 46:2 47:18306.911 48:0 52:8 53:10039.789 54:13720.357 55:32 56:2778.6427 57:11742.55 
0.080078125 19:11 20:7703.3023 21:5562.6725 25:3 26:30795.291 27:23159.423 43:11 44:7703.3222 45:10787.168 
0.080078125 19:15 20:5862.5215 21:13017.138 25:1 43:5 44:10890.011 45:12693.243 46:5 47:20166.789 48:27235.463 52:14 53:3151.7607 54:2884.4184 
0.080078125 1:10 2:1637.6262 3:4555.5331 19:136 20:561.55417 21:1160.3892 22:12 23:112.51655 24:174.18516 25:9 26:7587.3673 27:9171.8017 28:15 29:3279.8994 30:6717.5466 34:6 35:8754.0125 36:6901.4898 43:69 44:1114.9341 45:2465.5616 46:90 47:831.3684 48:1604.9271 52:9 53:5730.67 54:6644.3432 
0.080078125 1:1 19:7 20:9204.5764 21:8985.4522 28:1 43:3 44:0.1488675 45:0.0491485 46:4 47:14496.499 48:11278.519 52:9 53:8442.6389 54:8780.7443 55:1 
0.080078125 1:17 2:2182.8059 3:4544.1868 19:15 20:2623.5413 21:4562.7063 25:1 28:3 29:12.212122 30:9.9555895 43:4 44:10674.832 45:15096.211 46:15 47:2340.004 48:4635.8159 52:11 53:7312.2954 54:9276.1954 55:1 
0.080078125 1:1 19:15 20:5417.4794 21:5254.9629 25:2 26:27578.953 27:0 28:1 43:9 44:3448.2754 45:7496.3283 46:8 47:11141.312 48:17304.373 52:26 53:3228.4449 54:3616.5148 
0.080078125 1:7 2:6278.0754 3:8887.5931 19:42 20:1889.0624 21:3604.2737 25:4 26:19940.155 27:6189.4628 28:4 29:10840.659 30:13888.828 43:18 44:4911.7704 45:8515.2917 46:34 47:2171.5337 48:5174.3492 52:19 53:4049.2931 54:3206.8551 55:11 56:2971.9253 57:6485.7239 
0.080078125 19:12 20:6924.3046 21:12987.18 25:2 26:25081.157 27:0 28:4 29:17744.114 30:25072.072 43:7 44:4180.2588 45:9347.0322 46:11 47:7614.9232 48:12473.33 52:7 53:967.13803 54:945.00235 55:12 56:2111.3515 57:3077.2955 
0.080078125 19:103 20:816.25316 21:1715.9204 25:2 26:45448.258 27:0 28:7 29:7740.1409 30:7443.8361 31:1 37:1 43:20 44:3181.5562 45:8760.2025 46:59 47:1385.5577 48:3746.73 52:6 53:12564.483 54:17280.045 
0.080078125 19:15 20:5220.8463 21:8537.8886 25:2 26:45780.656 27:0 43:8 44:9830.2271 45:16689.621 46:13 47:5380.8773 48:11835.971 52:14 53:2209.0731 54:4171.3077 55:63 56:1320.385 57:3513.501 
0.080078125 19:5 20:125.00686 21:70.636342 43:4 44:166.67155 45:90.619896 46:1 52:2 53:2859.8482 54:0 
0.080078125 1:3 2:34827.739 3:6569.6099 19:98 20:767.36713 21:1833.2768 25:13 26:6196.016 27:9272.0379 28:20 29:3917.2198 30:10479.649 43:70 44:1077.568 45:2601.1595 46:59 47:1283.434 48:5337.3245 52:3 53:895.04787 54:335.3561 
0.080078125 1:6 2:1125.668 3:1102.9717 7:1 19:60 20:1383.4249 21:3090.6601 25:2 26:39576.102 27:0 28:9 29:6433.5552 30:12083.738 34:2 35:14591.998 36:0 37:1 40:2 41:2265.879 42:0 43:9 44:5643.3517 45:9064.8053 46:63 47:1065.5132 48:3970.3257 49:1 52:21 53:3601.393 54:3627.5985 55:4 56:4087.6596 57:3296.1187 
0.080078125 19:22 20:3575.1395 21:4999.8585 25:2 26:820.62995 27:0 28:3 29:22218.322 30:22205.97 37:4 38:324.91466 39:62.817614 40:6 41:325.79615 42:125.95453 43:6 44:168.48556 45:255.23862 46:21 47:3640.8873 48:6912.6874 52:1 55:6 56:609.88036 57:686.76795 
0.080078125 19:24 20:3466.078 21:5171.5828 25:3 26:32610.241 27:10858.951 28:5 29:2128.7349 30:2126.0378 43:9 44:8152.6097 45:15128.273 46:32 47:2588.9337 48:6127.7658 52:4 53:22691.197 54:16963.139 
0.080078125 1:1 19:28 20:2762.5491 21:3479.64 25:2 26:47029.923 27:0 28:5 29:11771.958 30:7909.1831 37:1 43:6 44:9406.0639 45:18811.731 46:23 47:3074.3015 48:6746.5443 52:5 53:15836.129 54:12267.399 
0.080078125 1:4 2:191.57739 3:137.47037 19:73 20:1112.4326 21:2262.4719 25:5 26:15108.143 27:10974.648 28:15 29:3648.5574 30:9179.2253 43:29 44:2863.3798 45:5738.9823 46:71 47:731.48718 48:3003.4723 52:17 53:4158.2097 54:6842.0055 55:13 56:1016.9736 57:1255.9359 
0.080078125 19:34 20:1309.3745 21:1698.7525 25:4 26:483.52032 27:629.57342 28:4 29:2662.9673 30:3610.6495 43:13 44:120.91319 45:377.76913 46:14 47:3299.4415 48:6744.1776 52:5 53:11975.487 54:10731.147 
0.080078125 19:45 20:1936.6564 21:2068.013 25:4 26:24108.332 27:3368.5466 28:1 37:3 38:27551.285 39:26417.25 43:14 44:5563.4993 45:9447.66 46:16 47:2983.4174 48:4196.5044 52:6 53:14144.367 54:12954.09 
0.080078125 19:50 20:1450.6157 21:1708.4994 22:46 23:969.15828 24:1787.4061 25:3 26:30897.994 27:11502.64 28:4 29:14064.802 30:7323.477 31:2 32:43.422818 33:0 43:10 44:6866.2649 45:9379.8253 46:28 47:2657.5923 48:5465.3916 52:1 55:15 56:2889.279 57:6336.4106 
0.080078125 19:61 20:1424.5033 21:1726.1981 22:14 23:1592.8074 24:4762.9981 25:4 26:8557.0091 27:7829.7991 28:1 43:10 44:2852.3804 45:6058.4081 46:6 47:2040.4754 48:4080.0346 52:3 53:10953.516 54:7556.7888 61:1 
0.080078125 4:11 5:1599.0529 6:1887.2073 19:4 20:20405.962 21:13977.773 25:3 26:39583.935 27:6341.4151 43:10 44:8796.4741 45:16725.533 46:1 52:14 53:5198.7105 54:8490.9494 
0.080078125 19:12 20:6559.738 21:10176.747 25:2 26:28892.272 27:0 43:7 44:4815.4449 45:10767.263 46:8 47:2947.8741 48:2801.0198 52:6 53:10598.17 54:10128.949 
0.080078125 19:12 20:7417.278 21:11093.718 25:3 26:22343.872 27:10452.274 28:2 29:6723.2012 30:0 37:3 38:33667.687 39:9602.9467 43:10 44:4965.3488 45:10444.469 46:11 47:3523.4848 48:8428.0281 52:19 53:3931.0267 54:5576.012 
0.080078125 4:1 19:13 20:6435.7245 21:10955.874 22:7 23:702.61784 24:860.43244 25:3 26:547.67003 27:542.01471 28:7 29:1024.2457 30:1693.5175 43:13 44:6529.1553 45:20945.741 46:30 47:2425.8517 48:11683.726 52:11 53:7525.2483 54:11840.157 
0.080078125 19:63 20:1082.0573 21:2593.3237 22:9 23:527.2068 24:552.33665 25:2 26:44272.298 27:0 28:9 29:1612.6231 30:1538.7117 31:1 43:10 44:4919.1883 45:11065.784 46:59 47:1230.6153 48:5251.4548 52:26 53:3253.9375 54:2812.0245 
0.080078125 19:45 20:1707.1625 21:2643.2793 22:10 23:6413.1528 24:17392.649 25:2 26:60214.854 27:0 28:8 29:9290.623 30:10903.806 37:2 38:282.56418 39:0 43:13 44:5888.7445 45:12321.676 46:49 47:1561.0695 48:4148.8348 52:5 53:11851.919 54:8000.6949 
0.080078125 19:33 20:2558.8126 21:6514.6118 25:2 26:4625.9239 27:0 28:8 29:8300.764 30:12798.347 43:8 44:5943.2505 45:12300.305 46:34 47:2481.2727 48:6875.5438 52:6 53:8463.2969 54:7845.4423 61:1 
0.080078125 1:1 4:1 19:10 20:5002.7421 21:7556.1555 22:1 25:4 26:8383.8572 27:5949.6252 28:5 29:15593.108 30:13939.358 37:1 43:11 44:3023.1492 45:5014.4653 46:23 47:2835.1295 48:7812.0102 52:4 53:15665.268 54:18709.244 55:2 56:8544.564 57:0 
0.080078125 1:1 19:96 20:842.66686 21:1195.2096 25:20 26:4314.5598 27:11032.875 28:10 29:8334.4332 30:14703.684 34:1 43:64 44:1306.7553 45:3810.3861 46:76 47:1055.5723 48:1659.3682 52:1 55:14 56:2757.2671 57:6370.989 
0.080078125 19:50 20:1692.1278 21:4893.0789 25:4 26:15752.529 27:15605.897 28:3 29:39949.188 30:39935.729 43:21 44:4137.7572 45:9201.4607 46:24 47:3520.5643 48:13501.072 52:18 53:4832.6502 54:4963.6905 
0.080078125 19:13 20:6580.617 21:6404.825 25:2 26:45219.41 27:0 28:1 43:10 44:6812.0079 45:13433.668 46:7 47:3293.7057 48:3477.8563 52:1 55:1 
0.080078125 19:32 20:2136.9517 21:3316.3478 25:3 26:32870.42 27:10822.659 28:1 43:9 44:8217.6544 45:15227.024 46:4 47:0.13916833 48:0.042606561 52:1 
0.080078125 19:12 20:7558.958 21:7464.5476 25:3 26:26947.7 27:2498.5045 34:1 43:11 44:5389.5796 45:10550.394 46:2 47:4.366412 48:0 52:1 
0.080078125 19:14 20:6037.8445 21:5443.7627 25:1 43:3 44:0.198491 45:0.000671 46:1 
0.080078125 19:39 20:2257.9008 21:2841.5221 25:2 26:42165.963 27:0 28:1 40:1 43:7 44:7027.7269 45:12353.375 46:6 47:11913.425 48:23806.817 52:19 53:2897.5078 54:6189.8505 
0.080078125 19:19 20:4713.3447 21:8573.955 25:1 28:3 29:3160.5317 30:1777.1017 43:4 44:5.986904 45:8.1864291 46:14 47:4941.5321 48:15339.978 52:7 53:11218.288 54:14313.711 
0.080078125 1:1 4:2 5:13.135855 6:0 19:11 20:8008.451 21:9842.5392 25:1 43:5 44:16981.902 45:28215.715 46:4 47:14887.183 48:17757.781 52:16 53:4505.1174 54:5576.4314 
0.080078125 19:39 20:2007.5379 21:1930.0682 25:1 43:1 46:12 47:2859.8457 48:4605.4304 52:4 53:13996.01 54:17943.239 
0.080078125 16:1 19:31 20:2589.27 21:2873.7236 25:3 26:24072.945 27:13814.719 43:10 44:5349.5874 45:8507.1139 46:5 47:9474.6296 48:10535.51 52:40 53:1569.9294 54:2856.7411 
0.080078125 4:1 19:33 20:2592.4691 21:2970.0723 28:2 29:12.948398 30:0 37:1 43:5 44:5342.882 45:6441.035 46:22 47:3703.7903 48:6797.5615 52:182 53:408.76358 54:1607.3112 64:7 65:6.5606365 66:9.0528464 
0.080078125 19:43 20:1907.4727 21:2566.9409 25:4 26:14565.931 27:11823.055 28:3 29:31737.596 30:25311.281 37:1 43:23 44:3191.833 45:6707.8925 46:29 47:2496.2127 48:2881.0936 52:3 53:32329.182 54:25620.185 
0.080078125 19:47 20:1844.9941 21:2739.2596 25:3 26:22107.61 27:20510.342 28:2 29:17.23919 30:0 37:2 38:1850.6972 39:0 43:8 44:6316.5168 45:14830.073 46:6 47:14534.329 48:29054.299 52:16 53:3815.4451 54:7302.9746 
0.080078125 19:10 20:2852.2396 21:2424.3408 25:1 43:4 44:3899.1881 45:5514.0045 46:3 47:5864.2925 48:5864.0937 52:9 53:3859.8801 54:2618.1046 
0.080078125 19:9 20:4954.9667 21:5756.3683 25:2 26:20876.958 27:0 37:2 38:990.91242 39:0 43:6 44:4175.4694 45:8350.5469 46:1 52:22 53:1920.1231 54:3467.5992 
0.080078125 19:41 20:2072.2046 21:2443.902 25:3 26:26917.151 27:20282.055 43:9 44:6729.3372 45:15449.366 46:19 47:4552.3567 48:5407.0329 52:22 53:3751.7442 54:6023.7575 
0.080078125 19:47 20:1788.2527 21:2454.4482 25:3 26:35380.012 27:35324 28:9 29:1968.7449 30:3023.7539 37:2 38:198.12597 39:0 43:11 44:7076.0419 45:14146.164 46:42 47:1991.1161 48:8531.4118 52:31 53:1931.1449 54:4425.5184 61:1 
0.080078125 19:16 20:5404.8743 21:6303.1606 25:2 26:43699.149 27:0 28:2 29:24818.777 30:0 37:6 38:10036.384 39:9244.4769 43:8 44:6257.6809 45:15285.255 46:11 47:6858.0759 48:11922.49 52:31 53:2304.4677 54:5274.6516 
0.080078125 19:24 20:3636.7941 21:2995.3972 25:3 26:15444.59 27:3216.2132 28:8 29:18.847534 30:28.610587 37:2 38:12417.44 39:0 43:11 44:3088.9576 45:4998.4171 46:23 47:592.12498 48:2684.6261 52:14 53:5558.2807 54:9838.4184 
0.080078125 19:44 20:1982.9508 21:4131.6485 25:5 26:20597.635 27:20782.792 28:2 29:419.85978 30:0 37:1 43:26 44:3352.2591 45:11132.435 46:12 47:65.31093 48:48.082537 52:25 53:3167.3017 54:7542.5209 
0.080078125 19:49 20:1654.5318 21:2781.4813 25:5 26:17840.903 27:11188.339 28:6 29:9760.5792 30:15535.436 37:4 38:5285.6703 39:7257.9366 43:22 44:3612.6222 45:8468.8491 46:33 47:2381.837 48:5819.582 52:26 53:2158.9353 54:2604.1126 
0.080078125 19:11 20:8327.9344 21:7765.1787 25:1 28:1 43:4 44:28.556684 45:40.105006 46:5 47:10741.559 48:17297.131 52:21 53:4108.0092 54:6458.7887 
0.080078125 1:2 2:46878.807 3:0 19:34 20:2308.1406 21:2553.5029 25:3 26:24168.299 27:24165.434 28:3 29:30766.405 30:17066.027 37:2 38:12810.999 39:0 43:8 44:8848.4244 45:16788.869 46:14 47:4733.4458 48:12916.528 52:18 53:3925.6694 54:4377.9519 55:4 56:330.64153 57:123.42235 
0.080078125 19:36 20:2396.7393 21:3070.1615 25:3 26:22281.922 27:22055.646 28:5 29:15.23749 30:8.6633279 37:1 40:1 43:8 44:6366.32 45:15501.65 46:22 47:665.99113 48:2131.4288 52:8 53:10742.525 54:9489.9791 61:1 
0.080078125 19:19 20:3475.2426 21:5007.005 25:2 26:45802.303 27:0 43:7 44:7633.7833 45:17069.304 52:13 53:6273.2015 54:9851.9029 
0.080078125 4:1 19:48 20:1258.3472 21:1703.0579 25:3 26:27999.738 27:15806.675 28:1 43:13 44:4666.656 45:6601.7173 46:13 47:1494.3467 48:4793.0608 52:53 53:1545.2852 54:1922.4038 
0.080078125 19:21 20:3782.3165 21:4078.6466 25:1 43:4 44:14468.536 45:20461.32 52:37 53:2080.3135 54:2991.1031 
0.080078125 1:2 2:22102.864 3:0 19:44 20:1159.8376 21:2165.4682 25:6 26:8976.2465 27:7512.3313 28:5 29:437.15803 30:334.66156 43:16 44:2992.1086 45:4748.884 46:44 47:690.55457 48:1516.5051 52:50 53:1715.281 54:2395.7336 
0.080078125 19:23 20:3857.036 21:5572.8098 25:2 26:43903.97 27:0 43:6 44:8780.8733 45:17561.35 52:38 53:1570.0984 54:1944.6125 
0.080078125 1:3 2:13.071763 3:5.1648005 19:29 20:2877.5216 21:2037.0495 25:2 26:35767.843 27:0 28:5 29:4841.1787 30:4922.309 37:5 38:16350.063 39:17605.529 43:6 44:7153.6477 45:14306.899 46:17 47:1210.3195 48:3232.7533 52:4 53:15553.143 54:19523.46 
0.080078125 1:1 19:20 20:4310.1746 21:6232.9922 25:2 26:43385.918 27:0 28:1 37:1 43:6 44:8677.2629 45:17354.129 46:4 47:7.201262 48:9.9042919 52:12 53:6446.3914 54:8678.2616 
0.080078125 1:2 2:2.607648 3:0 19:52 20:1548.9366 21:2741.5472 25:2 26:45462.981 27:0 28:4 29:23083.271 30:25543.774 43:16 44:3560.4087 45:10662.495 46:22 47:3311.2437 48:5865.9821 52:10 53:5793.4829 54:7581.8672 
0.080078125 1:1 19:47 20:1831.7243 21:2483.9843 25:2 26:45193.564 27:0 28:2 29:1265.0207 30:0 43:6 44:9038.792 45:18077.188 46:24 47:3660.5759 48:6676.9283 52:12 53:7268.0546 54:7457.3507 55:1 
0.080078125 19:31 20:2523.7392 21:2659.2448 25:2 26:48531.293 27:0 28:2 29:14829.027 30:0 43:8 44:11058.772 45:18256.917 46:15 47:5527.9345 48:12277.77 52:9 53:9934.5007 54:7691.3785 
0.080078125 1:1 7:1 19:18 20:3836.1979 21:7868.5703 25:2 26:56175.754 27:0 37:2 38:61.201282 39:0 43:7 44:9362.6917 45:19014.658 46:5 47:11140.668 48:19139.122 
0.080078125 1:1 19:10 20:8832.2428 21:10018.835 25:1 28:4 29:16595.601 30:13648.497 37:2 38:39228.493 39:0 43:5 44:11311.811 45:19581.93 46:17 47:3112.241 48:8474.6176 52:3 53:24120.527 54:3165.5729 
0.080078125 1:1 19:43 20:1805.0445 21:2501.9621 25:2 26:51278.075 27:0 40:3 41:3476.1146 42:3341.5987 43:8 44:7325.4958 45:11944.914 46:2 47:1977.9321 48:0 52:2 53:27075.227 54:0 
0.080078125 16:1 19:32 20:2697.6752 21:4352.6672 25:1 28:1 40:1 43:2 44:53693.335 45:0 46:9 47:9592.3708 48:12025.643 52:6 53:15006.169 54:12849.96 
0.080078125 16:1 19:31 20:2818.381 21:3485.2833 25:2 26:57224.073 27:0 28:7 29:13865.196 30:18695.934 37:2 38:8885.4831 39:0 40:1 43:11 44:6131.6449 45:15017.927 46:38 47:2294.0879 48:6443.549 52:9 53:9019.2141 54:16200.879 
0.080078125 1:2 2:56.216359 3:0 19:16 20:5455.4984 21:7066.3126 25:2 26:19283.678 27:0 28:1 43:7 44:11186.146 45:17837.427 46:8 47:10129.919 48:23307.527 52:10 53:3810.2607 54:4516.5068 
0.080078125 1:1 19:13 20:6211.3873 21:5294.12 25:1 28:2 29:70098.389 30:0 37:1 43:4 44:15989.39 45:22612.133 46:7 47:11683.135 48:26123.919 52:18 53:4146.785 54:8745.1711 
0.080078125 4:1 19:12 20:5664.3533 21:6807.5033 25:1 28:5 29:11567.62 30:7225.6938 37:2 38:18068.099 39:0 43:3 44:0.1979925 45:4.45e-05 46:20 47:2785.9856 48:5806.3663 52:15 53:4591.4147 54:6212.0158 
0.080078125 19:4 20:17839.033 21:16784.837 28:4 29:23054.616 30:32501.017 37:2 38:68633.686 39:0 46:12 47:6478.3973 48:13405.531 52:20 53:4130.3762 54:5994.6506 
0.080078125 19:6 20:17198.563 21:10702.179 25:2 26:54135.543 27:0 28:4 29:20073.53 30:13001.355 37:1 43:6 44:10827.188 45:21653.979 46:18 47:5050.3272 48:10679.104 52:39 53:2007.4427 54:2915.6481 55:60 56:1236.8062 57:2350.7399 
0.080078125 19:31 20:2721.5686 21:5355.3727 25:1 28:1 43:27 44:2862.9616 45:8036.3031 46:12 47:3726.6353 48:7877.3709 52:12 53:5379.4616 54:4900.6884 
0.080078125 19:13 20:6535.0343 21:12303.234 25:3 26:34155.927 27:13920.553 28:4 29:25850.971 30:26647.486 43:12 44:6210.8903 45:14448.773 46:21 47:3921.0503 48:13828.723 52:2 53:57808.682 54:0 
0.080078125 19:22 20:2966.3553 21:5921.1572 25:1 28:5 29:13747.395 30:13868.365 43:4 44:504.06414 45:712.57408 46:32 47:1776.6992 48:5188.6624 52:16 53:4803.9723 54:6089.7551 
0.080078125 19:9 20:6138.5249 21:7853.3804 25:3 26:29829.694 27:1427.4855 28:2 29:126.95424 30:0 43:8 44:8522.8264 45:13496.981 46:15 47:2145.3188 48:4886.6217 49:47 50:1.3919465 51:2.7609755 52:4 53:3183.1464 54:3409.285 
0.080078125 19:7 20:7061.2693 21:8634.0532 25:2 26:23982.907 27:0 28:1 43:7 44:7459.1338 45:10589.177 46:7 47:2839.4758 48:6348.1872 52:3 53:9410.8721 54:7099.6558 55:29 56:2462.1351 57:3894.6758 
0.080078125 19:6 20:10992.11 21:9380.734 25:2 26:47394.728 27:0 43:6 44:9479.0246 45:18957.653 46:3 47:8896.0842 48:8895.8859 52:28 53:2790.5182 54:3133.658 
0.080078125 19:2 20:45948.955 21:0 25:1 43:3 44:0.198237 45:0.000139 46:1 52:15 53:5640.3196 54:7667.2439 
0.080078125 4:2 5:6.075404 6:0 16:1 19:16 20:4009.6541 21:9595.4788 22:11 23:2725.9572 24:8066.0516 25:1 28:5 29:13258.835 30:17933.66 43:12 44:5250.8017 45:11201.567 46:23 47:2792.3456 48:7196.3871 52:5 53:3655.2619 54:2057.832 55:12 56:91.837332 57:86.087833 
0.080078125 1:2 2:2.795925 3:0 19:18 20:2641.2467 21:3205.002 25:2 26:37260.1 27:0 28:2 29:64.375605 30:0 43:6 44:8980.2165 45:14446.054 46:7 47:12.069027 48:23.318972 52:4 53:9618.3641 54:6163.9959 
0.080078125 19:13 20:5425.9302 21:11771.94 25:2 26:31544.646 27:0 28:2 29:41840.624 30:0 43:7 44:5257.5069 45:7589.7821 46:18 47:3552.3813 48:7574.7223 52:45 53:1929.2342 54:2207.8234 
0.080078125 19:19 20:4274.5666 21:4886.4167 22:1 25:1 28:2 29:29743.699 30:0 43:3 44:0.1982265 45:0.0003165 46:10 47:3304.902 48:6940.1826 52:33 53:2431.78 54:2949.9386 55:26 56:995.08998 57:1122.6404 
0.080078125 4:4 5:10721.295 6:13449.03 19:47 20:1762.1299 21:2510.2926 25:3 26:33572.198 27:6459.023 28:1 40:2 41:58526.294 42:0 43:8 44:9592.1133 45:15554.096 46:9 47:1059.4574 48:2633.3632 52:2 53:1438.3442 54:0 61:2 62:57031.182 63:0 
0.080078125 1:1 19:21 20:4084.6276 21:7135.6628 25:2 26:56356.887 27:0 28:11 29:8169.2064 30:9991.4758 40:3 41:21458.577 42:1102.4278 43:6 44:11271.457 45:22542.517 46:44 47:1900.665 48:5924.2685 52:1 
0.080078125 1:1 19:20 20:3682.8967 21:3998.3875 25:2 26:26612.972 27:0 28:7 29:9642.2939 30:8130.508 40:1 43:8 44:8729.6541 45:10844.097 46:30 47:1994.9815 48:4197.4059 52:1 55:11 56:1931.911 57:3803.3921 
0.080078125 19:12 20:5390.7358 21:4746.0815 22:5 23:2094.4332 24:1842.5103 25:2 26:11241.495 27:0 28:6 29:5254.1693 30:10292.306 40:1 43:6 44:2248.3782 45:4496.3605 46:30 47:906.02942 48:3277.7063 49:7 50:1470.914 51:3088.969 52:3 53:5178.5901 54:1892.6623 
0.080078125 4:1 19:25 20:3243.4326 21:3657.3315 22:20 23:1054.8492 24:1960.2393 25:1 28:11 29:6670.718 30:10920.746 43:3 44:0.198082 45:0.00058 46:35 47:1961.9882 48:6628.6768 52:1 
0.080078125 19:21 20:3124.0733 21:3585.9741 25:6 26:1071.3824 27:1646.542 43:23 44:386.56739 45:1083.7882 52:2 53:23943.984 54:0 55:8 56:381.7704 57:338.92549 
0.080078125 19:28 20:2653.4652 21:2580.0692 25:7 26:10962.407 27:16407.431 28:9 29:8230.2939 30:7879.0793 43:20 44:3461.8754 45:9971.4941 46:42 47:1606.0475 48:3454.3871 52:1 55:4 56:620.60826 57:312.23551 
0.080078125 19:9 20:10115.009 21:13074.413 25:2 26:35901.105 27:0 43:8 44:5128.7858 45:10556.352 46:4 47:7680.851 48:3469.2385 52:46 53:1322.3362 54:2394.7845 
0.080078125 19:5 20:14753.687 21:8042.9031 25:2 26:49048.541 27:0 28:1 31:1 43:6 44:9809.7874 45:12384.654 46:7 47:150.53603 48:266.53769 52:20 53:3564.9843 54:5135.3256 55:32 56:1497.4461 57:2246.0411 
0.080078125 19:4 20:11262.574 21:9030.1205 25:2 26:19252.854 27:0 28:1 43:8 44:2750.4643 45:4469.9176 46:2 47:0.098903 48:0 52:2 53:19595.169 54:0 55:12 56:5269.4177 57:5175.6389 
0.080078125 19:76 20:843.66082 21:1360.3137 25:3 26:17822.804 27:7314.9297 28:12 29:934.38445 30:2083.3522 43:18 44:3251.0552 45:6250.2132 46:71 47:846.30055 48:2178.7711 49:28 50:45.725087 51:124.6473 52:2 53:95.691025 54:0 55:11 56:7651.2729 57:11079.847 
0.080078125 19:55 20:1464.4704 21:3728.9998 25:2 26:17656.907 27:0 28:5 29:7230.1767 30:9954.9488 40:1 43:16 44:1530.1076 45:4336.3197 46:32 47:1326.727 48:3656.9541 55:6 56:595.29131 57:863.43763 
0.080078125 4:3 5:10157.899 6:2651.0962 19:12 20:6501.1233 21:5893.753 25:2 26:56007.899 27:0 40:1 43:6 44:11201.659 45:22402.922 46:1 
0.080078125 1:1 19:8 20:9506.7622 21:11587.974 25:2 26:14939.629 27:0 28:2 29:65922.262 30:0 43:6 44:2988.0051 45:5975.6138 46:11 47:6592.7863 48:13816.188 52:3 53:10962.319 54:198.82013 
0.080078125 19:37 20:1965.6489 21:2385.0218 25:6 26:9256.5531 27:18327.632 28:2 29:19959.706 30:0 43:18 44:3032.3182 45:10790.279 46:10 47:5798.7718 48:11214.484 52:1 55:24 56:589.30543 57:2202.4365 
0.080078125 19:41 20:2080.2242 21:2743.4707 25:4 26:21223.421 27:16885.73 28:5 29:4549.5991 30:7856.7205 43:11 44:6367.066 45:12973.731 46:22 47:1864.1499 48:5742.7362 61:1 
0.080078125 19:65 20:1102.2279 21:1357.8253 25:2 26:24009.568 27:0 28:3 29:25382.524 30:15437.818 40:1 43:14 44:1983.2104 45:3638.2097 46:25 47:2713.0219 48:6604.4261 49:27 50:2.1832628 51:1.4153373 
0.080078125 4:1 19:25 20:3307.4242 21:6019.5493 25:1 28:11 29:4919.6389 30:14607.174 43:4 44:974.4149 45:1377.5505 46:42 47:1937.1516 48:4524.6568 
0.080078125 19:66 20:1151.2753 21:1601.7265 25:7 26:11817.805 27:21820.287 43:16 44:4727.1483 45:14965.444 46:4 47:8931.5057 48:6314.661 
0.080078125 19:29 20:2974.3471 21:4860.4623 22:12 23:2517.5394 24:5851.5174 25:1 28:1 43:3 44:0.198037 45:0.000636 46:9 47:7842.9329 48:11566.032 52:1 
0.080078125 13:7 14:422.16612 15:902.28724 19:133 20:647.90117 21:1238.1279 22:27 23:2362.8678 24:4535.1385 25:2 26:7351.089 27:0 28:11 29:3824.992 30:6514.4026 43:6 44:4626.7546 45:3943.9615 46:50 47:1231.7484 48:3816.6552 52:5 53:2514.0351 54:3378.413 
0.080078125 19:64 20:1329.2351 21:1370.1655 22:20 23:1247.2915 24:1779.4355 25:7 26:10248.177 27:15211.156 28:7 29:259.35194 30:497.12848 43:18 44:3617.0266 45:9304.1904 46:29 47:773.14248 48:2965.9246 52:7 53:12325.796 54:17582.498 
0.080078125 19:118 20:717.27587 21:1515.0427 22:1 25:7 26:5746.1453 27:9106.8306 28:3 29:17959.289 30:17370.105 43:16 44:2700.5048 45:6442.7426 46:16 47:4329.563 48:8839.5117 52:3 53:3399.1465 54:369.90521 
0.080078125 19:87 20:948.96955 21:1642.7117 22:1 25:3 26:21621.444 27:14121.173 28:4 29:11717.453 30:10067.286 31:1 40:10 41:7278.7585 42:17335.783 43:7 44:7207.2141 45:13051.8 46:38 47:1812.8944 48:3599.6249 52:7 53:1788.6038 54:1721.4193 
0.080078125 19:24 20:3480.0136 21:3939.6594 25:2 26:55376.56 27:0 40:3 41:9575.2944 42:3437.8884 43:6 44:11075.391 45:22150.387 46:3 47:351.91309 48:116.77369 52:1 
0.080078125 19:17 20:5010.0024 21:9550.6515 25:2 26:53571.982 27:0 40:1 43:6 44:10714.476 45:21428.555 46:1 52:5 53:5612.0143 54:4286.8658 
0.080078125 19:31 20:2788.522 21:3878.6108 22:1 25:2 26:46930.472 27:0 28:2 29:93.807976 30:0 31:5 32:96.983112 33:50.596213 34:1 40:2 41:13917.733 42:0 43:7 44:7821.8116 45:13878.571 46:9 47:5111.2967 48:10033.44 52:13 53:5139.3289 54:10266.975 55:23 56:207.18779 57:258.19689 
0.080078125 19:43 20:1972.5875 21:3182.598 25:2 26:14660.211 27:0 28:6 29:14048.749 30:20750.201 43:6 44:2962.91 45:5848.7551 46:42 47:1740.4553 48:6194.043 52:13 53:5430.8447 54:12011.544 
0.080078125 19:17 20:4610.5227 21:5770.8653 22:1 25:2 26:43427.215 27:0 28:2 29:33250.132 30:0 40:3 41:28237.986 42:5201.9911 43:4 44:14475.871 45:20471.692 46:11 47:3326.0935 48:9816.8784 52:4 53:18065.345 54:12020.909 
0.080078125 19:18 20:4844.1946 21:4837.4024 22:2 23:1370.5518 24:0 25:2 26:34500.866 27:0 28:2 29:8.671012 30:0 43:6 44:6900.2525 45:13800.109 46:16 47:2006.3793 48:5894.0479 49:3 50:5.780582 51:4.004418 52:2 53:15335.652 54:0 55:1 
0.080078125 19:16 20:3952.5812 21:3440.2088 25:2 26:56285.869 27:0 28:2 29:6.404831 30:0 40:2 41:102.05951 42:0 43:8 44:8040.8951 45:19690.095 46:9 47:4097.6416 48:5411.1066 52:14 53:2925.8128 54:3176.5705 
0.080078125 19:58 20:1329.8649 21:3212.3742 22:1 25:1 28:11 29:5450.9487 30:6718.8304 40:5 41:3197.498 42:5147.4093 43:5 44:6308.7567 45:10819.874 46:69 47:1207.6798 48:3711.0367 49:2 50:4.124886 51:0 52:2 53:9189.5663 54:0 
0.080078125 1:1 19:72 20:1205.1302 21:2106.0003 22:2 23:53590.053 24:0 25:1 28:13 29:4186.2621 30:9259.293 43:8 44:11540.377 45:18861.012 46:78 47:1088.4004 48:3056.1878 
0.080078125 19:77 20:1129.3592 21:4393.9298 22:1 25:3 26:25338.181 27:18709.439 28:19 29:4565.7711 30:9689.7083 40:13 41:4383.8953 42:6259.401 43:11 44:5067.6759 45:8728.9945 46:119 47:727.37583 48:2625.2886 52:21 53:4170.4941 54:6090.7246 61:1 
0.080078125 19:24 20:2985.9152 21:3633.1831 22:2 23:54825.491 24:0 25:1 28:3 29:19971.013 30:18280.854 43:3 44:0.198108 45:0.000366 46:15 47:2892.9653 48:6780.1085 52:43 53:1874.8249 54:3130.2144 
0.080078125 4:1 19:43 20:1935.5093 21:3689.9757 22:1 25:3 26:32507.559 27:25064.217 28:13 29:1186.1233 30:1772.653 43:10 44:7223.946 45:17783.042 46:68 47:1171.1628 48:4296.4032 52:23 53:3758.6025 54:3164.5317 55:4 56:171.69552 57:81.485186 
0.080078125 1:1 19:36 20:2215.8452 21:3794.1406 22:1 25:10 26:7585.7087 27:15583.626 28:4 29:29.717872 30:24.55494 43:27 44:2627.1671 45:9114.8235 46:31 47:2304.5569 48:6416.3023 52:14 53:5486.7678 54:5703.0203 
0.080078125 19:28 20:2956.1627 21:3308.485 22:2 23:11600.298 24:0 25:3 26:11440.179 27:199.90564 28:3 29:27965.408 30:21335.549 43:11 44:4242.1813 45:6809.5621 46:11 47:8437.2793 48:16035.801 52:30 53:2749.5852 54:4405.6581 
0.080078125 1:1 19:21 20:3942.3281 21:4920.6106 22:1 25:8 26:8783.8352 27:13836.357 28:4 29:25096.708 30:18438.005 43:20 44:3236.2105 45:8296.1035 46:26 47:3016.9622 48:7419.8564 52:14 53:5409.5513 54:6066.2261 
0.080078125 13:15 14:76.091065 15:89.858488 19:52 20:1561.6913 21:3635.7178 22:2 23:49238.488 24:0 25:2 26:13136.47 27:0 28:6 29:540.00449 30:428.10061 43:6 44:2627.3731 45:5254.3498 46:41 47:1312.5422 48:4950.9735 52:8 53:8811.1044 54:7547.0346 
0.080078125 1:2 2:0.434606 3:0 19:52 20:1627.481 21:2584.3362 22:5 23:9947.678 24:5085.4814 25:2 26:44974.174 27:0 28:3 29:5729.3916 30:4879.5686 43:14 44:4924.2141 45:12614.008 46:18 47:1986.572 48:5523.1776 52:42 53:1061.9971 54:1403.6601 
0.080078125 19:28 20:2790.7851 21:2998.8285 22:1 25:2 26:16821.853 27:0 28:2 29:14656.161 30:0 40:1 43:6 44:3364.4499 45:6728.5036 46:8 47:2096.6366 48:5127.2468 52:4 53:8018.1793 54:2515.179 
0.080078125 19:78 20:850.73287 21:1340.9581 22:1 25:3 26:9816.9835 27:3771.3022 28:23 29:2384.2664 30:3711.3449 37:2 38:21197.904 39:0 40:6 41:3503.6211 42:1883.0732 43:12 44:5822.9015 45:8322.5542 46:95 47:617.04418 48:1652.4556 
0.080078125 1:2 2:23592.365 3:0 19:91 20:937.39636 21:1559.6603 22:1 25:3 26:17302.8 27:6311.9104 28:10 29:7661.708 30:18154.939 43:22 44:2259.2649 45:3375.6031 46:67 47:1264.1861 48:2912.727 61:1 
0.080078125 1:2 2:1128.2413 3:0 19:50 20:1529.8096 21:2441.1728 22:2 23:54212.136 24:0 25:2 26:57683.579 27:0 28:9 29:6344.9191 30:8644.3862 37:2 38:17252.311 39:0 40:5 41:13258.058 42:12904.671 43:7 44:9613.9964 45:20856.999 46:48 47:1095.3036 48:3900.6824 52:3 53:23952.681 54:22958.681 
0.080078125 1:7 2:8461.2491 3:8006.9389 4:1 19:106 20:773.56374 21:1013.9989 22:2 23:17525.135 24:0 25:4 26:14587.916 27:2862.0306 28:10 29:3948.1395 30:6963.5489 31:1 37:5 38:10936.3 39:6095.8689 43:24 44:3150.2884 45:6617.4447 46:57 47:1338.8744 48:4966.9498 55:22 56:764.65826 57:779.55396 
0.080078125 19:55 20:1522.6657 21:1732.4005 22:4 23:13010.508 24:185.47339 25:3 26:22032.349 27:1073.87 28:4 29:8701.5201 30:12123.25 40:1 43:13 44:3672.0916 45:6169.68 46:27 47:2001.6947 48:6078.2926 
0.080078125 1:1 19:27 20:3159.8907 21:3625.1158 22:2 23:57603.245 24:0 25:2 26:45770.683 27:0 37:1 40:1 43:7 44:7628.5141 45:17057.429 46:3 47:24765.315 48:1184.5369 52:4 53:21828.608 54:16140.266 
0.080078125 1:2 2:22556.802 3:0 4:1 19:41 20:1971.8467 21:1609.3674 22:1 25:4 26:22014.099 27:17668.394 37:1 43:13 44:5503.5581 45:12996.325 46:3 47:10118.827 48:6005.3435 52:8 53:5699.2827 54:5363.1314 
0.080078125 19:87 20:933.45073 21:1385.4442 22:2 23:27182.304 24:0 25:10 26:6706.8541 27:7056.8176 28:8 29:5178.1785 30:7619.6994 37:2 38:26896.403 39:0 40:2 41:68880.949 42:0 43:29 44:2669.2602 45:5542.6146 46:54 47:1501.6118 48:4176.4757 52:2 53:25679.76 54:0 
0.080078125 1:4 2:18963.441 3:13539.72 19:62 20:1314.6462 21:1709.4094 22:2 23:53174.432 24:0 25:6 26:12397.313 27:10095.914 28:5 29:18137.548 30:18424.057 37:4 38:10477.081 39:9812.8017 40:4 41:18298.191 42:23058.829 43:16 44:4132.4642 45:7370.9459 46:48 47:1674.6432 48:3149.4054 52:1 
0.080078125 1:7 2:12764.157 3:14936.975 19:40 20:2040.8366 21:2106.6998 22:2 23:52203.585 24:0 25:3 26:33415.457 27:9926.0345 28:2 29:3909.5537 30:0 31:1 37:3 38:27637.02 39:26665.851 40:5 41:5625.3802 42:5634.2745 43:9 44:8353.9143 45:15296.574 46:10 47:8067.3053 48:16081.129 52:2 53:8980.2752 54:0 
0.080078125 13:1 19:46 20:1901.3949 21:2064.7556 22:9 23:6913.628 24:17153.763 25:3 26:37552.982 27:22174.783 28:4 29:18852.472 30:25496.864 40:2 41:15917.445 42:0 43:11 44:7510.6362 45:13041.313 46:23 47:2599.3404 48:10970.743 52:5 53:11671.981 54:8700.679 55:14 56:1534.1081 57:3547.85 
0.080078125 19:46 20:1832.9958 21:1518.0469 22:2 23:12199.004 24:0 25:3 26:27997.675 27:15268.27 28:1 37:1 40:1 43:10 44:6221.7499 45:13380.119 46:4 47:0.14031533 48:0.043120864 52:2 53:722.68526 54:0 
0.080078125 1:1 19:36 20:2381.6084 21:3338.3241 22:3 23:33022.64 24:20016.322 25:6 26:13223.612 27:7727.5468 28:3 29:2895.3502 30:2848.005 37:1 40:1 43:19 44:3673.2479 45:7182.5024 46:13 47:3919.0202 48:11359.45 52:4 53:14317.926 54:12164.714 55:38 56:1525.4962 57:931.4188 
0.080078125 19:41 20:2075.2755 21:1871.2701 22:5 23:8897.8934 24:9008.9853 25:4 26:20185.407 27:6440.1804 28:3 29:27560.735 30:17368.889 40:5 41:4803.5223 42:2737.6989 43:12 44:5505.1471 45:9598.1011 46:12 47:5286.7567 48:12854.272 52:2 53:1014.915 54:0 
0.080078125 19:43 20:1990.6117 21:2880.8757 22:2 23:18700.511 24:0 25:5 26:18870.91 27:11401.773 28:2 29:24433.156 30:0 31:1 37:4 38:25377.409 39:8577.9131 40:2 41:1188.9523 42:0 43:17 44:4717.7524 45:9913.3055 46:20 47:4088.096 48:7745.2816 52:17 53:4624.5886 54:6187.3837 
0.080078125 19:68 20:1185.3627 21:2056.5581 22:2 23:50878.306 24:0 25:4 26:25175.507 27:19906.658 28:9 29:8383.4261 30:8908.88 37:4 38:2073.3025 39:866.20712 40:2 41:30000.135 42:0 43:13 44:6293.8766 45:14509.128 46:53 47:1591.3977 48:3951.0506 52:2 53:8033.2951 54:0 
0.080078125 19:52 20:1592.4614 21:2120.1681 22:3 23:34667.069 24:21310.234 25:1 28:9 29:10136.466 30:11651.909 37:4 38:27032.912 39:15787.03 40:5 41:8675.8699 42:6394.3498 43:4 44:20.279455 45:28.39669 46:33 47:2539.317 48:6698.3345 52:7 53:10131.075 54:8736.8647 55:3 56:60.697401 57:47.485214 64:1 
0.080078125 1:3 2:7575.124 3:7316.8826 19:27 20:2795.2356 21:2623.9775 22:1 25:2 26:60313.238 27:0 28:3 29:25615.631 30:4915.9739 43:7 44:10052.273 45:22477.208 46:12 47:5698.2733 48:10141.213 52:4 53:15466.221 54:8026.7502 61:1 
0.080078125 19:34 20:2291.5988 21:2041.9748 22:2 23:12653.009 24:0 25:2 26:57386.478 27:0 28:4 29:14915.496 30:10581.415 43:10 44:6506.2608 45:16307.844 46:16 47:2983.5709 48:7614.6419 52:8 53:7911.504 54:7054.2248 
0.080078125 19:24 20:3680.3531 21:3555.9252 22:2 23:58728.522 24:0 25:1 28:4 29:2752.03 30:3804.776 43:3 44:0.200008 45:0.001008 46:17 47:516.19417 48:1935.1885 52:2 53:3164.5501 54:0 
0.080078125 1:3 2:24506.737 3:3707.5507 19:89 20:951.34409 21:1715.0413 22:3 23:26381.899 24:16527.117 25:6 26:11446.771 27:16125.436 28:10 29:6409.8561 30:7809.0547 40:4 41:3333.4586 42:4533.925 43:31 44:1907.8084 45:7817.1354 46:46 47:1281.9801 48:4225.7 52:2 53:16287.186 54:0 
0.080078125 1:3 2:219.21751 3:8.432508 19:32 20:2640.9624 21:3795.274 22:18 23:4479.9812 24:5551.4972 25:1 28:3 29:21817.186 30:10493.238 34:1 40:10 41:4234.2246 42:4135.596 43:9 44:5512.7377 45:6577.8271 46:26 47:2901.1947 48:5722.7394 52:5 53:9855.764 54:15688.209 
0.080078125 1:1 19:39 20:2212.5488 21:2483.6432 25:1 28:3 29:27448.127 30:19704.624 43:3 44:0.200466 45:0.000519 46:17 47:3434.6196 48:11374.969 52:1 
0.080078125 1:3 2:18637.228 3:15181.501 19:53 20:1412.3284 21:2719.0677 22:4 23:21376.908 24:22147.64 25:1 28:10 29:6375.6119 30:10389.534 37:1 40:3 41:24005.432 42:17566.61 43:6 44:3200.564 45:6313.4498 46:46 47:1288.1686 48:5258.6154 52:2 53:3450.3378 54:0 55:3 56:1.7320385 57:1.6481715 
0.080078125 1:1 19:39 20:2248.7402 21:2534.9197 22:15 23:184.4786 24:291.61042 25:2 26:21415.049 27:0 28:4 29:18372.729 30:14945.478 37:4 38:20703.068 39:20206.577 43:11 44:2141.5448 45:4162.2055 46:18 47:3415.7214 48:9358.598 52:3 53:598.17499 54:107.03216 
0.080078125 1:3 2:12203.787 3:12203.36 4:2 5:12.062531 6:0 19:45 20:1777.9362 21:2534.3602 22:4 23:14182.198 24:1462.352 25:3 26:25299.686 27:14737.414 28:4 29:8787.2268 30:12412.313 31:4 32:110.65349 33:78.670012 37:14 38:6195.0756 39:7350.3134 40:1 43:16 44:3373.3368 45:7655.2171 46:23 47:1569.8792 48:2613.3444 49:2 50:2994.0973 51:0 52:1 
0.080078125 19:86 20:992.76424 21:1837.6175 22:3 23:35642.925 24:20050.559 25:14 26:4812.8375 27:14239.041 28:16 29:3744.8418 30:8151.6124 37:12 38:7259.3707 39:9022.9658 40:1 43:36 44:1797.5726 45:8979.9823 46:60 47:954.19778 48:3724.6783 49:3 50:7715.0531 51:7705.9947 52:1 
0.080078125 19:31 20:2651.1897 21:3155.5838 22:2 23:14447.774 24:0 25:2 26:43303.087 27:0 28:2 29:49409.11 30:0 37:12 38:7824.7816 39:10380.958 43:7 44:7217.2474 45:10283.879 46:15 47:4709.3061 48:12707.484 
0.080078125 1:2 2:23.04319 3:0 13:88 14:97.464527 15:181.1321 19:31 20:2831.2531 21:3276.287 22:2 23:13320.072 24:0 25:2 26:60049.267 27:0 28:1 40:1 43:6 44:12009.934 45:24019.467 46:9 47:1738.8165 48:4588.7547 52:8 53:2386.5719 54:2379.4403 
0.080078125 4:1 19:36 20:1903.2447 21:3285.9797 22:2 23:59493.142 24:0 28:3 29:10696.378 30:10120.067 31:2 32:10.453048 33:0 46:22 47:2944.1284 48:8680.3263 
0.080078125 1:4 2:1016.0199 3:1355.0254 13:1 19:61 20:1408.8889 21:1933.6566 22:1 28:6 29:8152.1405 30:5489.7816 37:2 38:27078.293 39:0 40:2 41:2088.3968 42:0 43:2 44:433.04791 45:0 46:38 47:1144.7193 48:2295.6108 52:1 
0.080078125 19:31 20:2672.0903 21:2968.6818 22:2 23:59354.796 24:0 25:1 28:1 37:3 38:18030.201 39:6698.3632 40:4 41:17466.628 42:19670.397 43:3 44:0.2004845 45:0.0004645 46:4 47:25.250141 48:35.423539 52:1 
0.080078125 1:3 2:567.89379 3:567.46717 13:5 14:117.74615 15:126.95573 19:51 20:1616.9267 21:1707.2808 22:1 25:1 28:15 29:4312.3422 30:7321.5556 31:1 37:5 38:17998.702 39:16298.736 40:2 41:3357.4903 42:0 43:13 44:2574.9157 45:5029.4151 46:62 47:1051.1577 48:3909.3959 52:1 
0.080078125 19:43 20:1974.0455 21:1708.0061 22:2 23:26653.662 24:0 25:4 26:19818.741 27:27072.433 28:9 29:1377.2592 30:2765.6261 37:8 38:9148.164 39:15626.332 40:1 43:11 44:5945.6626 45:17387.256 46:37 47:1351.2571 48:4949.2927 
