svm_type c_svc
kernel_type rbf
gamma 0.0123457
nr_class 2
total_sv 11623
rho -0.911092
label 0 1
probA 46.486
probB -44.778
nr_sv 10674 949
SV
0.0888671875 1:17 2:42345.775 3:133677.32 16:3 17:338624.73 18:233528.38 19:7781 20:87.497609 21:3827.1722 25:36 26:19281.03 27:67082.595 28:39 29:17491.747 30:64819.792 37:3 38:57351.647 39:56327.289 43:195 44:3491.5014 45:28853.265 46:249 47:2730.6404 48:22299.546 52:5941 53:116.05713 54:4500.2018 55:1 61:2 62:194222.48 63:0 
0.0888671875 1:6 2:8193.5666 3:16356.358 16:2 17:105096.35 18:0 19:7282 20:49.037483 21:483.78111 25:36 26:8297.9304 27:13428.701 28:36 29:6458.5142 30:10739.103 37:3 38:57351.647 39:56327.289 43:197 44:1506.9188 45:5219.8004 46:239 47:1445.1322 48:5633.3698 52:1415 53:244.15791 54:805.29203 55:1 61:2 62:194222.48 63:0 
0.0888671875 1:6 2:8193.5666 3:16356.358 16:2 17:105096.35 18:0 19:9436 20:47.201427 21:438.8433 25:38 26:10032.578 27:14950.187 28:36 29:6458.5142 30:10739.103 37:3 38:57351.647 39:56327.289 43:205 44:1843.7937 45:6178.9006 46:270 47:1593.908 48:5416.1773 52:1922 53:224.79836 54:729.82652 55:1 61:2 62:194222.48 63:0 
0.0888671875 1:7 2:41241.037 3:75389.778 16:2 17:105096.35 18:0 19:12377 20:42.967373 21:411.68742 25:41 26:11313.878 27:15068.111 28:38 29:13119.896 30:39382.205 37:3 38:57351.647 39:56327.289 43:216 44:2127.8308 45:6722.3388 46:284 47:1814.885 48:5798.6674 52:2367 53:219.11781 54:691.75831 55:1 61:2 62:194222.48 63:0 
0.0888671875 1:7 2:41241.037 3:75389.778 16:11 17:45188.508 18:99592.955 19:14844 20:41.635604 21:386.41475 25:43 26:12900.007 27:16326.482 28:38 29:13119.896 30:39382.205 37:3 38:57351.647 39:56327.289 40:1 43:225 44:2450.8624 45:7394.5837 46:294 47:2047.2983 48:6247.4544 52:2896 53:208.67365 54:639.00862 55:1 61:2 62:194222.48 63:0 
0.0888671875 1:10 2:50106.046 3:74003.268 16:23 17:24411.632 18:69963.819 19:16047 20:43.036318 21:396.26178 25:43 26:12900.007 27:16326.482 28:40 29:15247.808 30:41326.479 37:4 38:199643.32 39:206419.51 40:1 43:226 44:2882.829 45:9809.9013 46:305 47:2158.4777 48:6299.5683 52:3261 53:211.26804 54:646.6089 55:1 61:2 62:194222.48 63:0 
0.0888671875 1:11 2:49753.981 3:70213.608 16:56 17:11363.404 18:45704.983 19:17711 20:38.775534 21:359.97657 25:43 26:16103.372 27:26697.11 28:41 29:16977.365 30:44267.446 37:3 38:242625.5 39:241601.15 40:1 43:207 44:3327.2792 45:10645.566 46:282 47:2435.5016 48:7500.7002 52:3509 53:196.42511 54:607.19133 55:1 61:1 
0.0888671875 1:12 2:51813.134 3:67261.985 4:1 16:66 17:8584.7755 18:40457.537 19:17085 20:40.223537 21:330.00073 25:35 26:17525.359 27:28707.242 28:48 29:14600.617 30:41255.562 37:1 40:1 43:166 44:4149.4794 45:12184.191 46:301 47:2296.2452 48:7322.2245 52:4537 53:152.22324 54:504.56515 61:1 
0.0888671875 1:6 2:64499.65 3:53270.733 4:1 16:65 17:3573.8316 18:5501.4696 19:16815 20:40.676875 21:344.19321 25:16 26:41378.243 27:37933.207 28:23 29:17250.216 30:33239.818 34:1 37:1 40:1 43:68 44:9697.8893 45:17443.392 46:166 47:3788.0708 48:8129.7998 52:4561 53:146.36534 54:613.33533 61:1 
0.0888671875 1:6 2:64499.65 3:53270.733 4:1 16:65 17:3573.8316 18:5501.4696 19:16320 20:42.33146 21:322.08732 25:16 26:42146.821 27:37750.651 28:23 29:17250.216 30:33239.818 34:1 37:1 40:1 43:74 44:9012.8369 45:16345.371 46:168 47:3937.5669 48:8400.6362 52:4205 53:159.52424 54:939.12609 61:1 
0.0888671875 1:6 2:64499.65 3:53270.733 4:1 16:65 17:3573.8316 18:5501.4696 19:16451 20:41.871528 21:390.4007 25:15 26:47047.307 27:40847.882 28:25 29:25462.802 30:47507.577 34:1 37:3 38:243197.78 39:242401.7 40:1 43:78 44:8891.2635 45:16335.924 46:149 47:4560.908 48:10129.867 52:3702 53:180.59965 54:1506.11 61:1 
0.0888671875 1:6 2:112891.29 3:146793.97 4:1 16:65 17:3573.8316 18:5501.4696 19:17393 20:39.713925 21:371.04334 25:16 26:43664.65 27:41334.109 28:26 29:22505.775 30:43910.002 31:1 34:1 37:3 38:243197.78 39:242401.7 40:1 43:106 44:6465.1713 45:13700.145 46:163 47:4057.3762 48:9240.5283 52:3259 53:202.68976 54:1949.925 61:1 
0.0888671875 1:7 2:101299.85 3:136487.61 4:1 16:56 17:3448.5973 18:5226.5039 19:17339 20:39.743132 21:374.58531 25:16 26:37202.025 27:30733.492 28:27 29:22964.408 30:43118.321 31:1 34:1 37:3 38:243197.78 39:242401.7 43:109 44:5594.1931 45:9981.2728 46:173 47:3960.4196 48:8929.8299 52:2731 53:226.23088 54:2282.078 61:1 
0.0888671875 1:4 2:172915.86 3:163126.31 4:1 16:44 17:2720.6313 18:4891.8649 19:18447 20:37.457668 21:347.36472 25:18 26:36725.494 27:28901.452 28:28 29:20580.948 30:39359.838 31:1 34:1 37:2 38:796.07661 39:0 40:1 43:122 44:5400.5047 45:9084.7146 46:177 47:3638.2087 48:7682.1235 52:2366 53:291.44203 54:3557.0295 61:1 
0.0888671875 1:3 2:223171.47 3:179828.85 4:1 16:11 17:3341.0815 18:3172.5421 19:18180 20:37.896649 21:375.03964 25:15 26:40193.149 27:19555.336 28:25 29:27487.11 30:47196.866 31:1 34:1 37:2 38:796.07661 39:0 40:1 43:124 44:5365.1494 45:9023.7014 46:172 47:3939.6131 48:7827.7048 52:1752 53:385.43202 54:4215.7122 61:1 
0.0888671875 1:2 2:43342.62 3:0 4:1 19:18063 20:37.909148 21:414.10658 25:15 26:40193.149 27:19555.336 28:17 29:42092.95 30:53481.725 31:1 34:1 37:2 38:796.07661 39:0 40:1 43:133 44:5057.5477 45:9620.3382 46:142 47:4776.5079 48:9050.7154 52:366 53:1869.1416 54:9665.9265 61:1 
0.0888671875 1:2 2:43342.62 3:0 4:1 19:18698 20:36.885233 21:394.14269 25:14 26:51949.765 27:43913.016 28:15 29:34288.53 30:38019.692 31:1 37:2 38:796.07661 39:0 40:1 43:127 44:5359.8996 45:10451.615 46:131 47:5111.2151 48:9985.3823 52:44 53:13407.204 54:24134.397 
0.0888671875 1:3 2:235326.08 3:191983.46 4:1 19:19480 20:35.322478 21:403.62141 25:13 26:50206.998 27:44276.673 28:15 29:34288.53 30:38019.692 31:1 37:2 38:796.07661 39:0 40:1 43:120 44:5467.6262 45:10568.781 46:131 47:4888.5291 48:8942.9983 52:18 53:34781.521 54:37063.816 
0.0888671875 1:3 2:235326.08 3:191983.46 4:1 19:19226 20:35.658506 21:360.27251 25:15 26:47203.697 27:41739.974 28:16 29:43453.473 30:55601.174 31:1 37:1 40:1 43:139 44:4875.6755 45:10220.666 46:130 47:5216.0692 48:10546.367 52:29 53:23055.095 54:33082.014 
0.0888671875 1:3 2:335243.19 3:92066.343 4:1 19:17031 20:40.480079 21:498.15804 25:12 26:59454.929 27:43223.84 28:17 29:39816.552 30:55557.357 37:1 40:1 43:104 44:6643.8048 45:13433.475 46:154 47:4433.5088 48:10244.508 52:28 53:23387.577 54:33652.449 
0.0888671875 1:2 2:243176.85 3:0 4:1 19:16586 20:41.611771 21:500.65371 25:12 26:60665.018 27:42604.664 28:17 29:42507.704 30:58653.264 37:3 38:80231.978 39:80058.927 40:1 43:102 44:6749.9013 45:13801.725 46:148 47:4626.7044 48:10892.996 52:292 53:2210.4406 54:10712.02 
0.0888671875 1:5 2:123479.53 3:82968.406 4:2 5:488204.03 6:0 19:15419 20:44.096997 21:494.28333 25:15 26:36761.797 27:24682.082 28:19 29:31620.269 30:51275.509 37:10 38:25768.897 39:48982.984 43:109 44:6098.5451 45:13184.147 46:157 47:4324.3324 48:10952.988 52:1251 53:516.18385 54:4839.0553 
0.0888671875 1:8 2:83910.583 3:78653.36 4:1 19:16334 20:42.035938 21:478.5885 25:16 26:36050.695 27:23993.141 28:15 29:30102.106 30:43182.015 37:10 38:25768.897 39:48982.984 43:117 44:5168.7081 45:11182.657 46:140 47:4610.6655 48:10581.693 52:1545 53:369.50824 54:2791.7644 
0.0888671875 1:24 2:28705.742 3:57260.231 4:1 19:16149 20:42.703209 21:484.77608 25:18 26:37177.184 27:25313.173 28:37 29:15969.472 30:33480.826 37:10 38:25768.897 39:48982.984 43:142 44:4841.9025 45:11257.826 46:219 47:3135.692 48:9043.7901 52:1954 53:337.28342 54:2499.2096 
0.0888671875 1:23 2:18957.056 3:35240.87 4:1 19:17693 20:38.939259 21:444.40208 25:18 26:37682.423 27:25519.689 28:39 29:17424.311 30:34506.626 37:10 38:25768.897 39:48982.984 43:151 44:4592.5283 45:10757.533 46:228 47:2959.5545 48:8500.673 52:2459 53:279.69935 54:1971.7784 
0.0888671875 1:24 2:22723.036 3:38729.057 4:1 19:18295 20:35.652444 21:292.32988 25:19 26:34428.72 27:23457.271 28:40 29:14628.62 30:32897.379 37:31 38:15211.004 39:68293.992 43:161 44:3873.2335 45:8981.0778 46:232 47:2808.9826 48:7002.0978 52:2895 53:224.84741 54:1309.3806 
0.0888671875 1:23 2:19375.156 3:36198.452 4:1 19:19127 20:36.10626 21:308.25114 25:20 26:33722.79 27:22678.282 28:37 29:15634.606 30:33592.3 37:32 38:18625.919 39:69738.545 43:181 44:3760.1763 45:8726.5474 46:185 47:3505.4808 48:8346.4344 52:3337 53:202.69529 54:701.67794 
0.0888671875 1:23 2:19375.156 3:36198.452 4:1 19:18721 20:36.855438 21:328.5289 25:19 26:33436.048 27:23087.447 28:38 29:16897.435 30:34749.681 37:30 38:18903.23 39:71995.278 43:180 44:3772.029 45:9126.8411 46:201 47:3401.8295 48:8144.8029 52:3438 53:200.76609 54:622.20101 
0.0888671875 1:23 2:26821.7 3:70846.718 16:1 19:17948 20:38.420769 21:380.07445 22:1 25:20 26:35527.193 27:21076.184 28:51 29:13588.426 30:27251.186 37:24 38:13010.508 39:42285.232 43:232 44:2936.7832 45:7904.7641 46:278 47:2452.786 48:7176.1202 52:4719 53:135.40238 54:971.21119 
0.0888671875 1:7 2:72156.16 3:117293.69 16:1 19:19560 20:35.206011 21:352.53981 22:1 25:21 26:32307.353 27:20797.71 28:33 29:18568.439 30:30201.533 37:24 38:13010.508 39:42285.232 43:433 44:1593.8598 45:5660.8538 46:222 47:2956.775 48:7649.7731 52:4314 53:156.97692 54:1598.0181 
0.0888671875 1:10 2:75533.822 3:116906.07 16:1 19:18414 20:37.519866 21:354.81993 22:1 25:25 26:28379.516 27:21076.774 28:38 29:18345.831 30:32342.366 37:24 38:13010.508 39:42285.232 43:639 44:1082.4325 45:4387.169 46:226 47:3016.8717 48:8768.0086 52:4050 53:170.04087 54:1719.3472 
0.0888671875 1:6 2:65300.448 3:91589.919 16:1 19:19372 20:35.659031 21:193.89998 25:60 26:11055.464 27:16362.967 28:36 29:17185.574 30:30594.607 34:3 35:111230.72 36:14369.503 37:1 40:1 43:1790 44:385.8575 45:765.33901 46:235 47:2913.8293 48:8547.9183 52:2576 53:260.39707 54:1227.1795 
0.0888671875 1:4 2:109552.56 3:67874.755 19:92873 20:7.4413786 21:100.14085 22:4 23:14448.385 24:16874.786 25:48 26:13267.814 27:15477.346 28:14 29:46212.175 30:84911.766 34:2 35:328156.49 36:0 43:1736 44:397.86155 45:874.15221 46:108 47:6341.549 48:16035.868 52:2954 53:233.4317 54:670.66923 
0.0888671875 1:6 2:111728.09 3:89617.594 16:1 19:93606 20:7.3557373 21:97.227944 22:17 23:6901.4445 24:14733.321 25:53 26:12005.149 27:14518.632 28:13 29:39077.9 30:73383.065 34:1 43:1748 44:393.72712 45:863.66347 46:115 47:5453.4405 48:14850.677 52:2978 53:231.49669 54:667.36261 
0.0888671875 1:6 2:111728.09 3:89617.594 16:2 17:135545.9 18:0 19:92880 20:7.3835963 21:94.343457 22:17 23:6901.4445 24:14733.321 25:52 26:12717.1 27:14954.977 28:17 29:33643.491 30:64435.33 34:1 43:1739 44:394.15578 45:867.61507 46:127 47:5016.5791 48:14177.2 52:2966 53:231.62691 54:669.37042 
0.0888671875 1:6 2:110765.21 3:88943.061 16:2 17:135545.9 18:0 19:91697 20:7.5182224 21:95.7172 22:17 23:6901.4445 24:14733.321 25:54 26:12482.999 27:14112.867 28:19 29:36274.163 30:62104.685 34:2 35:552446.14 36:0 43:1760 44:391.89724 45:862.54481 46:137 47:4926.6525 48:13131.043 52:6012 53:114.69309 54:475.11711 
0.0888671875 1:7 2:102845.56 3:83102.31 16:2 17:135545.9 18:0 19:93158 20:7.3652223 21:94.992465 22:18 23:22675.352 24:64694.361 25:46 26:14363.354 27:14947.071 28:18 29:24653.412 30:40658.586 34:2 35:552446.14 36:0 43:1771 44:387.05836 45:842.53044 46:111 47:5674.9153 48:14427.412 52:7105 53:96.511133 54:441.54482 
0.0888671875 1:9 2:73509.02 3:79022.911 4:1 16:2 17:135545.9 18:0 19:40739 20:16.949746 21:145.09178 22:18 23:22675.352 24:64694.361 25:44 26:15883.832 27:15518.831 28:19 29:33219.368 30:52996.847 34:1 43:1808 44:377.9785 45:792.70978 46:122 47:5307.093 48:13623.64 52:11951 53:57.462448 54:329.56321 
0.0888671875 1:10 2:47058.934 3:50179.478 4:1 16:2 17:135545.9 18:0 19:19541 20:35.352381 21:201.14813 22:19 23:29717.197 24:69251.926 25:40 26:16641.474 27:16557.056 28:19 29:33219.368 30:52996.847 34:1 43:1850 44:373.24235 45:761.63301 46:119 47:5439.4953 48:14114.47 52:16640 53:41.52261 54:275.45484 61:2 62:9182.7696 63:0 
0.0888671875 1:11 2:52176.663 3:50019.02 4:1 16:2 17:135545.9 18:0 19:20254 20:34.060384 21:190.27065 22:21 23:30956.966 24:65840.607 25:39 26:16234.748 27:16525.073 28:15 29:31125.637 30:47406.843 34:1 43:1876 44:367.90664 45:748.47208 46:98 47:5643.9259 48:12747.219 52:16663 53:41.338827 54:274.36867 61:2 62:9182.7696 63:0 
0.0888671875 1:14 2:46838.491 3:45586.432 4:3 5:115569.99 6:115555.07 16:2 17:135545.9 18:0 19:20491 20:33.631969 21:198.84074 22:17 23:35465.618 24:72539.323 25:39 26:16132.396 27:16335.822 28:14 29:47147.847 30:60484.288 34:1 43:1704 44:402.0536 45:1339.4636 46:99 47:6892.7637 48:14075.214 52:16720 53:41.164396 54:273.19136 61:2 62:9182.7696 63:0 
0.0888671875 1:14 2:40404.427 3:26060.617 4:3 5:115569.99 6:115555.07 16:1 19:19784 20:34.844112 21:212.71456 22:4 23:77886.112 24:50910.388 25:33 26:20008.605 27:20373.18 28:11 29:51708.885 30:67719.985 34:1 43:1547 44:445.0946 45:1452.7505 46:81 47:8470.414 48:15295.351 52:16650 53:41.466686 54:269.44291 61:2 62:9182.7696 63:0 
0.0888671875 1:16 2:41804.841 3:24699.531 4:7 5:60032.051 6:89828.33 19:21788 20:31.587395 21:213.6087 22:4 23:77886.112 24:50910.388 25:31 26:22555.179 27:22157.823 28:10 29:70805.71 30:79744.546 34:1 37:1 43:1377 44:499.51228 45:1643.5926 46:89 47:7783.6237 48:14558.011 52:16398 53:41.806935 54:275.57577 61:2 62:9182.7696 63:0 
0.0888671875 1:17 2:40194.075 3:24201.332 4:7 5:60032.051 6:89828.33 19:22837 20:30.170038 21:218.10052 22:13 23:51169.832 24:96731.323 25:43 26:15496.688 27:23030.816 28:13 29:41400.785 30:66585.847 37:1 43:1204 44:566.78252 45:1927.9359 46:94 47:7153.5422 48:14463.361 52:13227 53:52.171618 54:318.10653 61:2 62:9182.7696 63:0 
0.0888671875 1:19 2:36767.818 3:23105.315 4:10 5:65509.675 6:86262.933 19:20996 20:32.882582 21:229.96161 22:50 23:10941.528 24:48698.852 25:46 26:14728.791 27:23584.699 28:21 29:30384.071 30:54077.763 37:1 43:1038 44:662.60511 45:2163.2926 46:129 47:5317.0221 48:11870.967 52:12072 53:57.061295 54:327.02194 61:2 62:9182.7696 63:0 
0.0888671875 1:21 2:32933.09 3:24681.904 4:9 5:44807.751 6:67188.752 19:19765 20:34.87354 21:245.21778 22:50 23:10941.528 24:48698.852 25:39 26:14389.359 27:24736.055 28:21 29:21907.351 30:42401.743 37:1 43:835 44:818.06667 45:2486.1344 46:124 47:5039.6737 48:11568.447 52:7175 53:96.126346 54:437.12198 61:2 62:9182.7696 63:0 
0.0888671875 1:22 2:29913.857 3:19602.712 4:10 5:53066.606 6:67515.967 19:19408 20:35.583814 21:246.49389 22:49 23:10438.005 24:49077.111 25:35 26:19841.123 27:38380.019 28:22 29:28588.052 30:51038.499 34:1 37:1 43:604 44:1136.1385 45:3298.3008 46:152 47:4419.0339 48:9872.0147 52:2505 53:275.18107 54:714.80634 61:1 
0.0888671875 1:23 2:31191.45 3:21845.368 4:10 5:53066.606 6:67515.967 19:18649 20:37.045106 21:259.34145 22:47 23:2389.1218 24:5102.6323 25:39 26:16220.24 27:36490.728 28:26 29:25181.135 30:47469.738 34:1 37:1 43:384 44:1774.7949 45:4269.9871 46:196 47:3379.2749 48:7640.4962 52:2426 53:284.11701 54:712.81587 61:1 
0.0888671875 1:21 2:31774.7 3:22033.471 4:8 5:49809.947 6:68016.769 19:18145 20:37.949688 21:265.77972 22:47 23:2389.1218 24:5102.6323 25:38 26:14266.468 27:34964.368 28:26 29:21529.644 30:38263.946 34:1 37:1 43:371 44:1850.3129 45:3865.0279 46:192 47:3370.6747 48:9035.5908 52:2682 53:244.3328 54:658.93262 61:1 
0.0888671875 1:21 2:33219.491 3:24909.014 4:8 5:49809.947 6:68016.769 19:18766 20:36.772437 21:261.21511 22:47 23:2389.1218 24:5102.6323 25:37 26:16088.443 27:41235.416 28:26 29:21529.644 30:38263.946 34:1 37:1 43:371 44:1858.8799 45:4085.6842 46:186 47:3389.9544 48:10226.702 52:2414 53:280.73073 54:2094.1751 61:1 
0.0888671875 1:23 2:28565.066 3:23021.383 4:4 5:55276.521 6:49004.878 19:17940 20:38.362823 21:268.24148 22:47 23:2389.1218 24:5102.6323 25:36 26:17619.959 27:45611.502 28:23 29:18882.372 30:38747.957 34:1 37:1 43:374 44:1839.2938 45:4058.317 46:168 47:4039.0498 48:11522.27 52:2329 53:291.70045 54:2615.7817 61:1 
0.0888671875 1:21 2:28180.625 3:23828.718 4:4 5:55276.521 6:49004.878 7:1 19:16854 20:40.965072 21:281.56767 22:38 23:1918.0014 24:3898.4751 25:19 26:33048.565 27:58524.595 28:18 29:22048.028 30:42697.277 34:1 37:1 43:326 44:2114.7895 45:4225.5472 46:168 47:4042.4212 48:10798.758 52:2103 53:320.07864 54:2861.3458 55:28 56:2470.4752 57:2910.9761 61:1 
0.0888671875 1:18 2:29036.897 3:24753.172 4:1 7:1 19:16588 20:41.355497 21:287.55008 25:12 26:34757.693 27:54838.886 28:12 29:60545.934 30:101689 34:1 37:1 43:292 44:2344.8903 45:4608.6663 46:155 47:4324.7224 48:11067.999 52:1791 53:381.34116 54:3262.1725 55:125 56:1232.5676 57:1864.9959 61:1 
0.0888671875 1:14 2:50067.886 3:53484.938 4:1 7:1 19:17206 20:40.153467 21:290.16988 25:23 26:27650.182 27:54169.835 28:18 29:35540.77 30:80376.057 34:1 37:1 43:309 44:2197.7415 45:4415.2728 46:180 47:3774.6312 48:10224.766 52:1443 53:470.5686 54:3765.0309 55:125 56:1232.5676 57:1864.9959 61:1 
0.0888671875 1:16 2:44396.924 3:51784.258 7:1 16:1 19:16875 20:40.812108 21:301.69672 25:24 26:28296.277 27:53452.16 28:18 29:35111.831 30:80511.859 37:1 43:324 44:2112.8231 45:4185.4831 46:155 47:4308.97 48:11403.004 52:1058 53:629.43309 54:4580.8187 55:125 56:1232.5676 57:1864.9959 
0.0888671875 1:15 2:41549.88 3:52749.681 7:1 16:2 17:113168.21 18:0 19:17746 20:38.796814 21:294.57692 25:24 26:24240.618 27:46800.563 28:15 29:43323.701 30:88917.901 37:1 43:321 44:2076.7968 45:4191.087 46:123 47:5277.1902 48:11770.793 52:751 53:907.17431 54:6032.4312 55:125 56:1232.5676 57:1864.9959 
0.0888671875 1:16 2:39354.286 3:50406.78 4:2 5:4452.14 6:0 7:1 16:2 17:113168.21 18:0 19:17368 20:39.677589 21:284.36401 25:26 26:25336.34 27:45748.906 28:15 29:24642.576 30:33876.084 37:1 43:298 44:2276.7573 45:4815.487 46:127 47:4976.2834 48:9922.1419 52:86 53:7393.7719 54:14994.992 55:125 56:1232.5676 57:1864.9959 
0.0888671875 1:16 2:43718.293 3:53084.109 4:2 5:4452.14 6:0 7:1 16:2 17:113168.21 18:0 19:16656 20:41.449012 21:279.4821 25:27 26:23514.712 27:41428.694 28:15 29:24642.576 30:33876.084 37:2 38:603921.75 39:0 43:262 44:2602.2633 45:6091.5052 46:128 47:5025.98 48:10396.645 52:89 53:7075.9653 54:13251.171 55:125 56:1232.5676 57:1864.9959 
0.0888671875 1:13 2:39420.988 3:30529.632 4:2 5:4452.14 6:0 7:1 16:2 17:113168.21 18:0 19:16050 20:42.965222 21:275.46006 25:27 26:24655.32 27:41603.378 28:19 29:29773.473 30:50031.809 37:1 43:236 44:2849.0553 45:6546.669 46:137 47:4931.9783 48:11348.211 52:90 53:7461.1678 54:13419.909 55:125 56:1232.5676 57:1864.9959 
0.0888671875 1:16 2:34794.829 3:30279.305 4:2 5:4452.14 6:0 16:2 17:113168.21 18:0 19:15473 20:44.536462 21:278.80681 25:26 26:18282.535 27:27279.16 28:21 29:29682.477 30:47880.875 37:2 38:150554.11 39:0 43:269 44:2476.8281 45:6068.8392 46:135 47:5024.9127 48:11920.962 52:5457 53:125.79413 54:1949.2843 55:97 56:850.478 57:1192.4536 
0.0888671875 1:18 2:37706.177 3:29807.069 4:2 5:4452.14 6:0 16:2 17:113168.21 18:0 19:17228 20:39.922057 21:258.44456 25:29 26:22278.915 27:31866.107 28:19 29:28514.114 30:50214.124 37:2 38:150554.11 39:0 43:294 44:2342.7423 45:5888.6643 46:110 47:5721.6009 48:12972.057 52:5606 53:119.06568 54:1848.1627 
0.0888671875 1:16 2:37973.708 3:31717.859 4:2 5:4452.14 6:0 16:2 17:113168.21 18:0 19:16752 20:41.187473 21:256.35733 25:18 26:30805.297 27:35694.552 28:16 29:44753.981 30:69160.523 37:2 38:150554.11 39:0 43:269 44:2519.7524 45:6132.7465 46:97 47:7155.0372 48:14933.494 52:5822 53:114.92434 54:1734.6145 
0.0888671875 1:12 2:57483.465 3:45920.009 4:2 5:4452.14 6:0 16:1 19:16046 20:42.85687 21:268.46948 25:18 26:37384.335 27:46633.138 28:15 29:38650.199 30:67572.119 37:2 38:150554.11 39:0 43:290 44:2370.4807 45:5811.5698 46:98 47:6730.2777 48:14206.551 52:6143 53:105.63553 54:1423.4546 
0.0888671875 1:14 2:51758.858 3:44548.396 4:2 5:4452.14 6:0 19:15156 20:45.432794 21:282.38272 25:13 26:53526.676 27:46148.408 28:14 29:38121.44 30:70094.987 37:2 38:150554.11 39:0 43:293 44:2344.8421 45:5751.6677 46:101 47:6799.7151 48:13982.729 52:6506 53:105.92182 54:1318.0917 
0.0888671875 1:13 2:48573.22 3:43122.981 19:16463 20:41.827644 21:286.84073 25:13 26:51757.387 27:43048.681 28:11 29:54219 30:94334.626 37:2 38:150554.11 39:0 43:323 44:1994.8712 45:4148.609 46:83 47:7780.4767 48:15814.389 52:6705 53:100.83808 54:946.4335 
0.0888671875 1:11 2:47708.313 3:44440.925 19:16561 20:41.698699 21:301.67023 25:21 26:32951.693 27:42389.26 28:15 29:44357.222 30:83254.313 37:1 43:372 44:1832.7537 45:3811.77 46:92 47:7176.8987 48:14775.382 52:6839 53:100.22652 54:824.76538 
0.0888671875 1:10 2:47955.866 3:46838.306 19:17842 20:38.568358 21:299.85086 25:22 26:26779.94 27:37050.536 28:11 29:57220.896 30:94584.707 37:1 43:396 44:1730.7928 45:3309.208 46:79 47:8402.3596 48:15436.649 52:7100 53:94.622438 54:514.08013 
0.0888671875 1:10 2:72405.201 3:75747.018 19:18338 20:37.53365 21:295.58016 25:22 26:26779.94 27:37050.536 28:10 29:56969.015 30:91030.111 43:400 44:1724.9487 45:3213.1272 46:73 47:9260.9749 48:16094.796 52:1840 53:374.08682 54:991.96142 
0.0888671875 1:10 2:59241.323 3:69549.904 19:17572 20:39.204075 21:351.47975 25:19 26:19731.797 27:23845.937 28:10 29:56969.015 30:91030.111 43:364 44:1832.4315 45:4146.3889 46:72 47:9366.8474 48:16205.044 52:1710 53:404.08059 54:932.85469 
0.0888671875 1:13 2:53428.276 3:61876.979 19:18525 20:37.240349 21:347.26608 25:20 26:33010.952 27:60932.325 28:6 29:46995.725 30:62517.033 43:332 44:2072.4473 45:5221.3521 46:56 47:12516.446 48:17161.491 52:2553 53:270.19139 54:806.15937 
0.0888671875 1:12 2:54568.363 3:64507.613 4:1 19:18614 20:37.020346 21:397.97892 25:20 26:35246.66 27:60879.823 28:8 29:67497.581 30:88714.86 43:287 44:2341.6133 45:6135.8872 46:53 47:12239.404 48:17622.25 52:2335 53:295.99724 54:861.2359 
0.0888671875 1:10 2:67506.608 3:70741.577 4:2 5:107410.46 6:0 19:17741 20:38.730139 21:408.39658 25:19 26:32909.227 27:61867.069 28:8 29:67497.581 30:88714.86 43:258 44:2574.9721 45:6877.4383 46:54 47:11198.703 48:16111.884 52:2055 53:334.00795 54:937.37436 
0.0888671875 1:10 2:51351.622 3:34929.087 4:2 5:107410.46 6:0 19:16423 20:42.013452 21:421.34008 25:18 26:33367.911 27:63526.531 28:9 29:73180.16 30:96618.503 43:212 44:2922.7289 45:7833.7243 46:65 47:9846.6407 48:16785.636 52:2921 53:236.13362 54:858.63283 
0.0888671875 1:12 2:50006.226 3:36734.084 4:2 5:107410.46 6:0 19:17171 20:39.843203 21:410.53317 25:9 26:71774.851 27:79087.674 28:5 29:107295.27 30:108496.97 34:1 37:1 43:156 44:4397.0706 45:11473.847 46:63 47:10627.857 48:18479.913 52:3103 53:221.97623 54:844.22626 
0.0888671875 1:14 2:52069.075 3:34456.201 4:2 5:107410.46 6:0 19:16824 20:41.003926 21:425.56993 25:7 26:73390.471 27:42604.417 28:5 29:107295.27 30:108496.97 34:1 37:1 43:115 44:5985.4501 45:15141.753 46:61 47:10433.222 48:18714.648 52:3911 53:176.53324 54:768.51275 
0.0888671875 1:12 2:56055.366 3:34961.711 4:2 5:107410.46 6:0 19:17889 20:38.546197 21:407.05287 25:8 26:76053.99 27:39979.959 28:4 29:63898.877 30:90346.388 34:1 37:1 43:62 44:11237.929 45:19973.014 46:55 47:11305.185 48:20099.627 52:3814 53:181.23461 54:1105.2445 
0.0888671875 1:7 2:59334.42 3:34227.246 4:2 5:107410.46 6:0 19:17204 20:39.884488 21:371.36136 25:10 26:64575.928 27:41030.168 28:6 29:119888.73 30:142765.61 34:1 37:2 38:394887.53 39:0 43:54 44:12319.332 45:20437.623 46:69 47:9599.5393 48:22643.855 52:2690 53:256.83718 54:2559.515 
0.0888671875 1:7 2:59334.42 3:34227.246 4:2 5:599854.18 6:0 19:18528 20:37.25467 21:288.96479 25:9 26:80863.608 27:47748.949 28:6 29:97643.385 30:138450.03 34:1 37:2 38:394887.53 39:0 43:52 44:12684.495 45:21110.984 46:75 47:8282.5976 48:20653.399 52:2587 53:255.34972 54:2717.8095 
0.0888671875 1:7 2:100895.9 3:116228.95 4:1 19:19094 20:36.154687 21:276.56247 25:8 26:82248.956 27:50895.161 28:6 29:97643.385 30:138450.03 34:1 37:2 38:394887.53 39:0 43:48 44:13576.175 45:22480.217 46:59 47:9865.8026 48:23547.512 49:3 50:226.56184 51:222.72179 52:2507 53:274.39629 54:3097.357 
0.0888671875 1:6 2:103597.51 3:127150.35 4:1 19:21173 20:32.454916 21:251.92252 25:8 26:97988.194 27:62119.189 28:7 29:56730.729 30:60053.413 34:1 37:2 38:394887.53 39:0 43:53 44:13190.726 45:21756.416 46:61 47:10599.479 48:22494.019 49:3 50:226.56184 51:222.72179 52:1471 53:462.5576 54:4105.1915 
0.0888671875 1:5 2:151984.38 3:126416.02 4:1 19:22569 20:30.588992 21:229.58255 25:8 26:87109.024 27:56159.579 28:18 29:24557.313 30:43505.06 34:1 37:1 40:1 43:50 44:12448.717 45:19282.188 46:98 47:6860.1878 48:18501.354 49:3 50:226.56184 51:222.72179 52:1422 53:483.9757 54:4225.8991 
0.0888671875 1:4 2:212498.24 3:101375.9 4:1 16:1 19:23193 20:29.742477 21:197.1113 25:8 26:84444.401 27:56304.95 28:20 29:25426.444 30:41936.445 34:1 37:2 38:425589.06 39:0 40:1 43:50 44:13507.204 45:19300.641 46:110 47:6241.0971 48:17298.374 49:3 50:226.56184 51:222.72179 52:580 53:1184.5781 54:6573.8495 
0.0888671875 1:4 2:127719.63 3:28114.791 4:5 5:122909.84 6:212642.51 16:1 19:22881 20:30.089091 21:192.48174 25:11 26:64666.72 27:56536.589 28:20 29:25426.444 30:41936.445 34:1 37:2 38:425589.06 39:0 40:1 43:53 44:12437.926 45:19139.538 46:110 47:5681.5371 48:14387.387 49:3 50:226.56184 51:222.72179 52:602 53:1141.1929 54:6225.1275 
0.0888671875 1:6 2:109938.71 3:31508.071 4:5 5:122909.84 6:212642.51 16:1 19:95300 20:7.2508944 21:89.220005 25:15 26:41841.216 27:47767.723 28:21 29:31592.094 30:51973.293 31:1 34:1 37:1 40:1 43:64 44:10549.007 45:17830.283 46:119 47:5484.7923 48:14611.901 49:3 50:226.56184 51:222.72179 52:626 53:1084.4696 54:4283.9166 
0.0888671875 1:7 2:100670.48 3:35451.367 4:4 5:140.67107 6:193.62063 16:1 19:94751 20:7.2619683 21:95.374752 25:17 26:32249.789 27:27488.28 28:25 29:23871.924 30:42339.056 31:1 34:2 35:373686.83 36:0 37:1 40:1 43:77 44:8410.0262 45:14368.756 46:131 47:5113.8886 48:13099.626 49:3 50:226.56184 51:222.72179 52:631 53:1033.9028 54:3466.166 
0.0888671875 1:7 2:83184.716 3:22499.28 4:4 5:140.67107 6:193.62063 16:1 19:95581 20:7.2044103 21:101.20016 25:20 26:28912.66 27:26396.513 28:25 29:23871.924 30:42339.056 31:1 34:2 35:373686.83 36:0 37:1 40:1 43:86 44:7438.0127 45:13217.098 46:130 47:4615.8812 48:11861.237 52:645 53:1055.1536 54:3294.1456 
0.0888671875 1:9 2:76642.245 3:23609.513 4:5 5:99364.45 6:171860.71 16:1 19:94873 20:7.2713568 21:101.45183 25:21 26:28457.808 27:23728.273 28:23 29:30712.542 30:53776.03 31:1 34:2 35:373686.83 36:0 37:1 40:1 43:109 44:6338.3838 45:12040.936 46:134 47:5111.3401 48:14413.971 52:620 53:1108.8713 54:3419.5415 
0.0888671875 1:11 2:58753.455 3:26461.771 4:5 5:99364.45 6:171860.71 16:1 19:92880 20:7.3459194 21:112.03034 25:21 26:27044 27:21771.051 28:19 29:35155.812 30:57620.304 31:1 34:1 37:2 38:538360.7 39:0 43:123 44:5428.9895 45:10956.304 46:126 47:5157.6041 48:13997.062 52:432 53:1601.1014 54:4266.7442 
0.0888671875 1:10 2:54293.786 3:24065.364 4:5 5:99364.45 6:171860.71 19:92425 20:7.4639938 21:126.74626 25:22 26:30674.291 27:25869.362 28:18 29:32779.561 30:52176.782 31:1 34:2 35:390563.41 36:0 37:1 43:138 44:4889.7254 45:10314.147 46:129 47:5328.0472 48:14142.346 52:206 53:3304.428 54:6581.6488 
0.0888671875 1:11 2:55006.988 3:33651.747 4:1 19:91657 20:7.4632628 21:130.04391 25:21 26:31089.314 27:25589.845 28:25 29:26290.258 30:45471.049 31:1 34:2 35:390563.41 36:0 37:1 43:162 44:3947.1449 45:8807.9577 46:179 47:3644.2124 48:10875.79 52:245 53:2783.8173 54:6238.1857 
0.0888671875 1:13 2:55453.28 3:36101.711 4:1 19:89029 20:7.7569809 21:140.60949 25:19 26:36285.664 27:27695.275 28:25 29:24317.851 30:43061.031 31:1 34:2 35:390563.41 36:0 37:1 43:162 44:4122.7214 45:8840.0991 46:169 47:3905.7912 48:10575.219 49:1 52:364 53:1850.6279 54:5130.757 55:1 
0.0888671875 1:11 2:53836.077 3:39132.384 4:3 5:200514.65 6:200499.58 19:17695 20:38.686689 21:309.90025 25:17 26:40131.98 27:26077.05 28:25 29:22143.354 30:39505.932 34:2 35:390563.41 36:0 37:1 43:155 44:4244.5142 45:9095.4712 46:169 47:3889.6588 48:10063.39 49:2 50:64654.989 51:0 52:354 53:1851.0348 54:5137.2448 55:1 
0.0888671875 1:10 2:53047.534 3:41173.714 4:3 5:200514.65 6:200499.58 19:18018 20:38.224021 21:310.05302 25:23 26:30299.521 27:27722.417 28:23 29:22814.372 30:28785.954 34:1 37:1 43:161 44:4166.1884 45:9276.7894 46:162 47:3567.6064 48:7557.7033 49:5 50:42371.142 51:25913.749 52:359 53:1845.326 54:5217.4215 55:1 
0.0888671875 1:11 2:67199.627 3:76872.541 4:14 5:44522.784 6:113209.74 19:18800 20:36.567125 21:291.56318 25:22 26:31975.248 27:27253.28 28:28 29:22338.94 30:27888.862 34:1 37:1 40:2 41:37629.206 42:0 43:158 44:4276.9465 45:9308.7056 46:182 47:3732.7063 48:8616.9923 49:8 50:36703.705 51:33887.08 52:803 53:815.37834 54:3742.1156 55:1 
0.0888671875 1:12 2:60085.935 3:77656.097 4:13 5:14815.164 6:49106.278 19:18360 20:37.628725 21:306.65762 25:22 26:31343.943 27:27075.835 28:28 29:24404.414 30:28958.509 34:1 37:1 40:2 41:37629.206 42:0 43:140 44:4783.3463 45:9542.217 46:183 47:3648.2354 48:8303.1867 49:8 50:36703.705 51:33887.08 52:810 53:844.56688 54:3744.8046 55:2 56:404600.61 57:0 
0.0888671875 1:12 2:52478.97 3:74061.5 4:16 5:24228.176 6:61765.419 16:1 19:18787 20:36.308621 21:280.46197 25:24 26:28945.968 27:22189.638 28:26 29:24690.864 30:27039.487 34:3 35:309983.23 36:261286.48 37:1 40:3 41:72816.285 42:35187.079 43:131 44:5121.2128 45:9867.2597 46:174 47:3866.7042 48:9381.792 49:8 50:36703.705 51:33887.08 52:1113 53:593.32808 54:3077.8709 55:2 56:404600.61 57:0 
0.0888671875 1:62 2:11085.805 3:37411.172 4:16 5:24228.176 6:61765.419 16:1 19:18004 20:38.314454 21:321.04041 25:23 26:28298.934 27:22476.941 28:26 29:27068.381 30:29482.273 34:2 35:48696.749 36:0 37:1 40:3 41:72816.285 42:35187.079 43:123 44:5653.8944 45:10211.004 46:170 47:4056.1036 48:9713.661 49:22 50:22160.348 51:46606.57 52:1129 53:605.96467 54:2953.5488 55:2 56:404600.61 57:0 
0.0888671875 1:66 2:9364.7654 3:34548.504 4:16 5:24228.176 6:61765.419 16:1 19:18495 20:36.94634 21:353.05708 25:23 26:27647.441 27:20109.967 28:19 29:32691.794 30:31799.777 34:2 35:48696.749 36:0 37:1 40:3 41:72816.285 42:35187.079 43:95 44:6956.9737 45:11385.729 46:122 47:5375.3442 48:11790.561 49:22 50:22160.348 51:46606.57 52:1071 53:618.6229 54:3003.0395 55:2 56:404600.61 57:0 
0.0888671875 1:64 2:5322.151 3:14179.566 4:16 5:24228.176 6:61765.419 16:1 19:19783 20:34.50496 21:350.5816 25:25 26:26654.497 27:19080.046 28:18 29:39981.246 30:45955.668 34:2 35:48696.749 36:0 37:1 40:3 41:72816.285 42:35187.079 43:95 44:6805.4078 45:11408.87 46:118 47:5809.4577 48:12678.319 49:21 50:20035.616 51:46754.43 52:975 53:702.34423 54:3494.0087 55:1 
0.0888671875 1:65 2:7139.661 3:20150.164 4:14 5:14286.562 6:49462.66 16:1 19:20129 20:34.316533 21:354.80523 25:25 26:26115.348 27:18438.328 28:17 29:37141.612 30:45900.313 34:2 35:48696.749 36:0 37:1 40:3 41:72816.285 42:35187.079 43:94 44:6988.068 45:12160.321 46:109 47:5502.692 48:12821.172 49:21 50:31971.868 51:73700.282 52:959 53:705.82991 54:3501.656 55:1 
0.0888671875 1:67 2:8275.6391 3:22256.728 4:14 5:14286.562 6:49462.66 16:1 19:19838 20:34.599042 21:365.79648 25:17 26:36957.923 27:11006.273 28:13 29:39259.522 30:49745.404 34:2 35:48696.749 36:0 37:1 40:3 41:72816.285 42:35187.079 43:74 44:8100.372 45:13125.913 46:94 47:5066.0173 48:11530.565 49:18 50:28825.115 51:78019.775 52:949 53:668.94131 54:3373.5905 55:1 
0.0888671875 1:67 2:8483.7239 3:23134.066 4:9 5:62098.33 6:162544.46 16:1 19:18855 20:36.518229 21:396.2843 25:16 26:42128.621 27:26383.166 28:8 29:52506.804 30:58305.557 34:4 35:185105.55 36:224336.68 37:1 40:1 43:83 44:8278.4699 45:15168.071 46:103 47:6684.2158 48:24860.062 49:15 50:21004.135 51:72272.268 52:559 53:1220.7643 54:5294.5092 55:1 
0.0888671875 1:64 2:7908.4618 3:22703.496 4:9 5:62098.33 6:162544.46 16:1 19:19147 20:36.011145 21:393.77773 25:16 26:43958.617 27:25920.226 28:15 29:46449.545 30:76244.797 31:1 34:4 35:185105.55 36:224336.68 37:5 38:155453.23 39:244449.8 40:2 41:612718.24 42:0 43:89 44:7493.1998 45:14731.961 46:126 47:5513.1313 48:22559.925 49:15 50:21004.135 51:72272.268 52:597 53:1141.4634 54:5318.7033 55:1 
0.0888671875 1:66 2:9127.6817 3:29141.998 4:7 5:40065.831 6:87529.078 19:18642 20:36.893041 21:387.25478 25:16 26:43057.6 27:26127.211 28:12 29:51035.865 30:82125.012 31:1 34:2 35:5247.6702 36:0 37:4 38:14469.6 39:12989.952 40:1 43:89 44:7746.1741 45:15192.085 46:111 47:6133.7478 48:23367.193 49:15 50:21004.135 51:72272.268 52:222 53:3036.9 54:8366.6103 55:2 56:122938.33 57:0 
0.0888671875 1:23 2:30055.549 3:49085.33 4:7 5:40065.831 6:87529.078 19:18928 20:36.41617 21:365.37423 25:17 26:41254.354 27:25422.616 28:12 29:43864.574 30:74170.412 31:1 34:2 35:5247.6702 36:0 37:4 38:14469.6 39:12989.952 40:1 43:84 44:8141.7259 45:15721.18 46:104 47:6627.3506 48:24220.06 49:1 52:207 53:3227.1929 54:8650.6068 55:2 56:122938.33 57:0 
0.0888671875 1:25 2:23361.308 3:43821.343 4:7 5:40065.831 6:87529.078 19:18199 20:37.895757 21:338.84856 25:15 26:42599.527 27:26374.413 28:18 29:35752.002 30:63437.906 31:1 34:2 35:5247.6702 36:0 37:6 38:66725.086 39:112170.81 40:1 43:80 44:8489.3345 45:15900.594 46:131 47:5207.7337 48:21094.693 49:1 52:207 53:3338.7357 54:9248.8428 55:2 56:122938.33 57:0 
0.0888671875 1:29 2:24400.292 3:42644.929 4:7 5:40065.831 6:87529.078 19:18596 20:37.068533 21:321.87913 25:16 26:43890.682 27:28579.437 28:22 29:18313.972 30:26093.105 31:1 34:2 35:5247.6702 36:0 37:8 38:49888.057 39:98501.313 40:1 43:85 44:8082.9244 45:15258.66 46:152 47:3073.0479 48:6408.0521 49:1 52:200 53:3370.9112 54:9175.1199 55:2 56:122938.33 57:0 
0.0888671875 1:33 2:20663.596 3:38908.635 4:7 5:40065.831 6:87529.078 19:18147 20:37.86019 21:347.93206 25:16 26:44159.974 27:29765.061 28:24 29:19265.331 30:25828.856 31:1 34:2 35:5247.6702 36:0 37:8 38:49888.057 39:98501.313 40:1 43:85 44:7885.7144 45:14955.743 46:162 47:2952.843 48:6259.2393 52:206 53:3229.2149 54:9059.8737 55:2 56:122938.33 57:0 
0.0888671875 1:34 2:19151.225 3:36366.101 4:7 5:40065.831 6:87529.078 19:18373 20:36.989624 21:329.61219 25:18 26:37200.529 27:17278.652 28:25 29:24536.96 30:35756.18 31:1 34:2 35:5247.6702 36:0 37:8 38:49888.057 39:98501.313 40:1 43:91 44:7536.5368 45:12906.396 46:166 47:3764.7368 48:12702.37 52:203 53:2766.0576 54:7379.9684 55:2 56:122938.33 57:0 
0.0888671875 1:33 2:17354.549 3:29108.06 4:1 19:20291 20:33.977296 21:319.80359 25:20 26:35648.413 27:17080.783 28:25 29:24536.96 30:35756.18 31:1 37:10 38:75145.728 39:125285.91 40:1 43:84 44:8289.65 45:13455.189 46:140 47:4949.6463 48:14675.28 52:145 53:4736.019 54:13226.493 55:2 56:122938.33 57:0 
0.0888671875 1:33 2:17354.549 3:29108.06 4:1 19:17982 20:38.288473 21:330.27703 25:19 26:35742.833 27:17622.101 28:17 29:30065.432 30:41647.327 34:2 35:29000.79 36:0 37:6 38:68601.86 39:129141.28 43:81 44:8354.3 45:13092.846 46:143 47:4768.9313 48:14458.705 52:97 53:6650.8917 54:15493.438 55:1 
0.0888671875 1:29 2:22511.172 3:40382.988 19:18912 20:36.202109 21:321.3732 25:19 26:35394.922 27:17940.869 28:15 29:26432.743 30:40708.99 31:1 34:2 35:29000.79 36:0 37:6 38:68601.86 39:129141.28 43:78 44:8274.1431 45:12734.119 46:134 47:4697.2987 48:14654.803 52:94 53:7055.7546 54:16297.884 
0.0888671875 1:22 2:27251.49 3:45039.056 19:18232 20:37.829595 21:333.28709 25:19 26:36883.03 27:17871.319 28:14 29:21686.842 30:38332.367 31:1 34:2 35:29000.79 36:0 37:6 38:68601.86 39:129141.28 43:77 44:8735.4597 45:13747.112 46:130 47:5314.3752 48:16779.494 52:92 53:7004.795 54:16382.273 
0.0888671875 1:15 2:46352.568 3:60127.001 19:19304 20:35.688887 21:342.02484 25:20 26:35220.181 27:13741.362 28:8 29:32716.559 30:48955.674 31:1 34:2 35:29000.79 36:0 37:4 38:110047.23 39:153220.73 43:78 44:8690.7003 45:14147.631 46:99 47:6137.0487 48:18962.567 52:100 53:6911.046 54:16313.596 
0.0888671875 1:18 2:33821.477 3:57007.379 19:17509 20:39.311915 21:364.79298 25:17 26:38085.924 27:11907.769 28:6 29:133547.19 30:171731.17 31:1 34:2 35:29000.79 36:0 37:2 38:366.61137 39:0 43:65 44:9521.4871 45:15790.577 46:83 47:8347.5566 48:23258.709 52:360 53:1698.2168 54:8838.1458 
0.0888671875 1:16 2:45807.098 3:59909.849 4:1 19:19063 20:36.118243 21:322.32142 25:17 26:41530 27:12560.354 28:4 29:171012.82 30:206206.64 31:1 34:2 35:29000.79 36:0 37:2 38:366.61137 39:0 43:66 44:10222.775 45:17369.258 46:73 47:7358.3629 48:18576.393 52:348 53:1668.1336 54:8517.4864 
0.0888671875 1:32 2:20912.637 3:45774.026 4:1 19:17085 20:40.099107 21:331.43789 25:16 26:40560.115 27:13990.806 28:3 29:25971.893 30:25906.698 31:3 32:196207.09 33:196159.41 34:2 35:29000.79 36:0 37:2 38:366.61137 39:0 43:63 44:9812.9374 45:17003.567 46:74 47:8621.563 48:20412.831 52:354 53:1862.4409 54:8738.7756 55:1 
0.0888671875 1:33 2:14583.884 3:33377.705 4:1 19:15072 20:45.813751 21:340.24332 25:16 26:42300.84 27:12621.523 28:5 29:79902.189 30:96290.16 31:3 32:196207.09 33:196159.41 34:3 35:310971.13 36:281970.34 43:63 44:10805.885 45:18086.531 46:82 47:8370.2438 48:19666.462 52:427 53:1611.23 54:7948.1533 55:1 
0.0888671875 1:33 2:14583.884 3:33377.705 4:1 19:16776 20:41.14531 21:322.00249 25:17 26:42274.19 27:12228.406 28:7 29:68668.061 30:83848.155 31:3 32:196207.09 33:196159.41 34:2 35:117971.79 36:0 40:3 41:218.05224 42:30.702247 43:57 44:12234.462 45:19219.797 46:58 47:12063.377 48:22823.09 52:1591 53:432.3417 54:4168.0082 55:1 
0.0888671875 1:34 2:14494.817 3:34232.112 4:1 19:26276 20:26.251297 21:264.68122 25:16 26:42351.006 27:12689.175 28:13 29:37938.441 30:67306.189 31:2 32:47.684353 33:0 34:2 35:117971.79 36:0 40:3 41:218.05224 42:30.702247 43:60 44:10767.212 45:18353.423 46:97 47:6566.2113 48:16518.392 52:6289 53:103.15691 54:1934.2414 55:1 
0.0888671875 1:34 2:14494.817 3:34232.112 4:1 19:26053 20:26.109126 21:287.29595 25:17 26:41337.579 27:12848.967 28:15 29:42073.132 30:67988.365 31:2 32:47.684353 33:0 34:2 35:117971.79 36:0 40:3 41:218.05224 42:30.702247 43:63 44:10667.769 45:18104.222 46:111 47:5360.953 48:13274.46 52:6295 53:106.29662 54:1961.3512 55:1 
0.0888671875 1:33 2:13308.925 3:34088.828 4:2 5:485109.25 6:0 19:25583 20:26.920981 21:277.09211 25:16 26:41645.054 27:14291.327 28:15 29:42073.132 30:67988.365 31:2 32:47.684353 33:0 34:2 35:117971.79 36:0 40:3 41:218.05224 42:30.702247 43:60 44:10587.732 45:18346.536 46:112 47:6071.0473 48:15168.702 52:6296 53:109.65066 54:1906.0412 55:1 
0.0888671875 1:26 2:13200.864 3:34262.792 4:6 5:120548.57 6:187882.5 19:27178 20:25.401228 21:268.56286 25:18 26:39245.716 27:15082.937 28:13 29:37367.533 30:53778.622 31:2 32:47.684353 33:0 34:2 35:117971.79 36:0 40:3 41:218.05224 42:30.702247 43:69 44:9811.4349 45:17128.436 46:107 47:5510.333 48:12575.596 52:6022 53:108.17385 54:1444.7065 55:1 
0.0888671875 1:23 2:10259.089 3:35085.923 4:5 5:29408.397 6:50913.036 19:26267 20:26.191054 21:294.18278 22:23 23:2471.513 24:7277.4946 25:18 26:39516.386 27:12965.792 28:15 29:38092.03 30:49837.369 31:6 32:127985.61 33:251252.12 34:2 35:117971.79 36:0 40:3 41:218.05224 42:30.702247 43:69 44:9879.1024 45:16377.146 46:115 47:5868.0698 48:13139.016 52:6031 53:108.20865 54:1318.679 55:2 56:598325.89 57:0 
0.0888671875 1:4 2:57530.99 3:79774.312 4:5 5:29408.397 6:50913.036 19:26981 20:25.598055 21:292.0744 22:23 23:2471.513 24:7277.4946 25:17 26:41415.441 27:16744.725 28:15 29:38092.03 30:49837.369 31:5 32:24532.065 33:37225.59 34:4 35:203693.44 36:199801.34 40:3 41:218.05224 42:30.702247 43:67 44:10040.113 45:17352.185 46:112 47:5930.9476 48:13845.915 52:6039 53:112.02426 54:1302.478 55:1 
0.0888671875 1:2 2:2155.0243 3:0 4:6 5:63011.288 6:81180.828 19:26624 20:25.764103 21:297.73753 22:23 23:2471.513 24:7277.4946 25:16 26:42710.147 27:16843.434 28:13 29:35061.394 30:51576.988 31:5 32:24532.065 33:37225.59 34:3 35:246554.27 36:233173.14 40:3 41:218.05224 42:30.702247 43:64 44:10617.145 45:18170.366 46:110 47:6150.7715 48:14010.324 52:5989 53:112.25988 54:1316.4148 55:1 
0.0888671875 1:3 2:319968.4 3:317813.38 4:7 5:78344.124 6:81654.261 19:26343 20:25.734713 21:318.53951 22:23 23:2471.513 24:7277.4946 25:16 26:43153.937 27:17401.465 28:12 29:60751.537 30:81334.178 31:5 32:24532.065 33:37225.59 34:2 35:13381.134 36:0 37:1 40:2 41:2946.4548 42:0 43:61 44:11289.761 45:19408.627 46:93 47:7263.7752 48:15870.711 52:4835 53:142.94583 54:1387.3704 55:1 
0.0888671875 1:1 4:7 5:78344.124 6:81654.261 19:16192 20:42.573076 21:459.13502 22:23 23:2471.513 24:7277.4946 25:17 26:42519.108 27:18199.278 28:8 29:85719.041 30:85553.319 31:5 32:24532.065 33:37225.59 34:2 35:13381.134 36:0 37:1 40:2 41:2946.4548 42:0 43:61 44:11338.435 45:19506.332 46:71 47:9431.9697 48:17400.608 52:132 53:4794.7981 54:6446.0971 55:1 
0.0888671875 1:1 4:8 5:87499.509 6:78853.386 19:16013 20:42.96337 21:454.13994 22:23 23:2471.513 24:7277.4946 25:15 26:41514.594 27:16999.251 28:37 29:14135.492 30:44930.272 31:5 32:24532.065 33:37225.59 34:2 35:13381.134 36:0 37:3 38:81657.838 39:75587.534 40:4 41:65648.911 42:88486.275 43:61 44:9741.9328 45:17258.078 46:172 47:3437.6604 48:9931.0672 52:150 53:4490.8593 54:7058.9973 55:1 
0.0888671875 1:1 4:7 5:82484.034 6:84131.331 19:16425 20:41.908169 21:448.04934 22:23 23:2471.513 24:7277.4946 25:17 26:41921.067 27:16181.39 28:38 29:16754.384 30:47022.107 31:5 32:24532.065 33:37225.59 34:2 35:13381.134 36:0 37:4 38:92222.783 39:63499.761 40:5 41:76526.547 42:78913.462 43:73 44:9485.5201 45:16595.08 46:180 47:3795.4338 48:10760.12 52:126 53:5035.0391 54:7878.4011 55:1 
0.0888671875 1:1 4:9 5:54841.21 6:70898.718 19:16400 20:42.045169 21:453.59051 22:23 23:2471.513 24:7277.4946 25:17 26:40273.518 27:18034.6 28:37 29:15946.901 30:47417.005 31:5 32:24532.065 33:37225.59 34:2 35:13381.134 36:0 37:4 38:92222.783 39:63499.761 40:5 41:76526.547 42:78913.462 43:70 44:9338.7925 45:16766.085 46:174 47:3654.7383 48:10482.444 52:123 53:5442.1809 54:9331.9944 55:1 
0.0888671875 1:1 4:10 5:66551.324 6:74599.786 19:16590 20:41.306966 21:431.20415 25:17 26:36497.455 27:14899.429 28:47 29:9857.1999 30:26095.123 31:1 34:2 35:13381.134 36:0 37:5 38:103126.87 39:58145.182 40:6 41:93384.961 42:78222.069 43:78 44:7804.1352 45:14447.668 46:233 47:2781.9488 48:8471.958 52:116 53:5892.5211 54:10016.658 
0.0888671875 1:1 4:10 5:66551.324 6:74599.786 19:15893 20:42.625257 21:445.06839 25:18 26:37204.191 27:14928.565 28:56 29:9588.3325 30:24214.748 37:5 38:103126.87 39:58145.182 40:8 41:77127.995 42:70966.023 43:81 44:8164.739 45:14584.448 46:295 47:2275.0504 48:7350.3625 52:113 53:5835.7758 54:10182.782 
0.0888671875 1:1 4:10 5:63372.371 6:71299.179 19:16736 20:41.079069 21:455.18116 25:20 26:34083.358 27:15099.375 28:64 29:9889.9834 30:23555.176 31:1 37:7 38:103854.93 39:56762.66 40:8 41:77127.995 42:70966.023 43:88 44:7443.4966 45:12768.762 46:355 47:1840.3691 48:6071.3843 52:103 53:6556.5825 54:10753.024 
0.0888671875 4:9 5:53489.939 6:69570.521 19:16993 20:40.44195 21:426.53039 25:20 26:34482.251 27:15211.031 28:64 29:9808.3049 30:23283.74 31:1 37:7 38:89246.171 39:52241.197 40:6 41:69232.44 42:57480.773 43:90 44:7677.1553 45:12914.607 46:362 47:1894.7029 48:6231.903 52:243 53:2775.195 54:7590.0297 
0.0888671875 1:3 2:15.654733 3:0.587882 4:10 5:70832.986 6:81905.577 19:18548 20:36.343797 21:355.09911 25:19 26:35417.523 27:13932.314 28:64 29:9333.036 30:23154.949 31:1 37:7 38:89246.171 39:52241.197 40:6 41:69232.44 42:57480.773 43:86 44:7651.0712 45:12507.48 46:350 47:1814.1479 48:6085.6116 52:286 53:2189.923 54:6568.5195 
0.0888671875 1:3 2:15.654733 3:0.587882 4:10 5:65464.055 6:78630.226 19:18821 20:36.619163 21:351.31935 25:23 26:31019.332 27:16322.847 28:40 29:15529.814 30:30488.944 31:1 37:5 38:104013.51 39:44730.331 40:4 41:77929.924 42:58709.797 43:116 44:5941.9679 45:11403.922 46:294 47:2240.0778 48:6743.5406 52:259 53:2343.0505 54:7661.0742 
0.0888671875 1:3 2:15.654733 3:0.587882 4:10 5:65464.055 6:78630.226 19:19378 20:35.563998 21:342.84162 25:22 26:30047.557 27:16354.578 28:39 29:12926.165 30:26261.332 31:1 37:4 38:93404.969 39:47091.102 40:3 41:36485.579 42:4166.429 43:110 44:5906.5754 45:11223.875 46:302 47:2212.0961 48:6170.4601 52:258 53:2568.8781 54:9978.8905 
0.0888671875 1:3 2:15.654733 3:0.587882 4:4 5:142977.12 6:49032.483 19:18705 20:36.896999 21:336.72037 25:20 26:32039.819 27:15916.349 28:47 29:14241.376 30:28239.444 31:1 37:4 38:93404.969 39:47091.102 40:3 41:36485.579 42:4166.429 43:108 44:5689.3174 45:10785.063 46:351 47:1910.4563 48:5125.9368 52:388 53:1735.5079 54:8218.8077 
0.0888671875 1:10 2:37917.884 3:106440.42 4:3 5:151266.82 6:58310.54 19:19327 20:35.749492 21:327.88097 25:20 26:35056.198 27:20771.115 28:35 29:17168.899 30:32099.891 31:1 37:3 38:60521.029 39:9071.788 40:2 41:32319.15 42:0 43:105 44:6536.715 45:12324.221 46:296 47:2247.5317 48:5602.92 52:657 53:1048.212 54:6191.8843 
0.0888671875 1:11 2:46163.42 3:103963.97 4:4 5:197965.57 6:81414.319 16:1 19:20106 20:34.234221 21:280.68123 25:18 26:34126.154 27:21750.757 28:28 29:24362.334 30:44835.71 31:1 37:3 38:60521.029 39:9071.788 43:106 44:6364.6532 45:11992.502 46:249 47:2749.567 48:6405.3419 52:777 53:864.75584 54:5514.0349 61:1 
0.0888671875 1:12 2:44091.89 3:99341.972 4:3 5:192159.67 6:99203.385 16:2 17:94686.148 18:0 19:20942 20:32.978425 21:255.53062 25:15 26:42592.21 27:33217.911 28:22 29:27665.648 30:48119.618 37:1 43:103 44:6568.5708 45:12301.672 46:214 47:3151.6561 48:6954.6787 52:928 53:744.54788 54:5031.9085 55:1 61:1 
0.0888671875 1:12 2:44091.89 3:99341.972 4:4 5:196559.48 6:81237.868 16:2 17:94686.148 18:0 19:21217 20:32.539758 21:249.22711 25:15 26:46812.509 27:43301.689 28:24 29:29758.195 30:47132.919 43:104 44:6541.4751 45:13211.264 46:225 47:3067.4231 48:6901.0057 52:1926 53:356.32242 54:3554.1138 55:1 61:1 
0.0888671875 1:9 2:18251.075 3:39332.032 4:3 5:248361.08 6:43001.972 16:3 17:135200.27 18:40514.126 19:87318 20:7.8666564 21:130.60772 25:15 26:45876.177 27:45245.894 28:26 29:23694.379 30:39882.445 37:1 43:103 44:6311.2262 45:12803.694 46:231 47:2938.2827 48:6331.5757 52:2360 53:285.12316 54:2887.537 55:1 61:1 
0.0888671875 1:9 2:18251.075 3:39332.032 4:2 5:205359.11 6:0 16:3 17:135200.27 18:40514.126 19:85635 20:7.9966229 21:152.06973 25:12 26:55645.028 27:47320.943 28:20 29:29019.165 30:42620.578 37:1 43:73 44:8833.0968 45:14565.039 46:193 47:3569.3058 48:6608.5857 52:2388 53:271.87078 54:1651.7286 55:1 61:1 
0.0888671875 1:10 2:54460.145 3:108921.5 4:2 5:205359.11 6:0 16:4 17:152382.22 18:41045.112 19:82731 20:8.3111362 21:246.11533 25:11 26:64568.453 27:49884.327 28:22 29:31099.957 30:41203.871 37:1 43:66 44:10091.084 45:17830.403 46:196 47:3494.8931 48:7526.894 52:2417 53:273.11886 54:1446.0957 55:3 56:190579.18 57:157836.34 61:1 
0.0888671875 1:10 2:54460.145 3:108921.5 4:2 5:205359.11 6:0 16:4 17:152382.22 18:41045.112 19:80903 20:8.5393 21:259.64784 25:10 26:61074.947 27:51409.087 28:15 29:37283.145 30:32986.104 37:1 40:1 43:61 44:11122.033 45:17840.086 46:157 47:4267.2444 48:8509.734 52:2293 53:293.54269 54:1539.9512 55:38 56:11794.366 57:56508.768 61:1 
0.0888671875 1:17 2:38680.785 3:95477.138 4:2 5:205359.11 6:0 16:4 17:152382.22 18:41045.112 19:78098 20:8.845734 21:265.32025 25:11 26:55310.906 27:48348.857 28:20 29:31790.896 30:31979.955 37:1 40:1 43:67 44:10146.627 45:17626.914 46:178 47:3869.2472 48:8439.638 52:2032 53:329.81531 54:1757.5158 55:38 56:11794.366 57:56508.768 61:1 
0.0888671875 1:16 2:39701.065 3:98523.875 4:1 16:3 17:181230.25 18:5515.8492 19:76116 20:8.987318 21:280.86504 25:14 26:49332.143 27:44459.988 28:21 29:31247.743 30:31139.889 37:2 38:460144.26 39:0 40:1 43:70 44:9696.5046 45:17755.354 46:189 47:3645.5828 48:8191.3358 52:1910 53:359.39198 54:1979.0126 55:38 56:11794.366 57:56508.768 
0.0888671875 1:17 2:22692.543 3:56904.716 4:1 16:3 17:273322.66 18:86576.556 19:72672 20:9.4433889 21:307.71464 25:30 26:18839.196 27:31446.746 28:28 29:22777.161 30:27867.673 37:6 38:96106.725 39:182140.3 40:3 41:137240.29 42:135072.06 43:133 44:4479.671 45:12725.581 46:220 47:3000.9901 48:7456.0834 52:1748 53:391.45628 54:2283.762 55:38 56:9413.0516 57:42357.794 
0.0888671875 1:17 2:22692.543 3:56904.716 16:3 17:273322.66 18:86576.556 19:70322 20:9.699771 21:325.74408 25:30 26:20245.173 27:32410.991 28:29 29:23247.436 30:31766.4 34:1 37:6 38:96106.725 39:182140.3 40:3 41:137240.29 42:135072.06 43:136 44:4657.8143 45:13887.51 46:212 47:3162.7848 48:8545.4044 52:609 53:1113.0391 54:3770.6305 55:38 56:9413.0516 57:42357.794 
0.0888671875 1:17 2:25922.995 3:68560.198 16:1 19:576 20:1192.6767 21:2763.9343 25:74 26:8015.015 27:16385.775 28:64 29:9652.2494 30:20987.539 34:1 37:5 38:5097.3404 39:7437.737 40:4 41:146030.48 42:110984.28 43:370 44:1763.0207 45:7814.9107 46:342 47:1982.6619 48:6994.5421 52:112 53:5911.0239 54:7571.5267 55:36 56:8217.9802 57:43242.945 
0.0888671875 1:17 2:25922.995 3:68560.198 16:1 19:599 20:1154.8032 21:2905.9155 25:79 26:8750.5271 27:16504.622 28:68 29:9650.5457 30:20052.509 31:2 32:121.30273 33:0 34:1 37:5 38:5097.3404 39:7437.737 40:3 41:82889.541 42:80721.31 43:403 44:1697.8645 45:7555.7893 46:350 47:1890.8909 48:6708.8748 52:132 53:5218.3754 54:7589.3148 55:1 
0.0888671875 1:3 2:146831.06 3:129659.27 4:7 5:3675.811 6:8038.1042 16:1 19:605 20:1132.9683 21:2947.7547 25:82 26:8187.7575 27:15634.469 28:65 29:8992.8457 30:19485.543 31:2 32:121.30273 33:0 34:1 37:5 38:5097.3404 39:7437.737 40:3 41:82889.541 42:80721.31 43:457 44:1454.4052 45:6630.2039 46:341 47:1981.3389 48:7006.0893 52:172 53:3963.376 54:6576.5649 55:2 56:503953.49 57:0 
0.0888671875 1:4 2:219981.12 3:148018.73 4:7 5:3675.811 6:8038.1042 16:1 19:616 20:1117.4524 21:3015.0625 25:82 26:8461.3346 27:16313.283 28:72 29:9182.3535 30:22695.992 31:2 32:121.30273 33:0 34:1 37:4 38:805.82926 39:302.71339 40:3 41:82889.541 42:80721.31 43:467 44:1471.8871 45:6745.8526 46:353 47:1952.1897 48:7013.7851 52:184 53:3759.6549 54:6219.6281 55:2 56:503953.49 57:0 
0.0888671875 1:2 2:366281.23 3:0 4:7 5:3675.811 6:8038.1042 19:550 20:1249.1383 21:3130.7661 25:67 26:8827.1907 27:14478.76 28:68 29:8058.0561 30:20471.644 31:2 32:121.30273 33:0 34:1 40:1 43:400 44:1460.4946 45:5732.2773 46:307 47:2026.2832 48:6909.5703 52:186 53:3520.7682 54:5447.5715 55:1 
0.0888671875 1:2 2:366281.23 3:0 4:7 5:3675.811 6:8038.1042 16:1 19:556 20:1228.8794 21:3067.4554 25:68 26:10117.765 27:23021.603 28:67 29:10193.432 30:27607.257 31:2 32:121.30273 33:0 37:1 40:1 43:399 44:1703.2428 45:9367.4673 46:303 47:2227.7051 48:9254.7975 52:177 53:3858.9182 54:6691.3307 55:1 
0.0888671875 1:3 2:300543.84 3:65737.389 4:7 5:3675.811 6:8038.1042 16:1 19:547 20:1247.542 21:3295.1153 25:64 26:8891.6757 27:22179.911 28:63 29:9523.7797 30:28022.003 31:2 32:121.30273 33:0 37:1 43:398 44:1654.5691 45:9008.6105 46:286 47:2390.2341 48:10082.282 52:175 53:3765.8343 54:6920.721 55:1 
0.0888671875 1:49 2:8980.1223 3:24595.191 16:1 19:202 20:3392.1237 21:6749.0221 25:16 26:44306.527 27:47876.503 28:44 29:15558.659 30:45686.82 37:1 43:99 44:6784.3767 45:19941.251 46:171 47:3935.4299 48:15601.25 52:111 53:6240.5944 54:10157.226 
0.0888671875 1:49 2:8980.1223 3:24595.191 4:1 7:2 8:7128.0487 9:0 16:1 19:178 20:3888.1251 21:7691.2025 25:16 26:39953.854 27:35662.248 28:39 29:13395.907 30:42270.702 37:1 43:105 44:5822.4868 45:13782.234 46:154 47:3525.4436 48:13443.158 52:120 53:5731.4045 54:9154.6374 
0.0888671875 1:50 2:12638.243 3:35141.238 4:2 5:63805.655 6:0 7:2 8:7128.0487 9:0 19:146 20:4517.7974 21:8544.5761 25:15 26:37200.241 27:17978.89 28:36 29:7440.8741 30:17766.862 43:104 44:6327.4601 45:14128.406 46:144 47:3645.7553 48:13824.732 52:146 53:4685.7329 54:7824.3719 
0.0888671875 1:49 2:11416.097 3:34459.331 4:2 5:63805.655 6:0 7:2 8:7128.0487 9:0 19:156 20:4040.3192 21:7563.2527 25:17 26:38352.292 27:17182.531 28:36 29:7440.8741 30:17766.862 43:105 44:6053.3932 45:14136.493 46:145 47:4371.8925 48:19263.424 52:185 53:3692.0772 54:6380.0755 
0.0888671875 1:48 2:8767.7378 3:29598.101 4:2 5:63805.655 6:0 7:2 8:7128.0487 9:0 19:200 20:3424.6455 21:7029.3228 25:20 26:34495.372 27:17645.252 28:41 29:14600.743 30:52230.812 43:113 44:5940.9716 45:13826.727 46:166 47:3632.3912 48:16985.838 52:215 53:3108.7574 54:5127.6216 
0.0888671875 1:25 2:14717.022 3:39278.951 4:3 5:197562.49 6:133756.83 7:2 8:7128.0487 9:0 19:198 20:3387.6386 21:6817.8269 25:18 26:38109.3 27:16316.363 28:29 29:18780.924 30:61412.207 43:92 44:7253.4312 45:15382.367 46:118 47:5480.748 48:21209.45 52:209 53:3220.1735 54:6325.1354 61:1 
0.0888671875 1:7 2:41874.735 3:66436.188 4:3 5:197562.49 6:133756.83 7:2 8:7128.0487 9:0 19:237 20:2818.2816 21:6035.5719 25:19 26:36092.744 27:15963.273 28:11 29:61980.56 30:101005.07 40:1 43:107 44:6131.5319 45:13107.633 46:79 47:8428.2361 48:25157.829 52:201 53:3439.6403 54:6648.9792 61:1 
0.0888671875 1:3 2:109109.9 3:79118.129 4:3 5:197562.49 6:133756.83 7:2 8:7128.0487 9:0 19:264 20:2611.4389 21:5560.5481 25:18 26:37658.52 27:19476.987 28:9 29:75268.35 30:108306.4 40:1 43:95 44:6810.5914 45:13400.456 46:93 47:6774.5726 48:22369.735 52:186 53:3379.9239 54:6754.1021 61:1 
0.0888671875 1:1 4:3 5:197562.49 6:133756.83 7:2 8:7128.0487 9:0 19:282 20:2446.4989 21:4920.1015 25:17 26:39771.641 27:19251.813 28:8 29:39804.18 30:57830.549 40:1 43:101 44:6771.923 45:13097.029 46:113 47:6049.023 48:20557.244 52:176 53:3885.4711 54:9582.9389 61:1 64:1 
0.0888671875 1:1 4:2 5:331319.32 6:0 19:344 20:1942.9996 21:3683.1513 25:22 26:30055.853 27:22089.575 28:11 29:40393.327 30:55073.796 40:1 43:110 44:6079.6473 45:12200.888 46:172 47:3288.9119 48:10256.787 52:148 53:4030.886 54:10364.902 61:1 64:1 
0.0888671875 4:1 19:380 20:1796.1573 21:2917.6617 25:22 26:31359.294 27:22246.025 28:12 29:49227.329 30:59479.244 40:1 43:106 44:6271.8662 45:12708.64 46:180 47:3750.4646 48:10985.661 52:126 53:5413.2496 54:14641.874 61:1 64:1 
0.0888671875 4:1 19:395 20:1732.1353 21:2565.1355 25:22 26:30972.19 27:22209.587 28:12 29:49227.329 30:59479.244 40:1 43:105 44:6254.0071 45:12470.59 46:185 47:3365.8455 48:9737.3009 52:80 53:8241.6732 54:18193.494 61:1 64:1 
0.0888671875 4:1 19:375 20:1805.6629 21:2382.8711 25:20 26:33614.035 27:22664.847 28:7 29:62889.245 30:49863.915 40:1 43:95 44:6794.3303 45:13304.05 46:163 47:3544.5748 48:9343.129 52:43 53:13440.205 54:23319.257 61:1 64:1 
0.0888671875 4:3 5:14889.602 6:14872.572 19:382 20:1812.3855 21:2374.8474 25:20 26:33137.193 27:24812.241 28:8 29:81048.662 30:64107.683 34:1 40:1 43:95 44:6992.0133 45:13675.93 46:172 47:3606.8837 48:9814.4622 52:39 53:12561.11 54:22931.554 64:1 
0.0888671875 4:3 5:14889.602 6:14872.572 19:346 20:1992.1242 21:2401.6916 25:19 26:31934.24 27:21746.66 28:10 29:69755.322 30:63617.249 34:1 43:77 44:8264.3199 45:15262.179 46:156 47:4174.9484 48:12311.078 52:24 53:15245.668 54:27534.906 64:1 
0.0888671875 4:3 5:14889.602 6:14872.572 19:353 20:1952.9188 21:2299.1481 25:21 26:31826.457 27:20699.32 28:8 29:69083.103 30:69274.316 34:1 43:81 44:8109.3171 45:14706.942 46:129 47:5252.8036 48:14076.888 52:21 53:12534.939 54:23745.319 55:1 64:1 
0.0888671875 4:3 5:14889.602 6:14872.572 13:2 14:123.54071 15:0 16:1 19:379 20:1823.5699 21:2102.1167 25:23 26:29809.727 27:19691.014 28:9 29:75202.846 30:66792.389 34:1 43:75 44:8911.7146 45:15616.748 46:115 47:5587.7706 48:14543.614 52:12 53:12372.631 54:18162.13 55:1 
0.0888671875 4:3 5:14889.602 6:14872.572 13:2 14:123.54071 15:0 16:1 19:356 20:1927.3697 21:2138.944 22:2 23:169.91756 24:0 25:19 26:35723.28 27:15687.418 28:6 29:89678.749 30:65837.048 34:1 43:65 44:10047.179 45:15880.402 46:58 47:11284.529 48:20277.068 52:12 53:12372.631 54:18162.13 55:1 
0.0888671875 4:3 5:14889.602 6:14872.572 13:2 14:123.54071 15:0 16:1 19:364 20:1887.7783 21:2049.9893 22:3 23:71778.386 24:71608.469 25:19 26:36560.35 27:15299.771 28:9 29:58796.186 30:67015.004 34:1 43:73 44:9285.7709 45:14990.052 46:70 47:9289.323 48:18533.549 52:10 53:74222.777 54:174386.42 55:1 
0.0888671875 4:3 5:14889.602 6:14872.572 13:2 14:123.54071 15:0 16:1 19:384 20:1800.413 21:1970.1921 22:3 23:71778.386 24:71608.469 25:20 26:34727.451 27:16211.672 28:9 29:58796.186 30:67015.004 34:1 43:74 44:9067.8529 45:14772.759 46:76 47:8693.8556 48:17358.426 52:8 53:22695.961 54:33507.816 55:1 
0.0888671875 4:3 5:14889.602 6:14872.572 13:2 14:123.54071 15:0 16:1 19:392 20:1756.3755 21:1885.8874 22:3 23:71778.386 24:71608.469 25:22 26:29969.033 27:14959.061 28:9 29:58796.186 30:67015.004 34:1 43:79 44:8336.2652 45:13415.688 46:83 47:8372.6291 48:16620.806 52:9 53:29638.946 54:36329.91 55:1 
0.0888671875 13:2 14:123.54071 15:0 16:1 19:386 20:1791.264 21:1898.4237 22:3 23:71778.386 24:71608.469 25:22 26:31513.638 27:14548.822 28:8 29:52615.384 30:69476.364 43:79 44:8484.4461 45:13487.648 46:73 47:8212.6347 48:14606.297 52:23 53:13733.806 54:25969.608 55:1 
0.0888671875 13:2 14:123.54071 15:0 16:1 19:408 20:1688.557 21:1773.5491 22:5 23:117532.43 24:102737.57 25:21 26:32975.567 27:18133.322 28:9 29:65992.728 30:113344.13 43:75 44:8912.3207 45:15554.626 46:77 47:8506.1422 48:16937.553 52:23 53:13733.806 54:25969.608 55:1 
0.0888671875 13:2 14:123.54071 15:0 16:1 19:400 20:1730.5684 21:1940.4494 22:5 23:117532.43 24:102737.57 25:22 26:31280.091 27:18450.399 28:11 29:65832.261 30:105480.17 43:78 44:8530.9339 45:15126.412 46:87 47:7947.5207 48:16180.935 52:25 53:21037.422 54:35536.679 
0.0888671875 19:378 20:1828.5897 21:2109.7093 22:7 23:109779.16 24:90137.357 25:27 26:26400.197 27:20580.028 28:14 29:43658.961 30:86803.187 43:91 44:7626.7279 45:14737.944 46:103 47:6726.5918 48:14363.882 52:28 53:20268.641 54:33827.676 61:1 
0.0888671875 19:385 20:1790.0992 21:2079.66 22:8 23:80763.666 24:89976.33 25:24 26:25251.288 27:20997.047 28:18 29:37582.798 30:77640.954 43:89 44:7353.0634 45:14556.809 46:146 47:4536.6385 48:11629.985 52:40 53:17143.753 54:29556.408 61:1 
0.0888671875 19:366 20:1887.4824 21:2336.1411 22:10 23:44436.027 24:42638.313 25:25 26:28077.178 27:24326.899 28:17 29:20999.556 30:35592.16 43:82 44:8319.1687 45:15689.09 46:139 47:4591.36 48:11481.358 52:38 53:16385.785 54:28736.523 61:1 
0.0888671875 19:383 20:1805.6765 21:2275.5383 22:21 23:25352.839 24:36284.727 25:23 26:28593.684 27:24831.205 28:17 29:20999.556 30:35592.16 43:77 44:8685.8937 45:15802.02 46:132 47:5247.2049 48:13704.042 52:39 53:15698.15 54:26827.113 61:1 
0.0888671875 19:390 20:1766.2326 21:2380.8944 22:34 23:17330.606 24:30909.791 25:22 26:29936.092 27:25399.07 28:21 29:25886.073 30:46928.447 43:78 44:8445.8686 45:15709.663 46:144 47:4568.6524 48:12792.713 52:41 53:16431.803 54:28569.755 61:1 
0.0888671875 1:1 19:381 20:1811.0585 21:2447.9743 22:52 23:13215.547 24:26489.141 25:22 26:28400.218 27:23177.262 28:21 29:25886.073 30:46928.447 43:79 44:7646.2176 45:13572.642 46:152 47:4438.8432 48:10796.724 52:38 53:15946.222 54:23205.503 61:1 
0.0888671875 1:1 4:1 19:372 20:1859.7629 21:2499.102 22:58 23:9177.8082 24:17075.69 25:23 26:28527.277 27:23096.743 28:22 29:29804.098 30:55871.634 43:86 44:7784.0756 45:13278.668 46:165 47:4064.3277 48:9808.9168 52:39 53:17936.657 54:25901.973 61:1 
0.0888671875 1:2 2:210623.04 3:0 4:1 19:360 20:1914.2084 21:2594.0472 22:62 23:10299.752 24:20266.294 25:22 26:29875.081 27:25014.408 28:23 29:29463.026 30:54539.719 43:82 44:8265.3827 45:13500.601 46:169 47:4003.858 48:9904.0714 52:42 53:16690.236 54:24151.727 61:1 
0.0888671875 1:2 2:210623.04 3:0 4:1 19:358 20:1915.9862 21:2688.4699 22:65 23:10532.797 24:20217.415 25:15 26:41502.508 27:28504.343 28:19 29:30500.755 30:58995.37 31:1 43:66 44:10043.423 45:14617.868 46:147 47:4411.319 48:10466.489 52:40 53:16037.952 54:23953.19 
0.0888671875 1:2 2:210623.04 3:0 4:2 5:207597.02 6:0 19:347 20:1994.8863 21:2827.7184 22:65 23:9788.6656 24:19641.492 25:19 26:38307.509 27:26946.242 28:22 29:30696.313 30:58402.438 31:1 43:67 44:10447.505 45:15175.782 46:123 47:5423.7955 48:11755.338 52:30 53:23403.212 54:33530.744 
0.0888671875 1:2 2:210623.04 3:0 4:2 5:207597.02 6:0 19:353 20:1959.9427 21:2661.1744 22:62 23:8751.0179 24:18944.738 25:18 26:36553.834 27:28326.549 28:19 29:26179.338 30:52187.44 31:1 43:66 44:9849.2536 45:14316.796 46:110 47:4894.5361 48:8939.6031 52:30 53:22548.921 54:31712.554 
0.0888671875 1:2 2:210623.04 3:0 4:2 5:207597.02 6:0 19:319 20:2157.5169 21:2841.8938 22:51 23:9419.9758 24:19605.887 25:19 26:36127.188 27:27290.982 28:20 29:35643.74 30:64749.778 31:1 43:69 44:9563.0882 45:14281.684 46:112 47:6101.2086 48:15662.387 52:32 53:18976.117 54:28909.085 55:1 
0.0888671875 1:2 2:210623.04 3:0 4:4 5:152077.4 6:108743.06 19:290 20:2378.3662 21:3033.936 22:38 23:10128.21 24:21112.955 25:18 26:38273.866 27:26581.877 28:16 29:30793.115 30:55779.128 31:1 40:2 41:12323.127 42:0 43:69 44:9916.3454 45:14323.056 46:110 47:6281.4164 48:15869.127 52:29 53:20099.35 54:30011.226 55:1 
0.0888671875 1:3 2:51598.079 3:51596.995 4:4 5:119837.13 6:101607.03 19:332 20:2060.5741 21:3289.2972 22:8 23:14847.627 24:20033.859 25:17 26:37010.46 27:16193.522 28:24 29:23592.668 30:45798.685 31:2 32:601109.2 33:0 40:5 41:13722.026 42:8771.5182 43:86 44:7506.9208 45:13362.141 46:171 47:3900.5615 48:12673.537 52:65 53:10344.741 54:27993.046 55:1 
0.0888671875 1:3 2:51598.079 3:51596.995 4:4 5:119837.13 6:101607.03 19:336 20:2053.6252 21:3279.0584 22:3 23:421.23665 24:146.67701 25:18 26:37677.198 27:15821.603 28:24 29:23592.668 30:45798.685 31:1 37:1 40:5 41:13722.026 42:8771.5182 43:88 44:7613.434 45:13564.992 46:170 47:4038.3062 48:13349.86 52:78 53:8055.1893 54:21616.155 55:1 
0.0888671875 1:3 2:51598.079 3:51596.995 4:3 5:55496.659 6:55379.546 13:1 19:303 20:2270.7792 21:3735.3158 25:16 26:45087.937 27:12646.781 28:17 29:19394.187 30:27321.195 31:1 37:1 40:5 41:13722.026 42:8771.5182 43:85 44:8051.422 45:14196.082 46:150 47:3887.4518 48:9925.9609 52:113 53:6060.9309 54:18503.616 55:1 61:1 
0.0888671875 1:3 2:51598.079 3:51596.995 4:4 5:187290.55 6:191791.17 13:1 19:293 20:2341.8445 21:3884.9637 25:14 26:44974.422 27:13546.835 28:20 29:31269.374 30:62162.8 31:1 37:1 40:5 41:13722.026 42:8771.5182 43:81 44:8232.2593 45:14714.75 46:171 47:3810.1284 48:9435.7237 52:125 53:4988.2462 54:17014.311 55:1 61:1 
0.0888671875 1:3 2:51598.079 3:51596.995 4:4 5:187290.55 6:191791.17 13:1 19:259 20:2564.5405 21:4230.9177 25:14 26:49392.982 27:18786.078 28:19 29:27117.031 30:61247.818 31:1 37:1 40:5 41:13722.026 42:8771.5182 43:80 44:8128.7234 45:14797.585 46:167 47:4047.4319 48:9772.2279 52:126 53:4396.8136 54:10466.93 61:1 
0.0888671875 1:4 2:192959.6 3:204306.12 4:2 5:450878.33 6:0 13:1 19:253 20:2694.5473 21:4663.2472 25:15 26:46922.764 27:19285.697 28:19 29:27117.031 30:61247.818 31:1 37:1 40:3 41:7181.692 42:2301.2403 43:79 44:8616.9105 45:15466.254 46:154 47:4359.6591 48:10588.524 52:126 53:4396.8136 54:10466.93 61:1 
0.0888671875 1:5 2:156422.78 3:187911.04 4:1 13:1 19:249 20:2778.9693 21:4597.6087 25:17 26:40534.275 27:21316.136 28:20 29:35979.772 30:72339.182 31:1 37:1 43:84 44:7813.8409 45:14137.058 46:176 47:3915.9681 48:10095.718 52:126 53:4744.4093 54:12744.411 61:1 
0.0888671875 1:4 2:174165.35 3:214059.69 4:1 13:1 19:235 20:2879.2531 21:4684.2286 25:15 26:41771.177 27:20432.893 28:18 29:34171.725 30:76440.335 31:1 37:1 43:65 44:9660.5863 45:15505.478 46:164 47:4066.6663 48:10342.356 52:116 53:5340.0182 54:15764.591 61:1 
0.0888671875 1:2 2:46812.339 3:0 4:1 13:1 19:232 20:2926.1582 21:4762.1655 25:17 26:42158.781 27:23409.463 28:16 29:29222.907 30:58726.182 37:1 43:63 44:10879.692 45:17327.69 46:163 47:3882.2004 48:9001.6 52:79 53:8407.5676 54:19959.582 61:1 
0.0888671875 1:2 2:46812.339 3:0 4:1 13:1 19:222 20:3022.0661 21:4737.4145 25:17 26:41171.355 27:22794.944 28:17 29:31812.648 30:57739.225 40:2 41:32965.73 42:0 43:66 44:10431.268 45:16981.926 46:181 47:3674.3816 48:8325.8851 52:76 53:8550.6066 54:20896.82 61:1 
0.0888671875 1:2 2:46812.339 3:0 4:1 16:1 19:246 20:2789.7323 21:4418.539 25:18 26:33968.554 27:18791.264 28:19 29:33776.76 30:56694.738 40:2 41:32965.73 42:0 43:67 44:9396.7952 45:15625.615 46:198 47:3423.4792 48:7703.0181 52:41 53:16582.169 54:27267.658 
0.0888671875 1:5 2:133702.9 3:197479.32 16:1 19:290 20:2332.1191 21:4011.7381 25:22 26:31556.724 27:18644.938 28:28 29:18293.526 30:33535.878 40:2 41:32965.73 42:0 43:73 44:9204.1135 45:15376.766 46:268 47:2529.1326 48:6567.9513 52:33 53:19409.25 54:27275.394 
0.0888671875 1:5 2:133702.9 3:197479.32 16:1 19:343 20:2013.4234 21:3399.0483 25:23 26:29558.372 27:18094.648 28:36 29:16829.864 30:30527.073 40:2 41:32965.73 42:0 43:76 44:9034.9643 45:14587.49 46:324 47:1994.6237 48:4849.2992 52:29 53:20312.504 54:27379.891 55:2 56:57.526937 57:0 
0.0888671875 1:4 2:162666.42 3:220549.09 16:1 19:372 20:1842.6666 21:2985.7686 25:22 26:31078.342 27:19090.798 28:41 29:16619.67 30:29126.019 40:2 41:32965.73 42:0 43:74 44:9257.2836 45:14706.385 46:359 47:1887.9447 48:4551.619 52:32 53:21820.927 54:30509.984 55:2 56:57.526937 57:0 
0.0888671875 1:3 2:6763.5522 3:6763.4766 16:1 19:379 20:1824.1789 21:2954.0661 25:21 26:32545.073 27:18919.492 28:41 29:17025.61 30:28889.266 40:2 41:32965.73 42:0 43:70 44:9688.1451 45:15011.734 46:377 47:1834.0976 48:4482.3293 52:36 53:18716.548 54:25553.017 55:2 56:57.526937 57:0 
0.0888671875 1:3 2:6763.5522 3:6763.4766 16:1 19:386 20:1771.1064 21:2586.1698 25:22 26:31147.479 27:14546.259 28:37 29:15057.309 30:22056.878 40:2 41:32965.73 42:0 43:73 44:9351.8441 45:14374.462 46:342 47:1993.9884 48:4876.295 52:39 53:17959.286 54:24750.006 55:7 56:45569.613 57:101527.97 
0.0888671875 1:3 2:6763.5522 3:6763.4766 16:1 19:401 20:1708.248 21:2612.3602 25:21 26:30852.786 27:15740.169 28:40 29:16648.966 30:28337.963 31:3 32:16.274857 33:12.162806 40:2 41:32965.73 42:0 43:73 44:9491.5997 45:15193.161 46:345 47:1984.2019 48:5136.191 52:36 53:17740.818 54:24968.462 55:7 56:45569.613 57:101527.97 
0.0888671875 1:3 2:6763.5522 3:6763.4766 16:1 19:431 20:1575.4638 21:2437.7768 25:22 26:30571.324 27:15884.309 28:42 29:14086.401 30:24861.131 31:3 32:16.274857 33:12.162806 43:71 44:9392.3107 45:14912.632 46:372 47:1745.1986 48:4385.5352 52:28 53:23561.042 54:27409.365 55:7 56:45569.613 57:101527.97 
0.0888671875 1:3 2:6763.5522 3:6763.4766 19:460 20:1486.4931 21:2437.9999 25:22 26:30523.666 27:14712.841 28:50 29:13487.137 30:25425.228 31:3 32:16.274857 33:12.162806 37:2 38:72.45451 39:0 43:77 44:8770.831 45:13778.516 46:423 47:1620.2222 48:4158.1147 52:32 53:21902.575 54:26560.427 55:8 56:74885.333 57:118287.09 
0.0888671875 1:1 19:518 20:1311.9864 21:2293.9747 25:30 26:22976.533 27:18285.643 28:56 29:11486.681 30:23724.159 31:3 32:16.274857 33:12.162806 37:2 38:72.45451 39:0 43:116 44:5794.0857 45:11460.061 46:414 47:1639.4561 48:4232.5973 52:23 53:24572.86 54:25826.14 55:8 56:74885.333 57:118287.09 61:1 
0.0888671875 1:1 4:7 5:3228.7178 6:7150.8982 19:515 20:1341.239 21:2595.2562 25:30 26:23324.073 27:21947.986 28:53 29:12836.157 30:24943.817 31:3 32:16.274857 33:12.162806 37:2 38:72.45451 39:0 40:1 43:125 44:5454.8275 45:11276.47 46:410 47:1673.4466 48:4299.4456 52:22 53:20732.624 54:19347.035 55:6 56:50309.38 57:100235.2 61:1 
0.0888671875 1:1 4:7 5:3228.7178 6:7150.8982 19:512 20:1342.485 21:2622.3402 25:29 26:22880.22 27:22372.096 28:49 29:13263.348 30:26292.942 31:3 32:16.274857 33:12.162806 37:2 38:72.45451 39:0 40:1 43:125 44:5173.7085 45:11174.894 46:397 47:1619.7599 48:4206.18 52:24 53:29174.498 54:42149.074 55:6 56:50309.38 57:100235.2 61:1 
0.0888671875 1:3 2:131542.56 3:112739.4 4:7 5:3228.7178 6:7150.8982 19:471 20:1453.746 21:2816.874 25:28 26:23193.134 27:25923.028 28:47 29:11574.865 30:20512.464 31:4 32:187934.41 33:265756.37 37:2 38:72.45451 39:0 40:3 41:58301.908 42:57448.207 43:123 44:5332.9592 45:11127.874 46:356 47:1856.9957 48:4722.8077 52:25 53:25956.139 54:41527.157 55:6 56:50309.38 57:100235.2 61:1 
0.0888671875 1:3 2:131542.56 3:112739.4 4:7 5:3228.7178 6:7150.8982 16:1 19:481 20:1431.7265 21:2806.0639 25:30 26:23334.609 27:25196.715 28:48 29:13350.875 30:23598.783 31:4 32:187934.41 33:265756.37 37:2 38:72.45451 39:0 40:3 41:58301.908 42:57448.207 43:143 44:4849.9669 45:10044.28 46:374 47:1840.1788 48:4521.5533 52:23 53:27425.298 54:42570.523 55:1 61:1 
0.0888671875 1:3 2:131542.56 3:112739.4 4:7 5:3228.7178 6:7150.8982 16:1 19:480 20:1428.6241 21:2664.8092 25:30 26:22044.194 27:24471.909 28:44 29:15161.207 30:25584.226 31:1 37:3 38:265827.13 39:265754.68 40:3 41:58301.908 42:57448.207 43:144 44:4709.5421 45:9326.6074 46:371 47:1858.383 48:4165.3831 52:26 53:27280.668 54:40631.86 55:1 61:1 
0.0888671875 1:3 2:131542.56 3:112739.4 4:7 5:3228.7178 6:7150.8982 16:1 19:480 20:1423.8648 21:2639.2287 25:28 26:23560.272 27:27701.29 28:48 29:12417.647 30:22439.741 31:1 37:3 38:265827.13 39:265754.68 40:3 41:58301.908 42:57448.207 43:146 44:4387.0878 45:8951.4566 46:357 47:1929.7167 48:4848.9066 52:25 53:28204.046 54:42715.328 55:1 61:1 
0.0888671875 1:3 2:131542.56 3:112739.4 4:7 5:3228.7178 6:7150.8982 16:1 19:495 20:1392.4503 21:2610.0992 25:32 26:21158.048 27:27063.359 28:45 29:15125.22 30:28651.508 31:1 37:1 40:4 41:171648.2 42:167017.84 43:151 44:4560.4003 45:9764.7415 46:355 47:1930.8076 48:4959.3935 52:25 53:19929.247 54:20608.147 61:1 
0.0888671875 1:21 2:24231.273 3:95047.199 4:7 5:3228.7178 6:7150.8982 16:1 19:383 20:1745.905 21:2942.9268 25:23 26:27651.297 27:26018.54 28:27 29:21359.947 30:34065.76 31:1 37:1 40:4 41:171648.2 42:167017.84 43:112 44:5961.4231 45:11239.167 46:279 47:2399.0493 48:5805.216 52:45 53:12935.412 54:17696.65 
0.0888671875 1:21 2:24231.273 3:95047.199 16:2 17:430022.65 18:0 19:358 20:1931.7196 21:3179.7493 25:21 26:31231.243 27:28225.88 28:22 29:21295.111 30:36226.7 31:1 37:1 40:3 41:199597.24 42:198743.54 43:100 44:6425.8736 45:11532.774 46:230 47:2995.5079 48:6586.5395 52:49 53:13463.491 54:19188.159 
0.0888671875 1:31 2:22373.749 3:81320.775 16:2 17:430022.65 18:0 19:382 20:1810.1503 21:3052.4547 25:22 26:27493.922 27:24127.551 28:28 29:25082.277 30:51200.631 31:1 37:1 40:3 41:199597.24 42:198743.54 43:100 44:6481.6534 45:11168.361 46:248 47:2741.8273 48:6091.6288 52:49 53:13165.572 54:18968.794 
0.0888671875 1:34 2:8355.4174 3:25117.023 7:1 13:1 16:2 17:430022.65 18:0 19:411 20:1665.8412 21:2814.388 25:21 26:32347.204 27:30320.793 28:26 29:23380.455 30:50393.901 37:1 40:1 43:93 44:7128.5114 45:14329.421 46:234 47:2920.0468 48:6683.0304 52:46 53:14941.16 54:20720.296 55:2 56:75.875176 57:0 
0.0888671875 1:34 2:8355.4174 3:25117.023 7:1 13:1 16:1 19:401 20:1722.6102 21:2899.8527 25:20 26:34628.719 27:30416.449 28:25 29:21446.024 30:50515.433 37:1 40:1 43:75 44:9157.8459 45:16575.994 46:221 47:3079.3598 48:7121.0276 52:51 53:13122.159 54:18389.293 55:2 56:75.875176 57:0 
0.0888671875 1:38 2:12674.103 3:37120.666 7:1 13:1 16:1 19:388 20:1767.7268 21:2965.5488 25:23 26:29174.494 27:27972.729 28:24 29:20842.86 30:51517.239 37:1 40:1 43:78 44:8851.5328 45:16651.176 46:207 47:3303.6652 48:7685.5281 52:52 53:12582.035 54:18628.964 55:2 56:75.875176 57:0 
0.0888671875 1:38 2:12674.103 3:37120.666 7:1 13:1 16:1 19:355 20:1926.8162 21:3284.5316 25:23 26:29211.548 27:27996.907 28:19 29:32782.206 30:71701.971 37:1 40:1 43:71 44:9180.7779 45:17039.471 46:188 47:3489.1819 48:7473.0108 52:53 53:11861.568 54:17586.64 55:2 56:75.875176 57:0 
0.0888671875 1:38 2:12674.103 3:37120.666 7:1 13:1 16:1 19:317 20:2117.5339 21:3207.3604 25:18 26:37526.923 27:28155.481 28:12 29:31728.823 30:67647.175 34:1 37:1 43:59 44:11412.27 45:19375.614 46:137 47:4864.9069 48:8307.5012 52:49 53:13666.175 54:20671.387 55:2 56:75.875176 57:0 
0.0888671875 1:19 2:16604.888 3:41718.42 7:1 13:2 14:438852.2 15:0 16:1 19:331 20:2076.0675 21:3098.7647 25:18 26:36399.572 27:25325.049 28:12 29:31728.823 30:67647.175 34:1 37:1 43:61 44:11024.033 45:19023.762 46:145 47:4738.3524 48:8495.6961 52:30 53:20444.294 54:24097.028 55:17 56:28457.112 57:109840.86 
0.0888671875 1:19 2:16604.888 3:41718.42 7:1 13:2 14:438852.2 15:0 19:333 20:2073.756 21:2990.1929 25:18 26:37299.456 27:24884.594 28:15 29:46556.595 30:93617.49 34:1 37:1 43:62 44:11181.857 45:19489.63 46:151 47:4514.8302 48:8990.7119 52:29 53:24185.141 54:25358.819 55:17 56:28457.112 57:109840.86 
0.0888671875 1:9 2:27078.425 3:59336.428 7:1 13:2 14:438852.2 15:0 19:295 20:2341.8073 21:3157.0029 25:18 26:35868.836 27:21156.438 28:9 29:85053.995 30:112715.81 34:1 37:1 43:60 44:10680.41 45:16832.624 46:121 47:5690.8428 48:10141.326 52:27 53:23474.776 54:24234.199 55:17 56:28457.112 57:109840.86 
0.0888671875 1:4 2:3166.8285 3:2862.6206 13:2 14:223997.24 15:0 19:268 20:2585.7538 21:3262.322 25:18 26:38158.655 27:24429.747 28:7 29:70055.349 30:109149.25 34:1 37:1 43:63 44:10462.863 45:16005.013 46:123 47:5590.4074 48:9498.3636 52:28 53:24428.967 54:25563.065 55:15 56:97.801668 57:122.66073 
0.0888671875 1:4 2:3166.8285 3:2862.6206 13:2 14:223997.24 15:0 19:252 20:2743.0974 21:3419.5178 25:17 26:41484.162 27:24117.977 28:7 29:70055.349 30:109149.25 34:1 37:1 43:61 44:11063.469 45:16507.246 46:123 47:5486.1518 48:9187.2683 52:21 53:27529.214 54:27577.114 55:15 56:97.801668 57:122.66073 
0.0888671875 13:2 14:223997.24 15:0 19:266 20:2601.9686 21:3219.4753 25:14 26:48641.405 27:19208.38 28:8 29:92387.249 30:114908.24 34:1 43:57 44:11531.961 45:16222.174 46:136 47:5034.4761 48:8804.6514 52:20 53:34911.97 54:36864.116 55:15 56:97.801668 57:122.66073 
0.0888671875 1:1 4:1 13:2 14:223997.24 15:0 19:343 20:1984.4687 21:2552.9791 25:15 26:45635.412 27:20332.84 28:21 29:21526.763 30:51595.117 34:1 43:65 44:10466.072 45:14804.822 46:223 47:3078.3718 48:6800.0711 52:22 53:29503.932 54:35573.053 55:15 56:97.801668 57:122.66073 
0.0888671875 1:1 4:1 13:2 14:223997.24 15:0 19:336 20:2028.3278 21:2715.3939 25:15 26:47744.826 27:21767.48 28:21 29:21526.763 30:51595.117 43:65 44:10527.534 45:15028.89 46:206 47:2997.2195 48:6941.2087 52:24 53:27444.911 54:40217.165 55:15 56:97.801668 57:122.66073 
0.0888671875 1:3 2:106311.1 3:91243.655 4:2 5:205249.14 6:0 13:1 19:341 20:2025.4893 21:2770.4398 25:13 26:50301.865 27:22453.637 28:21 29:21526.763 30:51595.117 43:57 44:10778.978 45:15185.761 46:205 47:3258.113 48:8544.4201 52:26 53:25052.079 54:37958.536 
0.0888671875 1:3 2:106311.1 3:91243.655 4:2 5:205249.14 6:0 13:1 19:379 20:1827.5422 21:2627.4378 25:17 26:40833.805 27:22464.555 28:26 29:22746.257 30:55197.369 37:1 43:69 44:9607.96 45:14327.24 46:262 47:2581.4203 48:7077.4167 52:27 53:25496.817 54:37249.043 
0.0888671875 1:3 2:106311.1 3:91243.655 4:2 5:205249.14 6:0 13:1 19:409 20:1687.9632 21:2500.0248 25:19 26:33753.708 27:20131.724 28:31 29:19663.528 30:51165.545 37:1 43:81 44:8151.221 45:13643.316 46:291 47:2311.6732 48:6432.1223 52:30 53:23409.784 54:35443.294 
0.0888671875 1:3 2:106311.1 3:91243.655 4:2 5:205249.14 6:0 19:426 20:1610.9738 21:2451.7693 25:19 26:35380.015 27:21966.856 28:32 29:17114.016 30:37642.498 37:1 43:81 44:8358.7996 45:13831.26 46:302 47:2260.7793 48:6440.0199 52:28 53:20497.155 54:28172.58 
0.0888671875 1:5 2:136625.78 3:134594.9 4:2 5:205249.14 6:0 13:1 19:447 20:1525.4636 21:2261.0503 25:26 26:25947.861 27:25323.594 28:36 29:16612.518 30:35897.278 37:3 38:134101.28 39:133859.03 43:94 44:6976.8692 45:12931.913 46:333 47:1999.3311 48:5895.091 52:42 53:15905.625 54:26424.152 55:2 56:5250.8681 57:0 
0.0888671875 1:5 2:136625.78 3:134594.9 4:2 5:205249.14 6:0 13:1 19:442 20:1562.7037 21:2349.112 25:27 26:25445.565 27:24700.58 28:36 29:18634.11 30:38497.598 37:3 38:134101.28 39:133859.03 43:96 44:6964.0536 45:13105.33 46:353 47:1950.2285 48:5810.1212 52:38 53:16279.379 54:27312.625 55:11 56:10140.334 57:13191.107 
0.0888671875 1:4 2:116316.11 3:150014.84 4:1 13:1 19:425 20:1600.9549 21:2320.6211 25:28 26:24281.552 27:22749.901 28:32 29:16568.258 30:27521.561 31:1 37:3 38:134101.28 39:133859.03 43:104 44:6439.5694 45:12872.654 46:350 47:1914.741 48:5730.5392 52:34 53:17968.908 54:30224.045 55:17 56:11814.241 57:19809.367 
0.0888671875 1:4 2:116316.11 3:150014.84 4:1 13:1 19:448 20:1538.8335 21:2236.753 25:32 26:21282.733 27:21471.469 28:52 29:11820.052 30:22908.23 31:1 37:5 38:140181.63 39:125448.89 40:1 43:118 44:5639.0182 45:11658.79 46:462 47:1464.1997 48:3424.5955 52:34 53:20624.551 54:32400.495 55:18 56:16681.536 57:27356.478 
0.0888671875 1:2 2:5483.9219 3:0 4:2 5:1917.9155 6:0 13:1 19:455 20:1520.2697 21:2070.8478 25:32 26:21090.584 27:21029.314 28:53 29:12494.402 30:23192.395 31:1 37:5 38:140181.63 39:125448.89 40:1 43:123 44:5604.1021 45:10817.339 46:479 47:1442.9609 48:3314.4747 52:43 53:15642.168 54:29365.332 55:32 56:11852.619 57:21498.631 
0.0888671875 1:3 2:226448.67 3:220964.75 4:4 5:40124.058 6:55350.656 13:1 19:417 20:1644.8067 21:2170.6789 25:28 26:23583.445 27:22825.709 28:46 29:13485.966 30:24678.798 31:1 37:4 38:97588.744 39:117160.64 40:1 43:106 44:6082.7503 45:11737.314 46:428 47:1582.9468 48:3565.3842 52:44 53:15456.472 54:29025.945 55:32 56:11852.619 57:21498.631 
0.0888671875 1:3 2:226448.67 3:220964.75 4:4 5:40124.058 6:55350.656 13:1 16:1 19:378 20:1823.708 21:2515.2218 25:24 26:21684.95 27:22199.579 28:40 29:13047.466 30:22841.29 31:1 37:4 38:97588.744 39:117160.64 40:1 43:89 44:7699.9377 45:15044.465 46:397 47:1650.4839 48:3700.8549 52:47 53:14240.975 54:27817.358 55:32 56:11852.619 57:21498.631 
0.0888671875 1:14 2:47978.815 3:120493.16 4:5 5:77194.531 6:80127.593 13:2 14:648717.69 15:0 16:1 19:364 20:1899.5511 21:2677.1077 25:24 26:24841.516 27:31792.375 28:38 29:11467.864 30:21115.242 31:1 37:4 38:97588.744 39:117160.64 40:1 43:88 44:6757.6485 45:14088.673 46:373 47:1824.702 48:4287.8777 52:52 53:12038.165 54:24453.435 55:32 56:11852.619 57:21498.631 
0.0888671875 1:14 2:15776.172 3:35509.488 4:5 5:77194.531 6:80127.593 13:1 16:1 19:363 20:1897.0908 21:2716.0043 25:19 26:35869.966 27:39429.31 28:47 29:13072.437 30:41932.645 31:1 37:2 38:30147.086 39:0 40:2 41:432841.27 42:0 43:78 44:8604.6346 45:18555.495 46:371 47:1856.6804 48:4520.1337 52:44 53:12575.673 54:16599.072 55:30 56:11114.176 57:21562.738 
0.0888671875 1:15 2:21786.061 3:40501.872 4:5 5:77194.531 6:80127.593 13:1 16:1 19:345 20:2003.2819 21:2842.8695 25:18 26:36213.596 27:40337.415 28:47 29:12992.885 30:41858.997 31:1 37:2 38:30147.086 39:0 40:2 41:432841.27 42:0 43:72 44:8670.8667 45:18978.332 46:332 47:1959.2342 48:4770.8988 52:55 53:11550.343 54:15479.464 55:21 56:12663.301 57:25044.543 
0.0888671875 1:15 2:21786.061 3:40501.872 4:6 5:98422.987 6:83300.267 13:2 14:221053.31 15:0 16:1 19:301 20:2283.5338 21:2998.5271 22:5 23:15345.185 24:26178.765 25:17 26:39544.493 27:41245.855 28:36 29:15157.013 30:47601.39 37:2 38:30147.086 39:0 40:2 41:432841.27 42:0 43:60 44:10723.937 45:21413.666 46:234 47:2846.5022 48:8555.534 52:55 53:10417.142 54:11652.883 55:15 56:5988.9342 57:7209.8427 
0.0888671875 1:15 2:21786.061 3:40501.872 4:6 5:98422.987 6:83300.267 13:2 14:221053.31 15:0 16:1 19:324 20:2131.2045 21:2921.7514 22:8 23:15618.365 24:22211.026 25:14 26:45680.243 27:42379.223 28:20 29:31481.418 30:72382.905 40:1 43:60 44:11288.33 45:21581.493 46:204 47:3329.0379 48:9352.6852 52:61 53:11020.229 54:15366.979 55:20 56:32719.16 57:121897.11 
0.0888671875 1:15 2:21786.061 3:40501.872 4:4 5:123934.22 6:87616.814 13:2 14:221053.31 15:0 16:1 19:325 20:2091.1021 21:2867.5289 22:8 23:15618.365 24:22211.026 25:15 26:46099.593 27:44337.273 28:19 29:30850.853 30:74315.555 40:1 43:66 44:9929.1493 45:20479.646 46:182 47:3744.321 48:9958.1573 52:63 53:10544.34 54:15525.629 55:16 56:7519.5462 57:23341.386 
0.0888671875 1:14 2:13230.612 3:27236.857 4:2 5:183336.81 6:0 13:2 14:221053.31 15:0 16:1 19:311 20:2223.0219 21:3164.0032 22:8 23:15618.365 24:22211.026 25:15 26:40278.124 27:35977.774 28:21 29:23008.585 30:49888.259 40:1 43:69 44:9837.5446 45:19626.357 46:183 47:3713.6305 48:9971.4695 52:65 53:9863.9001 54:15453.441 55:16 56:7519.5462 57:23341.386 
0.0888671875 1:14 2:13230.612 3:27236.857 4:2 5:183336.81 6:0 13:2 14:221053.31 15:0 19:381 20:1809.0166 21:2648.4366 22:8 23:15618.365 24:22211.026 25:20 26:35806.484 27:34228.811 28:23 29:26066.966 30:50573.43 34:1 40:1 43:101 44:6850.125 45:16118.208 46:225 47:3042.3156 48:8976.8002 52:60 53:11404.951 54:18858.476 55:16 56:7519.5462 57:23341.386 
0.0888671875 1:5 2:166833.53 3:212487.45 4:1 13:1 19:388 20:1751.655 21:2471.6462 22:8 23:15618.365 24:22211.026 25:21 26:30033.271 27:26856.936 28:24 29:25384.153 30:49565.369 34:1 40:1 43:109 44:5561.7205 45:12047.384 46:235 47:2829.965 48:8612.7531 52:55 53:11756.702 54:20711.703 55:16 56:7519.5462 57:23341.386 
0.0888671875 1:3 2:283673.49 3:245980.82 4:1 13:1 19:368 20:1852.7536 21:2566.0205 22:8 23:15618.365 24:22211.026 25:19 26:36262.365 27:27505.778 28:11 29:49394.168 30:65461.873 34:1 43:108 44:6135.6258 45:13611.655 46:200 47:3361.2013 48:9461.2223 52:58 53:11595.089 54:20236.418 55:16 56:7519.5462 57:23341.386 
0.0888671875 1:2 2:37692.664 3:0 4:2 5:683781.81 6:0 13:1 16:1 19:454 20:1518.5796 21:2544.9681 22:8 23:15618.365 24:22211.026 25:28 26:25383.469 27:30137.211 28:28 29:20183.272 30:45181.671 31:1 34:4 35:86649.835 36:121780.23 43:163 44:4230.5805 45:11393.097 46:259 47:2369.6617 48:6089.9399 52:62 53:10643.832 54:19628.249 55:16 56:7519.5462 57:23341.386 
0.0888671875 1:2 2:37692.664 3:0 4:1 16:1 19:460 20:1476.1138 21:2400.4001 22:3 23:5234.1312 24:3010.1592 25:28 26:24353.219 27:29528.509 28:32 29:20880.78 30:45106.299 31:1 34:4 35:86649.835 36:121780.23 43:162 44:4141.0324 45:11062.908 46:271 47:2489.5464 48:6451.2866 52:63 53:9597.2109 54:16569.643 55:16 56:7519.5462 57:23341.386 61:1 
0.0888671875 1:3 2:192176.41 3:154483.74 4:1 16:1 19:417 20:1646.3426 21:2576.0799 25:26 26:23438.604 27:27145.191 28:28 29:18790.479 30:41946.729 31:1 34:4 35:86649.835 36:121780.23 43:147 44:4416.4813 45:11829.366 46:190 47:3407.6379 48:8215.537 52:61 53:10640.995 54:18039.933 55:10 56:541.50961 57:352.17753 61:1 
0.0888671875 1:3 2:192176.41 3:154483.74 4:1 13:3 14:14598.142 15:8766.6355 16:1 19:407 20:1685.5763 21:2667.3846 25:25 26:25158.315 27:29318.459 28:28 29:18790.479 30:41946.729 31:1 34:4 35:86649.835 36:121780.23 43:138 44:4408.8702 45:11825.123 46:185 47:3613.8913 48:9580.326 52:47 53:12213.239 54:19732.183 61:1 
0.0888671875 1:3 2:192176.41 3:154483.74 4:1 13:3 14:14598.142 15:8766.6355 16:1 19:425 20:1612.5096 21:2511.4127 22:5 23:1751.4508 24:2940.0452 25:25 26:27799.776 27:34034.438 28:26 29:24348.356 30:60477.827 31:1 34:4 35:86649.835 36:121780.23 43:138 44:4953.1904 45:13342.027 46:174 47:3954.3175 48:10694.417 52:41 53:16287.618 54:32936.789 61:1 
0.0888671875 1:3 2:192176.41 3:154483.74 4:1 13:3 14:14598.142 15:8766.6355 16:1 19:359 20:1921.7247 21:2863.8086 22:5 23:1751.4508 24:2940.0452 25:21 26:34164.333 27:37230.031 28:25 29:25439.524 30:61577.563 31:1 34:3 35:538.37179 36:292.39331 43:108 44:6385.8567 45:15616.416 46:133 47:5173.9163 48:12238.777 52:39 53:15529.647 54:32418.093 55:7 56:141.32554 57:77.60601 61:1 
0.0888671875 1:3 2:155791.48 3:148468.74 4:1 13:3 14:14598.142 15:8766.6355 16:2 17:514026.09 18:0 19:358 20:1905.9152 21:2885.3204 22:17 23:10118.623 24:33932.745 25:21 26:30706.875 27:36533.612 28:24 29:18906.977 30:54152.348 31:1 34:3 35:538.37179 36:292.39331 43:110 44:5760.1724 45:14312.237 46:120 47:5397.2244 48:12594.325 52:54 53:12743.422 54:29200.724 55:7 56:141.32554 57:77.60601 61:2 62:503781.07 63:0 
0.0888671875 1:4 2:125545.21 3:128549.54 4:1 13:3 14:14598.142 15:8766.6355 16:2 17:514026.09 18:0 19:374 20:1839.1079 21:2724.9983 22:17 23:10118.623 24:33932.745 25:20 26:31872.424 27:39511.456 28:34 29:18439.572 30:53482.345 31:1 34:3 35:538.37179 36:292.39331 40:1 43:105 44:6217.3912 45:15115.352 46:155 47:4460.0319 48:11857.446 52:53 53:12705.681 54:29478.16 55:7 56:141.32554 57:77.60601 61:2 62:503781.07 63:0 
0.0888671875 1:4 2:125545.21 3:128549.54 13:3 14:14598.142 15:8766.6355 16:1 19:279 20:2463.935 21:2937.8439 22:17 23:10118.623 24:33932.745 25:18 26:35249.773 27:42132.703 28:17 29:32975.643 30:71527.848 40:1 43:65 44:9363.2271 45:18961.269 46:91 47:6748.3898 48:14435.007 52:41 53:16633.064 54:33509.111 55:7 56:141.32554 57:77.60601 61:2 62:503781.07 63:0 
0.0888671875 1:4 2:125545.21 3:128549.54 13:3 14:14598.142 15:8766.6355 16:1 19:258 20:2666.9867 21:3113.8305 22:17 23:10118.623 24:33932.745 25:23 26:28618.035 27:39641.735 28:21 29:19698.983 30:46289.969 40:5 41:32598.68 42:42728.816 43:85 44:7802.4577 45:17893.516 46:112 47:5850.58 48:16318.202 52:40 53:15858.226 54:32682.366 55:22 56:20298.722 57:90475.45 61:1 
0.0888671875 1:3 2:36187.706 3:28864.973 13:3 14:14598.142 15:8766.6355 16:1 19:254 20:2723.6032 21:3175.9118 22:17 23:10118.623 24:33932.745 25:24 26:25613.154 27:37418.394 28:21 29:19698.983 30:46289.969 37:1 40:7 41:36942.824 42:35914.79 43:84 44:7602.5923 45:17991.036 46:111 47:5709.0998 48:17086.22 52:34 53:15017.629 54:23415.356 55:23 56:19383.709 57:88494.673 61:1 
0.0888671875 1:5 2:115791.36 3:154273.67 16:1 19:245 20:2796.3816 21:3094.5119 22:17 23:10118.623 24:33932.745 25:24 26:23079.663 27:33011.938 28:21 29:19698.983 30:46289.969 37:1 40:7 41:36942.824 42:35914.79 43:82 44:7264.1546 45:17769.439 46:109 47:5956.6665 48:18020.267 52:42 53:14401.078 54:21518.566 55:23 56:19383.709 57:88494.673 61:1 
0.0888671875 1:5 2:115791.36 3:154273.67 16:1 19:245 20:2783.6193 21:3148.1355 22:12 23:1281.0552 24:3947.2461 25:26 26:23329.512 27:32743.686 28:30 29:22595.551 30:56366.1 37:1 40:7 41:36942.824 42:35914.79 43:87 44:7057.3481 45:18364.203 46:128 47:5159.6342 48:16688.182 52:43 53:14409.388 54:21204.733 55:23 56:19383.709 57:88494.673 61:1 
0.0888671875 1:6 2:114418.81 3:138013.86 16:2 17:592538.75 18:0 19:255 20:2706.9404 21:3104.8581 22:12 23:1281.0552 24:3947.2461 25:26 26:25960.889 27:35899.052 28:29 29:17222.486 30:49531.621 34:4 35:5492.6828 36:4816.6059 37:1 40:7 41:36942.824 42:35914.79 43:91 44:7243.1912 45:18552.392 46:114 47:5006.0251 48:17310.575 52:47 53:14387.502 54:21339.026 55:16 56:45.103261 57:58.738993 61:1 
0.0888671875 1:4 2:166572.88 3:156175.55 16:1 19:234 20:2921.9634 21:3480.5162 25:27 26:23243.036 27:30972.332 28:30 29:21162.848 30:52948.302 34:4 35:5492.6828 36:4816.6059 37:1 40:8 41:77850.678 42:105576.13 43:87 44:7631.0934 45:18897.603 46:117 47:5490.1799 48:20304.055 52:42 53:16141.5 54:21530.099 55:16 56:45.103261 57:58.738993 
0.0888671875 1:3 2:59838.933 3:49089.681 4:4 5:9.4096297 6:2.5325035 16:1 19:243 20:2837.5328 21:3485.3379 25:28 26:23233.274 27:29628.048 28:24 29:29112.02 30:61644.584 34:4 35:5492.6828 36:4816.6059 37:1 40:7 41:73134.273 42:113350.47 43:90 44:7196.7431 45:17698.837 46:95 47:7133.6771 48:22803.566 52:35 53:17978.093 54:22985.493 55:16 56:45.103261 57:58.738993 
0.0888671875 1:3 2:59838.933 3:49089.681 4:4 5:9.4096297 6:2.5325035 16:1 19:263 20:2623.9685 21:3264.4138 25:20 26:33620.78 27:30734.634 28:24 29:25128.738 30:58858.508 34:4 35:5492.6828 36:4816.6059 37:1 40:7 41:73134.273 42:113350.47 43:74 44:9259.1558 45:19402.017 46:99 47:6661.9295 48:19909.496 52:32 53:16657.09 54:22684.447 55:70 56:8770.6753 57:65074.7 
0.0888671875 1:3 2:59838.933 3:49089.681 4:4 5:9.4096297 6:2.5325035 16:1 19:297 20:2325.7872 21:3061.4157 25:14 26:44481.029 27:29695.007 28:16 29:22832.026 30:45440.31 34:4 35:5492.6828 36:4816.6059 37:1 40:3 41:179343.82 42:143953.98 43:55 44:12154.755 45:21182.493 46:76 47:8263.3242 48:20230.705 52:38 53:16432.999 54:28334.207 55:66 56:9365.4674 57:67002.341 
0.0888671875 1:4 2:187232.13 3:184565.93 4:4 5:9.4096297 6:2.5325035 16:1 19:291 20:2351.4121 21:3114.7476 25:14 26:51646.185 27:31142.879 28:16 29:22832.026 30:45440.31 31:2 32:15.478156 33:0 34:4 35:5492.6828 36:4816.6059 40:1 43:59 44:11804.78 45:20022.506 46:82 47:7801.5807 48:18644.161 52:36 53:15912.994 54:29021.56 55:65 56:994.2277 57:2100.3902 
0.0888671875 1:2 2:442018.51 3:0 4:4 5:9.4096297 6:2.5325035 16:1 19:302 20:2237.6581 21:3026.0513 25:17 26:40206.682 27:30495.318 28:23 29:29235.235 30:68370.406 31:2 32:15.478156 33:0 34:4 35:5492.6828 36:4816.6059 40:3 41:225450.32 42:225301.25 43:65 44:10051.677 45:16430.828 46:105 47:6348.1107 48:16472.988 52:38 53:18069.358 54:38632.602 55:65 56:994.2277 57:2100.3902 
0.0888671875 1:2 2:442018.51 3:0 4:4 5:9.4096297 6:2.5325035 16:1 19:294 20:2292.5792 21:3249.0701 25:16 26:40123.166 27:26213.942 28:15 29:37645.878 30:78872.831 31:2 32:15.478156 33:0 34:4 35:5492.6828 36:4816.6059 40:3 41:225450.32 42:225301.25 43:65 44:10091.734 45:15906.603 46:94 47:6086.3541 48:11234.687 52:40 53:16700.547 54:36391.475 55:65 56:994.2277 57:2100.3902 
0.0888671875 1:1 4:4 5:9.4096297 6:2.5325035 19:289 20:2397.9574 21:3380.0962 25:19 26:37917.282 27:28483.485 28:19 29:37066.917 30:75210.579 31:2 32:15.478156 33:0 40:4 41:222364.55 42:184009.46 43:71 44:9750.1638 45:17400.995 46:111 47:6124.1589 48:11167.861 52:40 53:17533.72 54:36411.64 55:65 56:994.2277 57:2100.3902 61:1 
0.0888671875 1:1 4:4 5:9.4096297 6:2.5325035 19:291 20:2331.0782 21:3230.6637 25:17 26:39200.395 27:29574.938 28:18 29:31020.105 30:73015.227 31:2 32:15.478156 33:0 40:3 41:108171.03 42:108021.96 43:67 44:10091.944 45:17467.119 46:117 47:5681.0787 48:9629.302 52:36 53:19117.836 54:37973.754 55:65 56:994.2277 57:2100.3902 61:1 
0.0888671875 1:1 19:295 20:2327.3682 21:3374.9749 25:16 26:38948.094 27:30868.277 28:14 29:38759.966 30:81763.495 31:2 32:15.478156 33:0 40:3 41:108171.03 42:108021.96 43:63 44:9422.9324 45:16629.846 46:107 47:6445.7523 48:10273.257 52:42 53:14487.426 54:27810.142 55:65 56:994.2277 57:2100.3902 61:1 
0.0888671875 1:1 19:268 20:2524.0246 21:3673.0178 25:17 26:41805.121 27:31434.757 28:19 29:26351.422 30:56012.533 31:2 32:15.478156 33:0 37:2 38:51674.946 39:0 40:3 41:108171.03 42:108021.96 43:66 44:10290.498 45:18573.634 46:121 47:5650.1837 48:9589.0245 52:47 53:14553.485 54:26423.502 55:11 56:361.02647 57:421.44769 61:1 
0.0888671875 1:1 19:232 20:2950.4878 21:4149.5938 25:18 26:38172.82 27:25805.634 28:19 29:26351.422 30:56012.533 31:2 32:15.478156 33:0 37:2 38:51674.946 39:0 40:3 41:108171.03 42:108021.96 43:65 44:10449.059 45:18833.472 46:112 47:5597.5147 48:9323.8919 52:42 53:12849.79 54:13112.311 55:1 61:1 
0.0888671875 1:1 19:247 20:2789.2254 21:3930.1677 25:17 26:41871.34 27:30735.013 28:20 29:32181.839 30:59867.896 31:1 37:2 38:51674.946 39:0 40:3 41:108171.03 42:108021.96 43:62 44:10982.653 45:20132.611 46:108 47:5867.6575 48:10746.138 52:46 53:14011.068 54:15958.441 55:1 61:1 
0.0888671875 1:1 13:1 19:248 20:2753.1712 21:3748.9308 25:15 26:47509.797 27:28118.641 28:13 29:44609.219 30:70575.623 31:1 37:2 38:51674.946 39:0 40:1 43:59 44:11558.227 45:20630.088 46:84 47:6627.3618 48:11471.773 52:40 53:17347.125 54:16336.55 55:1 61:1 
0.0888671875 1:1 13:2 14:89368.882 15:0 19:301 20:2258.273 21:3333.2065 25:18 26:38279.493 27:28358.325 28:11 29:40991.266 30:61015.33 31:2 32:319059.82 33:0 37:3 38:205273.59 39:153598.64 43:58 44:11416.698 45:20821.157 46:57 47:11170.14 48:28165.045 52:55 53:12567.297 54:15210.192 55:1 
0.0888671875 1:1 13:2 14:89368.882 15:0 19:336 20:2060.6177 21:3123.1613 25:21 26:33895.49 27:28612.568 28:13 29:52457.237 30:67401.336 31:2 32:319059.82 33:0 37:3 38:205273.59 39:153598.64 43:67 44:10271.367 45:19827.049 46:55 47:11995.581 48:29756.941 52:55 53:11905.045 54:14630.225 55:1 61:1 
0.0888671875 1:1 13:2 14:89368.882 15:0 19:351 20:1965.727 21:2997.1696 22:4 23:419.78811 24:307.8584 25:20 26:34539.581 27:30898.423 28:8 29:73450.532 30:69391.276 31:2 32:319059.82 33:0 37:1 43:63 44:10584.717 45:21538.806 46:37 47:17090.683 48:36389.737 52:51 53:13424.824 54:21673.84 55:1 61:1 
0.0888671875 1:1 13:2 14:89368.882 15:0 19:382 20:1802.8652 21:2746.7803 22:6 23:3935.1249 24:7105.1426 25:18 26:30031.029 27:27863.23 28:9 29:76321.002 30:65352.373 31:2 32:319059.82 33:0 37:1 43:57 44:9913.3745 45:21133.443 46:43 47:15432.088 48:35559.985 52:54 53:11997.334 54:19924.63 55:6 56:2076.1728 57:2446.4638 61:1 
0.0888671875 1:1 13:2 14:89368.882 15:0 19:374 20:1843.2685 21:2908.2692 22:6 23:3935.1249 24:7105.1426 25:19 26:32390.572 27:32933.727 28:10 29:62069.293 30:58389.766 31:1 37:2 38:510925.66 39:0 40:2 41:427.68724 42:0 43:60 44:10536.247 45:23023.747 46:46 47:12413.867 48:25982.448 52:53 53:12969.382 54:20561.678 55:27 56:6050.5568 57:14611.223 61:1 
0.0888671875 1:2 2:48939.157 3:0 4:1 13:1 19:360 20:1900.0441 21:3080.6437 22:6 23:3935.1249 24:7105.1426 25:19 26:35297.258 27:34096.773 28:12 29:57762.9 30:54435.377 31:1 37:2 38:510925.66 39:0 40:2 41:427.68724 42:0 43:66 44:9777.0654 45:22052.09 46:49 47:13237.339 48:26157.553 52:59 53:11420.829 54:19550.174 55:42 56:4062.052 57:11940.729 61:1 
0.0888671875 1:2 2:48939.157 3:0 4:1 19:360 20:1919.5076 21:2824.3081 22:6 23:3935.1249 24:7105.1426 25:14 26:47981.86 27:31867.103 28:9 29:73573.832 30:54547.128 31:1 37:2 38:510925.66 39:0 40:2 41:427.68724 42:0 43:52 44:13091.734 45:24566.425 46:37 47:17443.163 48:29064.21 52:54 53:12598.587 54:20009.319 55:42 56:4062.052 57:11940.729 61:1 
0.0888671875 1:2 2:48939.157 3:0 4:1 19:397 20:1733.6631 21:2637.8311 22:6 23:3935.1249 24:7105.1426 25:14 26:45825.974 27:33161.095 28:11 29:58666.48 30:55824.477 37:1 40:4 41:84951.258 42:119677.76 43:56 44:11952.763 45:23681.34 46:41 47:16686.071 48:31160.125 52:50 53:13653.652 54:20865.058 55:42 56:4062.052 57:11940.729 61:1 
0.0888671875 1:3 2:163410.95 3:114471.79 4:1 19:362 20:1902.7363 21:2854.3404 22:6 23:3935.1249 24:7105.1426 25:15 26:45692.9 27:32425.08 28:11 29:58666.48 30:55824.477 37:1 40:4 41:84951.258 42:119677.76 43:60 44:10842.571 45:22062.499 46:44 47:15494.286 48:29884.489 52:46 53:13792.637 54:22172.582 55:42 56:4062.052 57:11940.729 61:1 
0.0888671875 1:3 2:163410.95 3:114471.79 4:1 19:296 20:2337.424 21:3354.38 22:6 23:3935.1249 24:7105.1426 25:12 26:52720.468 27:26891.538 28:11 29:62317.477 30:60694.979 37:1 40:4 41:84951.258 42:119677.76 43:54 44:11546.03 45:21294.925 46:48 47:13878.484 48:27973.568 52:47 53:13191.431 54:16773.694 55:42 56:4062.052 57:11940.729 
0.0888671875 1:3 2:163410.95 3:114471.79 4:2 5:378902.89 6:0 19:300 20:2308.264 21:3197.3557 22:2 23:279.27288 24:0 25:13 26:47771.82 27:17963.2 28:10 29:58528.942 30:62846.404 37:1 40:5 41:113901.91 42:115136.86 43:59 44:10054.268 45:17216.67 46:48 47:12403.207 48:25244.296 52:60 53:11491.314 54:15545.813 55:48 56:13493.701 57:67891.429 
0.0888671875 1:4 2:192216.13 3:101957.53 4:2 5:378902.89 6:0 19:291 20:2373.3404 21:3239.8685 25:14 26:49630.786 27:18420.758 28:9 29:50552.873 30:62215.916 37:2 38:547146.43 39:0 40:5 41:113901.91 42:115136.86 43:63 44:10565.902 45:17882.394 46:44 47:15050.596 48:27516.636 52:56 53:10836.467 54:14470.153 55:42 56:13623.815 57:72123.502 
0.0888671875 1:4 2:192289.21 3:101854.83 4:4 5:186502.36 6:154739.84 19:307 20:2227.3155 21:3084.4444 25:14 26:49526.877 27:16318.926 28:7 29:57292.066 30:68357.562 37:2 38:72002.123 39:0 40:3 41:100489.41 42:100264.45 43:66 44:10347.182 45:17815.843 46:70 47:9151.1035 48:21548.939 52:53 53:9397.2475 54:13332.622 55:21 56:23825.959 57:101817.52 
0.0888671875 1:3 2:149492.44 3:100334.04 4:3 5:90302.089 6:90294.809 19:367 20:1872.1444 21:2713.8528 25:13 26:54479.646 27:23478.315 28:7 29:77675.108 30:109610.67 37:2 38:72002.123 39:0 40:3 41:100489.41 42:100264.45 43:69 44:9676.1076 45:16803.709 46:120 47:5553.8469 48:16564.408 52:45 53:15267.835 54:31107.066 55:6 56:7.6359922 57:6.4338123 
0.0888671875 1:3 2:149492.44 3:100334.04 4:3 5:90302.089 6:90294.809 19:387 20:1773.7121 21:2672.586 22:13 23:1889.0893 24:2739.4066 25:13 26:54888.04 27:23562.549 28:7 29:77675.108 30:109610.67 37:2 38:72002.123 39:0 40:3 41:100489.41 42:100264.45 43:68 44:9830.6995 45:17418.204 46:124 47:4986.5105 48:12370.075 52:41 53:16122.266 54:32772.264 55:6 56:7.6359922 57:6.4338123 
0.0888671875 1:3 2:149492.44 3:100334.04 4:3 5:90302.089 6:90294.809 19:388 20:1785.6356 21:2652.9047 22:13 23:1889.0893 24:2739.4066 25:12 26:55687.132 27:20936.713 28:7 29:90241.319 30:118322.49 37:2 38:72002.123 39:0 40:1 43:67 44:10422.047 45:16755.645 46:133 47:4816.9752 48:11045.45 52:39 53:16904.6 54:36810.914 55:6 56:7.6359922 57:6.4338123 
0.0888671875 1:2 2:49158.399 3:0 4:3 5:90302.089 6:90294.809 19:426 20:1611.1473 21:2350.7123 22:13 23:1889.0893 24:2739.4066 25:11 26:63207.095 27:22305.491 28:8 29:85517.465 30:110154.76 37:2 38:72002.123 39:0 40:1 43:73 44:8778.7687 45:14179.72 46:193 47:3425.5005 48:8740.8559 52:49 53:13719.64 54:32568.114 55:6 56:7.6359922 57:6.4338123 
0.0888671875 1:3 2:255734.04 3:206575.64 4:3 5:90302.089 6:90294.809 19:528 20:1307.4648 21:1979.79 22:13 23:1889.0893 24:2739.4066 25:15 26:46558.02 27:31899.866 28:23 29:18720.474 30:44163.079 37:2 38:72002.123 39:0 40:1 43:96 44:7252.9891 45:12596.365 46:333 47:2039.56 48:6644.7928 52:44 53:15655.634 54:34310.217 55:6 56:7.6359922 57:6.4338123 
0.0888671875 1:1 13:20 14:3407.14 15:11938.262 19:693 20:993.84116 21:1560.3844 22:13 23:1889.0893 24:2739.4066 25:21 26:30530.941 27:24340.725 28:35 29:17878.821 30:36672.414 31:1 34:1 43:140 44:4847.5377 45:8315.1604 46:502 47:1376.3776 48:3793.962 52:40 53:16305.321 54:22270.534 55:25 56:3109.7916 57:7710.4976 
0.0888671875 1:1 13:20 14:3407.14 15:11938.262 19:662 20:1040.7263 21:1669.6956 22:13 23:1889.0893 24:2739.4066 25:21 26:30078.283 27:23830.394 28:39 29:12842.362 30:19663.885 31:1 34:1 43:129 44:4794.052 45:7984.8411 46:488 47:1407.9871 48:3983.5315 52:39 53:17613.223 54:26783.33 55:25 56:3109.7916 57:7710.4976 
0.0888671875 1:1 13:20 14:3407.14 15:11938.262 19:697 20:991.36499 21:1562.0516 25:33 26:21263.171 27:23591.316 28:42 29:14773.894 30:23005.024 31:1 34:1 37:1 43:159 44:4306.4674 45:7665.1401 46:522 47:1318.5946 48:3004.6493 52:40 53:15600.533 54:22299.237 55:26 56:12474.552 57:46495.63 
0.0888671875 1:1 13:20 14:3407.14 15:11938.262 16:1 19:679 20:1017.0208 21:1598.5543 25:33 26:20657.218 27:21892.981 28:40 29:16919.262 30:27491.436 31:1 34:1 37:1 43:159 44:4295.8055 45:7728.1294 46:527 47:1301.3839 48:3096.7443 52:36 53:17019.286 54:23075.343 55:35 56:11862.495 57:40204.919 
0.0888671875 1:2 2:612302.22 3:0 4:1 13:20 14:3407.14 15:11938.262 16:1 19:647 20:1064.0603 21:1909.0732 25:35 26:18450.928 27:22164.115 28:46 29:14864.301 30:25296.27 31:1 34:1 37:1 40:14 41:5508.3157 42:5936.8087 43:155 44:4308.9554 45:8328.8434 46:501 47:1363.9764 48:3582.1908 52:40 53:17165.203 54:25753.17 55:45 56:11152.707 57:35789.639 61:1 
0.0888671875 1:1 4:2 5:74978.97 6:0 7:8 8:3702.2795 9:8690.1937 13:20 14:3407.14 15:11938.262 16:1 19:578 20:1196.7539 21:1967.5011 25:32 26:20000.646 27:22079.634 28:30 29:21878.541 30:30810.351 31:1 34:1 37:2 38:288880.25 39:0 40:23 41:5675.5635 42:5771.0208 43:136 44:4860.3151 45:9476.8436 46:365 47:1895.9337 48:4635.7384 52:42 53:15843.749 54:25173.726 55:52 56:11030.529 57:33776.471 61:1 
0.0888671875 1:1 4:3 5:100470.94 6:25491.975 7:8 8:3702.2795 9:8690.1937 13:20 14:3407.14 15:11938.262 16:1 19:503 20:1355.2709 21:2109.2043 25:36 26:19026.832 27:21794.391 28:27 29:24922.092 30:34289.084 34:1 37:2 38:288880.25 39:0 40:23 41:5675.5635 42:5771.0208 43:137 44:4996.155 45:10300.695 46:282 47:2383.1152 48:5242.0777 52:36 53:14706.936 54:25902.892 55:52 56:11030.529 57:33776.471 61:1 
0.0888671875 1:1 4:3 5:100470.94 6:25491.975 7:8 8:3702.2795 9:8690.1937 13:20 14:3407.14 15:11938.262 16:1 19:552 20:1254.045 21:2152.3184 22:8 23:208.00262 24:72.296961 25:38 26:18065.19 27:21273.918 28:30 29:23019.49 30:33320.69 34:1 37:2 38:288880.25 39:0 40:23 41:5675.5635 42:5771.0208 43:128 44:5329.6002 45:10823.993 46:323 47:2141.2188 48:5260.6434 52:37 53:18608.614 54:39608.945 55:43 56:11798.07 57:36804.219 61:1 
0.0888671875 1:1 4:3 5:100470.94 6:25491.975 7:8 8:3702.2795 9:8690.1937 16:1 19:565 20:1217.3937 21:2049.985 22:8 23:208.00262 24:72.296961 25:37 26:17280.696 27:22613.181 28:30 29:21203.356 30:31986.551 34:1 37:2 38:288880.25 39:0 40:23 41:5675.5635 42:5771.0208 43:129 44:4860.1988 45:10056.579 46:349 47:1961.907 48:4593.0573 52:37 53:16785.29 54:37066.243 55:44 56:11311.493 57:35213.461 61:1 
0.0888671875 1:1 4:3 5:100470.94 6:25491.975 7:8 8:3702.2795 9:8690.1937 16:1 19:562 20:1227.9542 21:2001.4082 22:8 23:208.00262 24:72.296961 25:38 26:17801.319 27:22608.026 28:30 29:21986.298 30:34869.81 34:1 37:2 38:288880.25 39:0 40:23 41:5675.5635 42:5771.0208 43:137 44:4849.3365 45:10050.948 46:352 47:1957.3595 48:4505.0225 52:45 53:14338.083 54:33251.869 55:44 56:11311.493 57:35213.461 61:1 
0.0888671875 1:1 4:4 5:181967.82 6:117118.35 7:8 8:3702.2795 9:8690.1937 16:1 19:570 20:1194.1778 21:2015.3984 22:8 23:208.00262 24:72.296961 25:27 26:22254.421 27:21642.157 28:40 29:14645.465 30:28082.093 31:3 32:25.578449 33:1.377893 34:1 37:1 40:23 41:5675.5635 42:5771.0208 43:115 44:5599.5292 45:11090.041 46:378 47:1771.9205 48:4332.6764 52:44 53:13816.598 54:31792.54 55:47 56:14837.817 57:42082.53 61:1 
0.0888671875 1:1 4:4 5:181967.82 6:117118.35 7:8 8:3702.2795 9:8690.1937 19:601 20:1150.8434 21:2013.4882 22:8 23:208.00262 24:72.296961 25:30 26:21777.699 27:22788.325 28:41 29:17127.464 30:32271.757 31:3 32:25.578449 33:1.377893 34:2 35:352581.23 36:0 37:1 40:23 41:5675.5635 42:5771.0208 43:132 44:5232.5484 45:11563.645 46:395 47:1742.5988 48:4805.1723 52:48 53:12808.787 54:30591.129 55:73 56:9133.5234 57:34180.437 61:1 
